tree
version=v4
num_class=1
num_tree_per_iteration=1
label_index=0
max_feature_idx=46
objective=binary sigmoid:1
feature_names=gnn_emb_10 count_txn_1h amount amount_to_avg_30d last_os_categorical_freq days_since_os_release gnn_emb_6 mcc_risk_score gnn_emb_4 gnn_emb_14 amount_per_login_interval burstiness_login_interval gnn_emb_0 fano_factor_login_interval logins_last_7_days gnn_emb_12 time_since_last_txn monthly_os_changes amount_decimal last_os_categorical gnn_emb_15 is_future_os is_obsolete_os gnn_emb_5 last_phone_model_categorical gnn_emb_3 gnn_emb_1 gnn_emb_7 is_fake_os anomaly_score last_phone_model_categorical_freq high_risk_device std_amount_7d gnn_emb_8 direction_fan_in anomaly_score_raw gnn_emb_9 zscore_avg_login_interval_7d avg_amount_30d gnn_emb_13 monthly_phone_model_changes is_high_risk_mcc direction_txn_count logins_last_30_days sum_amount_24h gnn_emb_2 gnn_emb_11
feature_infos=[-54.11009698800045:0.0078305312535425029] [1:16] [-50000:5024700] [-1.6470458003480111:499999999.99999994] [0:0.18970023059185243] none [-9.8444911485911631e-05:64.075338964274664] none [-16.202237227731256:0.00010485903551025222] [-0.016185191010250954:154.39037498942108] [-500005.0000500005:6999.8321666946385] [-1:0.67741760415128927] [-52.056909255065193:8.1843014627788383e-07] [-1:2856431.5070558186] [0:180] [-0.0029215055892375251:141.10653895436749] [1:15030862] [0:6] [0:0.99100000000180444] -1:4:3:2:5:36:29:1:27:0:41:44:43:40:39:25:38:37:12:35:33:20:34:15:48:13:30:21:22:26:42:14:28:18:46:31:32:16:19:24:6:11:17:47:7 [-23.163051925014731:0.18733790226221234] none none [-0.0013001773031200558:199.41536420581505] -1:231:224:226:230:228:215:33:221:218:172:115:222:234:219:223:154:182:209:151:233:190:109:62:70:104:212:89:107:179:4:49:229:165:184:240:141:119:155:46:146:85:116:235:217:73:177:178:123:72:156:164:69:161:88:117:79:207:27:198:106:171:174:87:232:120:158:35:201:108:145:148:122:181:23:147:121:14:210:74:131:188:211:98:103:91:51:57:58:16:86:187:24:118:189:81:241:193:216:54:173:8:100:138:144:15:55:196:168:92:220:83:133:28:76:77:82:12:34:38:60:167:205:64:101:110:11:47:139:157:0:36:78:113:175:20:61:111:132:142:149:185:206:13:26:203:50:65:166:19:170:180:200:7:84:105:124:136:143:9:10:29:59:67:90:93:130:153:162:163:176:183:204:18:22:66:125:126:127:159:195:2:52:95:112:160:237:25:30:31:99:129:137:152:208:239:21:41:48:56:97:114:128:134:140:186:192:199 [-6.7620757503967179e-05:204.36678361400206] [-2.3908431075242765e-05:217.86711132891] [-1.2880166589071795e-05:188.91096033444086] none [-1:1] [0:0.075634127594158343] [0:1] [0:3323401.8715767735] [-99.218016483954528:0.00031293896765931695] [1:3] [-0.16254273157163451:0.29827411108095847] [-0.008365204210096339:144.22823481372097] [-1.6863033664441271:4.8906223730604932] [0:3757075] [-73.762629149528195:0.0039083290603846854] [0:5] none [1:224] [0:388] [0:5024700] [-7.8286551325111001e-06:72.994641953418892] [-0.061794048635228055:164.52075545134571]
tree_sizes=3298 3423 3411 3386 3497 3469 3405 3478 3543 3481 3481 3474 3493 3489 3499 3515 3474 3522 3502 3510 3528 3435 3499 3498 3504 3440 3501 3513 3524 3448 3520 3459 3468 3512 3434 3484 3498 3517 3470 3449 3476 3458 3473 3446 3488 3468 3538 3470 3491 3479 3489 3459 3466 3477 3504 3466 3493 3476 3559 3476 3497 3478 3506 3481 3491 3490 3469 3494 3502 3483 3510 3488 3495 3491 3476 3481 3526 3516 3496 3512 3506 3497 3534 3509 3544 3505 3536 3516 3514 3525 3511 3534 3536 3540 3505 3565 3560 3545 3527 3541 3557 3550 3529 3568 3587 3539 3566 3543 3563 3559 3568 3569 3567 3551 3554 3569 3562 3561 3553 3567 3567 3566 3565 3563 3585 3569 3563 3580 3588 3605 3554 3596 3578 3591 3568 3602 3582 3609 3594 3576 3591 3580 3584 3588 3598 3606 3606 3611 3597 3600 3594 3602 3591 3620 3601 3606 3629 3606 3602 3612 3629 3623 3648 3621 3631 3648 3609 3641 3644 3644 3623 3654 3662 3642 3629 3644 3637 3632 3639 3656 3641 3628 3671 3656 3654 3664 3664 3656 3657 3663 3671 3672 3675 3652 3671 3657 3664 3670 3685 3673 3704 3673 3691 3715 3674 3689 3693 3712 3679 3693 3706 3726 3011 3698 3700 3718 3468 3707 3356 3692 3730 3603 3599 3730 2908 3375 3726 2900 3476 2932 3611 3270 3025 3144 3165 2582 2913 2932 2931 2964 2811 2820 2807 2936 2697 2109 2682 2458 2467 2468 2238 2236 2227 2139 2132 2121 2133 2136 1983 2129 2006 2000 1762 1794 2007 1893 1751 1668 1887 1778 1645 1775 1672 1651 1666 1670 1660 1652 1423 1430 1657 1437 1552 1434 1425 1439 1422 1426 1315 1418 1431 1439 1310 1313 1432 1182 1314 1307 1319 1192 1307 1426 1302 1318 1312 1196 1304 1304 1191 1197 1194 1087 1193 1193 1083 1199 1194 1072 1090 969 1080 1073 1082 1081 1090 1191 1198 975 961 1080 1092 957 953 959 1070 958 974 1091 962 966 1087 962 958 959 845 961 969 855 975 974 843 968 1080 968 836 960 973 969 968 960 975 958 855 847 850 965 962 971 970 847 964 975 960 843 968 851 841 857 850 848 854 728 850 861 845 845 848 975 842 853 974 845 850 846 855 727 850 734 846 842 737 847 859 732 740 847 739 842 850 733 730 854 725 743 851 733 860 845 853 734 736 732 735 728 856 733 840 738 742 736 737 731 734 736 736 732 852 728 735 732 619 730 737 732 845 733 622 739 738 622 738 622 730 624 727 741 618 735 735 613 736 733 730 738 736 730 741 738 613 728 728 624 612 620 619 616 614 621 620 730 614 615 618 613 730 734 732 730 613 615 622 736 504 607 616 743 622 615 623 732 612 726 618 618 625 733 621 730 615 618 611 737 728 614 616 624 613 615 622 740 619 743 612 621 503 616 745 736 624 625 610 612 608 623 623 740 731 617 622 616 617 627 612 613 622 626 622 618 628 616 626 615 619 622 619 618 617 619 617 616 617 622 618 624 614 622 626 617 618 625 615 620 616 620 616 624 612 620 623 616 506 613 612 615 621 500 505 615 613 616 625 499 617 621 617 498 621 621 499 622 620 618 618 503 618 619 612 621 618 623 616 619 611 618 617 628 617 613 616 619 504 619 620 505 617 619 619 617 620 619 505 620 500 618 614 616 620 617 500 622 619 623 615 621 506 615 620 613 498 504 619 497 504 500 504 613 505 497 617 503 613 502 620 498 501 619 504 499 616 619 503 504 503 501 617 500 496 618 498 505 617 498 505 499 499 504 622 498 506 500 503 499 625 497 501 500 500 502 501 618 502 505 503 497 500 504 502 503 503 501 495 500 505 499 501 615 503 504 500 504 505 499 501 498 618 507 495 498 502 498 617 502 503 498 615 504 507 500 500 505 503 620 500 497 505 500 507 506 502 494 502 505 497 500 617 501 502 504 503 505 500 504 498 500 505 501 503 503 496 500 500 498 619 506 501 502 504 502 500 501 499 501 504 500 500 498 501 500 503 504 500 504 502 503 503 505 499 502 499 500 502 499 623 501 502 506 505 504 497 499 500 502 501 500 501 499 506 500 501 506 501 504 499 501 503 505 498 503 501 507 502 506 505 503 498 500 500 504 495 500 503 496 503 509 499 500 496 500 501 503 503 500 499 500 382 505 499 505 500 505 504 495 506 500 501 501 505 504 500 499 503 499 502 499 501 381 501 503 507 505 497 498 502 503 498 383 502 501 499 501 501 501 499 504 502 501 501 503 499 501 498 504 506 504 499 501 498 383 498 501 504 500 503 505 501 498 502 500 497 504 501 502 381 501 504 496 502 499 506 499 507 501 498 503 504 496 501 503 502 499 498 499 501 505 499 382 505 504 506 502 505 506 503 502 500 499 501 383 506 497 501 503 500 382 499 503 499 501 505 500 509 501 505 499 497 502 382 497 499 382 502 506 499 501 498 498 501 503 498 502 501 501 497 501 499 495 496 498 505 505

Tree=0
num_leaves=30
num_cat=0
split_feature=3 42 20 38 42 42 2 25 11 3 36 37 33 9 13 44 14 44 8 40 14 0 0 0 0 0 0 2 2
split_gain=400.379 1677.74 755.016 278.61 132.654 69.5569 150.455 187.989 132.584 41.1404 73.7103 168.28 13.7845 18.5106 8.81308 24.8461 8.19727 3.416 5.10672 3.10401 5.74952 8.88178e-16 1.11022e-16 1.11022e-16 5.55112e-17 5.55112e-17 5.55112e-17 5.55112e-17 5.55112e-17
threshold=15.057825330543606 3.5000000000000004 -1.0000000180025095e-35 8108.3409090909099 1.5000000000000002 3.5000000000000004 100250.00000000001 -1.0000000180025095e-35 0.23159994578798579 1.4814814802743486 -1.4471994266645612e-18 -0.24161509971196302 -2.0000632781906304e-22 -7.042962564069834e-20 762498.14435286017 14090.000000000002 49.500000000000007 1012.0000000000001 -1.0000000180025095e-35 2.5000000000000004 14.500000000000002 5.5448282278897275e-07 3.4406277906181817e-12 -1.084218085219839e-30 2.7858094947249602e-16 -7.7474331660138817e-16 -1.0000000180025095e-35 44216.356950000009 45050.000000000007
decision_type=2 2 2 2 2 2 2 2 2 2 2 2 2 2 2 2 2 2 2 2 2 2 2 2 2 2 2 2 2
left_child=5 2 4 -4 -2 6 9 24 -9 14 11 -11 13 -12 16 -16 17 18 -1 21 -21 -19 23 -14 -8 -13 -17 -24 -25
right_child=1 -3 3 -5 -6 -7 7 8 -10 10 12 25 22 -15 15 26 -18 19 -20 20 -22 -23 27 28 -26 -27 -28 -29 -30
leaf_value=-5.2359521287194122 -3.0675623490571096 -5.2359521287194122 -2.0299994974982516 0.89491183163531662 -5.2359521287194122 -5.2359521287194122 -5.2359521287194122 -4.2320679714683429 -2.0737170333785602 -3.3338558307700197 -5.2359521287194113 -5.2359521287194122 -5.2359521287194122 -4.3324563871934529 -4.3324563871934529 -5.2359521287194122 -4.7842042579564321 -5.2359521287194122 -4.7842042579564259 -4.7842042579564321 -5.2359521287194122 -5.2359521287194122 -5.2359521287194122 -5.2359521287194122 -5.2359521287194113 -5.2359521287194122 -5.2359521287194113 -5.2359521287194122 -5.2359521287194122
leaf_weight=0.14388556778430939 0.13835150748491287 2.2634306624531746 0.17155586928129141 0.15495368838310242 0.14388556778430939 50.442959628999233 0.17708992958068848 0.19922617077827443 0.1106812059879303 0.21029429137706757 0.11621526628732681 0.13281744718551636 0.12728338688611973 0.11068120598793019 0.11068120598793019 0.12728338688611984 0.11068120598793019 4.9419158473610878 0.11068120598792841 0.11068120598793019 0.19369211047887802 0.2656348943710326 0.13281744718551636 0.2213624119758606 0.1106812059879303 0.12728338688611973 0.11621526628732681 0.12728338688611984 0.20476023107767105
leaf_count=26 25 409 31 28 26 9115 32 36 20 38 21 24 23 20 20 23 20 893 20 20 35 48 24 40 20 23 21 23 37
internal_value=-5.18567 -4.60925 -2.27906 -0.641906 -4.17302 -5.21384 -5.08007 -4.31572 -3.46123 -5.13908 -4.905 -4.3856 -5.13984 -4.79522 -5.19583 -4.95361 -5.21043 -5.21861 -5.03954 -5.22688 -5.07168 -5.23595 -5.23595 -5.23595 -5.23595 -5.23595 -5.23595 -5.23595 -5.23595
internal_weight=61.655 2.87218 0.608747 0.32651 0.282237 58.7828 8.33983 0.597679 0.309907 7.74215 1.5108 0.470395 1.0404 0.226896 6.23135 0.35418 5.87717 5.76649 0.254567 5.51192 0.304373 5.20755 0.813507 0.553406 0.287771 0.260101 0.243499 0.260101 0.426123
internal_count=11141 519 110 59 51 10622 1507 108 56 1399 273 85 188 41 1126 64 1062 1042 46 996 55 941 147 100 52 47 44 47 77
is_linear=0
shrinkage=1


Tree=1
num_leaves=31
num_cat=0
split_feature=42 4 14 17 2 2 13 9 42 38 30 8 37 14 4 30 43 14 25 30 43 16 10 25 11 37 35 3 13 37
split_gain=71.1058 25.3344 57.5019 15.3942 13.8785 23.655 14.9037 23.5518 42.5762 14.4213 10.3766 15.3294 9.75486 7.21792 21.3431 7.92248 19.5788 7.6084 5.78581 4.62582 3.94015 3.44669 6.32588 2.351 2.24818 1.26851 1.16799 0.00247615 0.000675634 0.000623429
threshold=3.5000000000000004 0.005457340507302076 13.500000000000002 1.0000000180025095e-35 39895.000000000007 40076.500000000007 113502.0069113146 -1.5305620471911954e-23 1.5000000000000002 6888.0959595959603 0.0016525749423520371 5.9219145704497709e-20 0.16759382948041809 3.5000000000000004 0.012182936202920833 0.023904688700999235 10.500000000000002 56.500000000000007 2.3547979916962542e-18 0.023904688700999235 23.500000000000004 2144611.0000000005 0.21592111298811337 -1.0000000180025095e-35 0.12792092998187793 -0.34561813188054896 -0.032241768489905308 15.948051901256425 1114341.4238340857 -0.31587375185074545
decision_type=2 2 2 2 2 2 2 2 2 2 2 2 2 2 2 2 2 2 2 2 2 2 2 2 2 2 2 2 2 2
left_child=1 2 3 -1 13 -6 12 8 -8 -9 -11 19 18 14 -3 -16 -17 21 20 24 -7 27 -23 25 -12 -22 -20 -15 -10 -27
right_child=-2 4 -4 -5 5 6 7 9 28 10 11 -13 -14 17 15 16 -18 -19 26 -21 23 22 -24 -25 -26 29 -28 -29 -30 -31
leaf_value=0.41020946979352191 -0.050266088406244663 0.6909792020496508 0.97346901337845237 -0.11166535168125598 0.56480343418277712 -0.096534284869757611 0.66382761184546935 0.22355615409461427 -0.050296390647506295 -0.069135814324887773 0.046276195465895717 0.26218449588526743 0.16331506176039928 -0.050450009495999343 -0.050420098216077694 -0.050282383841098524 0.71683664651253665 0.3549636782775642 -0.054807529503066305 0.11411013957646493 0.05895299516330204 -0.050273158617639917 0.44626107373650986 0.099610844432489548 -0.055140860855622746 -0.055280263629455088 -0.13531146631900967 -0.054869411509943601 -0.054698173506021165 -0.051347119559260107
leaf_weight=0.2157291248440768 50.149211190640926 0.13481985498219984 0.24393303319811821 0.40961060021072626 0.24354698322713275 0.57365297432988827 0.48859080765396168 1.4294675849378107 0.21420089621096849 1.4585435558110473 1.0230470299720771 0.95300040487200011 0.80825715325772751 5.0995553815737367 0.89818773232400395 0.23002502135932446 0.13028839137405157 0.12334054335951794 0.90563640464097261 1.2022555302828548 0.45436977967619896 0.17672068253159512 0.10069439560174942 1.158816206268966 1.1729852939024565 0.12894013337790966 0.89661943539977051 0.33795458264648903 0.14700255077332258 0.46083710528910182
leaf_count=18 9524 16 21 38 25 22 30 17 39 29 20 26 32 840 148 42 18 15 27 19 3 33 18 10 32 6 15 6 8 44
internal_value=-0.0174831 0.0578604 0.322357 0.0683705 0.0468864 0.0764311 0.067605 0.110515 0.359529 0.0812846 0.0462797 0.0849667 0.00317264 -0.00916571 0.0930872 0.0290366 0.227106 -0.0335687 -0.0250955 0.0352686 0.0201862 -0.0419541 0.129956 0.0505803 -0.00789455 -0.00383475 -0.0948581 -0.0507247 -0.0520878 -0.052207
internal_weight=71.9698 21.8206 0.869273 0.62534 20.9514 13.7198 13.4762 8.08909 0.849794 7.2393 5.80983 4.35129 5.38713 7.23159 1.39332 1.2585 0.360313 5.83827 4.57887 3.39829 2.77662 5.71493 0.277415 2.20296 2.19603 1.04415 1.80226 5.43751 0.361203 0.589777
internal_count=11141 1617 77 56 1540 404 379 220 77 143 126 97 159 1136 224 208 60 912 127 71 85 897 51 63 52 53 42 846 47 50
is_linear=0
shrinkage=0.05


Tree=2
num_leaves=31
num_cat=0
split_feature=42 2 2 4 43 8 35 13 10 13 38 15 14 12 43 16 16 16 4 37 4 40 30 11 43 16 3 2 2 3
split_gain=63.705 15.7649 18.3164 23.5048 17.2306 19.1281 24.9822 14.1144 9.74282 9.45371 12.716 8.9054 8.36387 7.11735 7.09214 5.80782 19.6926 5.16221 4.43808 3.39098 2.52216 2.11604 0.844819 0.674066 0.597029 0.578056 0.00436307 0.00274287 0.00225332 0.00119595
threshold=3.5000000000000004 10995.000000000002 336430.50000000006 0.005457340507302076 113.50000000000001 1.0558705657545985e-25 0.071724096561705267 436508.11626042629 1.434748700871699 762498.14435286017 25813.392857142859 -1.9120844317254661e-07 7.5000000000000009 1.2286719177070467e-29 27.500000000000004 427036.00000000006 727938.50000000012 1299492.5000000002 0.044388931591083786 -0.35579031865258243 0.039392774788624137 1.5000000000000002 0.00088393543428132214 0.032719009785307861 8.5000000000000018 934037.00000000012 5.3265000627497292 76307.500000000015 99600.000000000015 19.569904887622982
decision_type=2 2 2 2 2 2 2 2 2 2 2 2 2 2 2 2 2 2 2 2 2 2 2 2 2 2 2 2 2 2
left_child=1 9 3 13 5 11 7 8 17 29 -11 14 -4 -3 -5 19 -17 28 -16 21 -18 24 -21 -24 -13 -22 -25 -27 -7 -1
right_child=-2 2 12 4 -6 6 -8 -9 -10 10 -12 15 -14 -15 18 16 20 -19 -20 22 25 -23 23 26 -26 27 -28 -29 -30 -31
leaf_value=-0.050330638647089511 -0.050253045233241249 0.20105488646070291 -0.090363032821226749 0.34171360922936866 0.38903358034058588 -0.050642299213879742 0.6089684478387779 0.3090275049621205 0.19738061069691235 -0.050688287954979087 0.52470749174004372 0.044451786738593041 0.041919089058221497 0.49121108185301382 0.18889188392845904 0.27191963672433966 0.083956089366929998 0.24217571252534842 -0.053497616334394128 -0.1351897481350082 0.019769765123450828 0.11295703102390785 0.024266791754793474 -0.051186133515513835 -0.052233490732435044 -0.050509997584136324 -0.055550154328136425 -0.055089852810441091 -0.055703471004507801 -0.055047265629530065
leaf_weight=4.2741975798271623 47.715474713593721 0.39228366082534449 1.9376893080770958 0.37712256144732037 0.4508769051171847 0.91851547593251071 0.30161506123840798 0.82623844360932697 0.88101621158421028 0.21453197440132488 0.1738124405965209 0.25516586238518113 3.1173432455398142 0.45821194350719452 0.4070962592959404 0.8456727406010035 0.54135219147428904 0.17033135192468751 0.35224951058626175 0.28498477255925436 0.33290810417383898 0.59552495973184705 0.31340328883379731 0.97020284645259414 0.42661769734695554 0.51097839465364792 1.3980616293847559 0.90759096387773752 0.28914783522486687 0.13876038789749134
leaf_count=768 9524 30 24 8 30 125 13 37 33 22 23 8 32 16 18 20 21 15 24 7 5 11 17 122 38 74 37 31 6 2
internal_value=-0.017274 0.0509554 0.0721515 0.103131 0.085631 0.0741411 0.174654 0.132195 0.0675178 -0.0296659 0.206843 0.0341804 -0.00878714 0.357379 0.164475 0.0141227 0.065693 -0.0155096 0.0764509 -0.0240147 -0.0103703 0.0440986 -0.0533413 -0.0446432 -0.0160478 -0.0395249 -0.0537624 -0.0534402 -0.0518541 -0.0504789
internal_weight=70.779 23.0635 18.2622 13.2072 12.3567 11.9058 3.38686 3.08525 2.25901 4.8013 0.388344 8.51893 5.05503 0.850496 1.13647 7.38246 3.1385 1.37799 0.759346 4.24396 2.29283 1.27731 2.96665 2.68167 0.681784 1.75148 2.36826 1.41857 1.20766 4.41296
internal_count=11141 1617 802 746 700 670 229 216 179 815 45 441 56 46 50 391 151 146 42 240 131 57 183 176 46 110 159 105 131 770
is_linear=0
shrinkage=0.05


Tree=3
num_leaves=31
num_cat=0
split_feature=42 2 37 37 16 2 42 46 20 2 13 18 14 38 8 30 13 11 16 2 11 14 14 11 44 35 27 2 2 30
split_gain=58.0567 13.1284 14.6168 17.4325 16.1144 16.3936 20.6739 17.5362 17.1766 14.9277 9.54837 8.91696 8.06267 7.86286 7.34958 5.50791 11.7898 11.3573 5.01906 5.00174 3.98921 3.34751 3.10495 4.79388 2.2346 1.66748 1.42422 1.33501 1.07036 0.610645
threshold=3.5000000000000004 10995.000000000002 -0.28057013436919165 -0.25110262603062622 70537.500000000015 1170174.0000000002 1.5000000000000002 6.7693341960000575e-17 -2.2692555692354063e-22 49894.000000000007 59682.603242644174 0.17680000000018484 9.5000000000000018 7376.2083333333348 1.5126803292478248e-14 0.0040353574173712537 198851.75807320312 0.096938188953637858 90184.500000000015 115500.00000000001 0.23159994578798579 7.5000000000000009 1.0000000180025095e-35 0.16694657201394539 2510.0000000000005 0.1814518239937272 1.9181657028675332e-25 378500.00000000006 280800.00000000006 0.0004227517294388932
decision_type=2 2 2 2 2 2 2 2 2 2 2 2 2 2 2 2 2 2 2 2 2 2 2 2 2 2 2 2 2 2
left_child=1 11 14 9 24 6 7 8 -6 -4 -10 22 -8 -12 15 21 27 -18 -15 -19 -14 26 23 -1 -5 29 -3 -17 -20 -26
right_child=-2 2 3 4 5 -7 12 -9 10 -11 13 -13 20 18 -16 16 17 19 28 -21 -22 -23 -24 -25 25 -27 -28 -29 -30 -31
leaf_value=-0.050377386838418817 -0.050240639331721418 -0.052903103736061163 0.46896683389545424 0.099000335583622368 0.54273508762396883 -0.15337014304243513 -0.074621706172599528 -0.012116651428467448 0.44288308246739705 0.12167053532435208 0.28700235265649104 0.42759094561666133 0.028023333437176112 0.24986821175882123 0.18592074598895908 -0.052256107607069974 0.24749622045569258 -0.053268213209407236 -0.050633604513374064 0.080031573912163034 0.21580924510722219 0.013561709657140956 -0.0504797266748842 0.35580644309075687 -0.13556206002682658 0.041219814536633238 -0.14341803360817826 -0.15553291217243759 0.0691759060630429 -0.052452337238984598
leaf_weight=0.17757867230102675 45.399286800995469 1.0796546200290325 0.57285422971472033 0.32013000687584137 0.50396354543045108 0.48572212690487493 1.0176537702791395 0.63787499582394946 0.40103122824803161 0.67279706243425608 0.86362220672890533 0.10446289647370566 0.58174691302701809 0.32014384586364009 0.62059161253273565 1.018287449609488 0.81981822615489353 1.0078578670509162 0.34909571800380945 2.3320343503728509 0.55037691071629524 1.4048644029535351 4.2877209740690887 0.12292537512257695 0.25950041506439481 0.4708752967417239 0.72736799251288164 0.4517200463451444 0.40003791451454163 1.4903521337546406
leaf_count=27 9524 78 22 16 37 7 64 35 15 19 8 13 27 3 22 75 14 67 45 28 25 33 758 17 5 4 11 4 2 136
internal_value=-0.0169662 0.0458392 0.0640258 0.106504 0.0813266 0.125325 0.149388 0.224771 0.278016 0.281386 0.220856 -0.0291909 0.0275098 0.17479 0.0195917 0.00791712 0.0377252 0.0807392 0.0841604 0.0398066 0.119315 -0.0443298 -0.0395908 0.115778 -0.024499 -0.0423021 -0.0893374 -0.0839921 0.0133448 -0.0647774
internal_weight=69.4519 24.0527 19.36 9.89778 8.65213 6.11127 5.62555 3.47577 2.83789 1.24565 2.33393 4.69269 2.14978 1.9329 9.4622 8.8416 5.62972 4.15971 1.06928 3.33989 1.13212 3.21189 4.58823 0.300504 2.54086 2.22073 1.80702 1.47001 0.749134 1.74985
internal_count=11141 1617 802 470 429 268 261 145 110 41 73 815 116 58 332 310 188 109 50 95 52 122 802 44 161 145 89 79 47 141
is_linear=0
shrinkage=0.05


Tree=4
num_leaves=31
num_cat=1
split_feature=42 24 30 2 30 3 2 32 38 15 12 32 27 14 17 1 46 3 11 2 15 3 0 33 3 11 3 3 10 9
split_gain=53.1624 11.0474 14.683 9.78979 8.16402 8.25318 6.97883 8.31674 18.4011 6.64861 7.42731 5.77357 5.95289 5.70614 3.03702 3.26633 3.21327 4.56571 6.73525 3.77541 2.86625 3.73076 2.78272 2.36388 0.713667 0.546149 0.00638947 0.00435013 0.0024578 0.00225868
threshold=3.5000000000000004 0 0.054342813220599549 563000.00000000012 0.00011529592621060725 100.47356620444025 24968.750000000004 6710.9455256074089 21478.713768115947 -4.3758968276122536e-16 1.7007377271045741e-10 4762.5749638367879 1.2163952519039393e-31 63.500000000000007 3.5000000000000004 3.5000000000000004 -1.5881439145143316e-30 21.228396790882588 0.5159620172359457 199800.00000000003 -8.9197952068894027e-30 7.7849001815602952 -5.858874618125542e-28 1.8159694246410113e-05 19.569904887622982 -0.023196114473016047 4.3232895581180344 3.9597209397091908 1.8873103593273788 -1.2921616813271278e-34
decision_type=2 9 2 2 2 2 2 2 2 2 2 2 2 2 2 2 2 2 2 2 2 2 2 2 2 2 2 2 2 2
left_child=1 2 3 6 -3 13 7 8 -1 -4 20 22 -13 14 15 16 19 18 24 23 21 -11 -8 26 27 -22 -6 -18 -27 -29
right_child=-2 4 9 -5 5 -7 11 -9 -10 10 -12 12 -14 -15 -16 -17 17 -19 -20 -21 25 -23 -24 -25 -26 28 -28 29 -30 -31
leaf_value=-0.050784160253407706 -0.050228847636284935 0.22468702627658252 0.24415751848261014 -0.00162004086857372 -0.050588314618678569 0.21626248217772021 0.20105828723869218 -0.050523989222692078 0.51169133802296562 -0.050399916099393385 0.22602917209240433 0.33587894359183729 0.17208581364298958 0.20464813696673542 0.13578620771035135 0.14212857090162914 -0.050514462616711109 0.044127208980859714 0.28676971133981999 -0.13034074133285747 -0.133048900884261 0.096812078429211981 0.10520407767058382 0.079704873112486863 -0.14182528819399748 -0.051010977499439759 -0.05491565810042897 -0.051108455411808432 -0.055511212255054787 -0.05590354770120335
leaf_weight=0.32066003326326409 43.195019491016865 0.35106503497809427 0.32504795351997051 0.96042591170407821 2.3706081421114464 0.36077995412051755 1.4248213237151506 0.70522808749228716 0.26604155730456114 0.81129043176770299 0.35171382036060084 1.1399599448777737 1.0805254369042812 0.26223110966384489 0.26716875471174795 0.25602230802178461 2.7334688128903468 2.2092116242274642 0.14789284300059069 1.6164440289139745 0.25934985885396611 0.91665082424879074 1.6158071956597266 0.37430038535967458 0.23238775692880143 0.64266665186732941 1.3325062231160698 0.37451207498088479 0.57472882978618145 0.71338000008836366
leaf_count=37 9524 9 9 12 371 6 20 105 21 131 16 26 26 9 25 13 467 25 15 13 6 7 29 26 2 75 34 46 13 23
internal_value=-0.0166449 0.0413888 0.0568114 0.147462 -0.00766391 -0.0196034 0.169312 0.065186 0.204272 0.0277013 0.00791765 0.194881 0.256174 -0.026205 -0.0309989 -0.0346039 -0.0383419 -0.0140639 -0.0446607 -0.065677 -0.0160201 0.0276942 0.150121 -0.0400418 -0.0567523 -0.0671701 -0.0521454 -0.0515787 -0.0531355 -0.0542528
internal_weight=68.1919 24.9969 11.3949 7.51347 13.602 13.2509 6.55304 1.29193 0.586702 3.88145 3.5564 5.26111 2.22049 12.8901 12.6279 12.3607 12.1047 6.41085 4.20164 5.69386 3.20469 1.72794 3.04063 4.07741 4.05375 1.47675 3.70311 3.82136 1.2174 1.08789
internal_count=11141 1617 533 276 1084 1075 264 163 58 257 248 101 52 1069 1060 1035 1022 578 553 444 232 138 49 431 538 94 405 536 88 69
cat_boundaries=0 8
cat_threshold=8388609 0 268436036 2048 67371016 0 210239490 66193
is_linear=0
shrinkage=0.05


Tree=5
num_leaves=31
num_cat=1
split_feature=42 24 30 42 40 23 3 30 3 16 38 38 27 43 13 11 37 0 44 3 10 30 10 2 2 10 35 2 2 11
split_gain=49.165 10.4041 9.05422 8.81323 10.8412 9.41558 7.67717 6.78473 7.02567 5.68601 5.67226 9.62186 5.53724 4.35578 3.91593 12.7784 9.5976 13.0205 3.41569 3.17725 2.44142 2.59258 1.55011 1.05769 0.61657 0.633368 0.578014 0.544678 0.515228 0.340252
threshold=3.5000000000000004 0 0.054342813220599549 1.5000000000000002 1.5000000000000002 1.369377610166894e-29 0.26497263737092974 0.00011529592621060725 100.47356620444025 70537.500000000015 10198.333333333334 6276.1609770114947 -7.9141756891205412e-31 40.500000000000007 213542.56129426914 0.012847889013594951 -0.088359263780228944 4.2985675512685682e-22 23007.360000000004 31.360864299446561 4.7514014660967439 0.043428132205995396 2.2506092906419579 378500.00000000006 341289.50000000006 2.9397928060006415 0.1814518239937272 985000.00000000012 423185.00000000006 0.34970143637670525
decision_type=2 9 2 2 2 2 2 2 2 2 2 2 2 2 2 2 2 2 2 2 2 2 2 2 2 2 2 2 2 2
left_child=1 2 3 6 13 -6 -1 -3 14 -8 11 -4 -11 29 20 -16 22 -18 -14 27 21 23 26 24 25 -9 28 -12 -17 -5
right_child=-2 7 10 4 5 -7 9 8 -10 12 19 -13 18 -15 15 16 17 -19 -20 -21 -22 -23 -24 -25 -26 -27 -28 -29 -30 -31
leaf_value=-0.050362962876317724 -0.050217640092050278 0.18410410074364736 -0.055201310996038359 -0.052901147116192065 0.24420204992752004 0.010926715256228106 0.084999533124837878 -0.051555266722246862 0.1788703454818911 0.30518284618813807 -0.050956186430533935 0.19756012893320316 0.11737537373452055 0.066515867577636653 0.35676061395686681 -0.052499533017126176 -0.050354223745501782 0.56443506414587696 0.23927840043425577 0.064647038160033851 -0.10217144444472995 0.099061036340612613 0.024640034825083243 0.068075547697040231 -0.12933483120593567 0.027285266866064323 0.010422513149440539 -0.13350952566426552 -0.12933483120593567 -0.11206705266349076
leaf_weight=0.39192843483760764 41.097315354272723 0.40538576198742049 0.61721526458859377 0.96959382900968216 1.1428813310340045 0.69598117540590454 1.1724686366505919 3.9602132174186373 0.41282697161659676 1.0976475425995884 1.3588598272763195 0.96544958604499698 1.3523391904309399 1.1336818458512423 0.24362379685044278 2.7292491579428324 0.18362454464659084 0.16219196701422334 0.99921337794512499 0.70094281435012806 1.9598733112215994 0.3302479633130132 0.835582487983629 0.19502003490924824 0.23713895678520192 0.27225239714607585 0.33740746928378929 0.23425103724002827 0.23713895678520192 0.32425983296707273
leaf_count=66 9524 9 21 72 19 38 34 570 6 23 195 36 29 37 15 265 30 13 25 4 31 33 12 1 1 13 5 1 1 12
internal_value=-0.0163128 0.0379928 0.0513311 0.117155 0.0643342 0.155911 0.162104 -0.00950243 -0.0238463 0.180122 0.0261716 0.098987 0.212456 -0.00503541 -0.0310091 0.00409547 -0.0150604 0.237989 0.169174 -0.0240636 -0.0548782 -0.0363214 -0.0362009 -0.0459063 -0.0508796 -0.0464839 -0.0515885 -0.0630948 -0.0586419 -0.067729
internal_weight=66.7558 25.6585 13.1567 9.28 4.2664 1.83886 5.0136 12.5018 12.0964 4.62167 3.87672 1.58266 3.4492 2.42754 11.6836 4.72882 4.48519 0.345817 2.35155 2.29405 6.95475 4.99487 4.13938 4.66462 4.4696 4.23247 3.3038 1.59311 2.96639 1.29385
internal_count=11141 1617 612 355 178 57 177 1005 996 111 257 57 77 121 990 341 326 43 54 200 649 618 283 585 584 583 271 196 266 84
cat_boundaries=0 8
cat_threshold=8388609 0 268436036 2048 67371016 4194560 210239490 66193
is_linear=0
shrinkage=0.05


Tree=6
num_leaves=31
num_cat=0
split_feature=42 2 2 16 37 42 33 14 14 37 13 0 13 37 3 3 32 32 10 11 3 10 3 3 3 2 3 3 2 36
split_gain=45.5774 8.80068 8.59782 8.05168 9.85065 7.89851 7.04035 6.35472 5.83207 5.8173 7.36907 8.08408 5.81721 4.27105 5.6359 5.98684 4.75161 4.01514 3.02523 2.86355 1.07329 0.941637 0.377388 0.00265984 0.00218445 0.00149673 0.00137433 0.000701371 0.000468536 0.000108702
threshold=3.5000000000000004 10995.000000000002 336430.50000000006 70537.500000000015 -0.27812439677058237 1.5000000000000002 -5.6025442693657375e-18 13.500000000000002 7.5000000000000009 -0.44856809210673004 198851.75807320312 -3.759070489322184e-20 762498.14435286017 -0.26086686085372496 2.094926571745297 8.5707600118569172 1513.0114456246224 6826.2359528454699 0.68161705438501907 0.17969093570839698 21.228396790882588 2.9397928060006415 19.569904887622982 23.603204588246179 15.948051901256425 112900.00000000001 3.9597209397091908 19.569904887622982 106550.00000000001 -4.8750754848420341e-15
decision_type=2 2 2 2 2 2 2 2 2 2 2 2 2 2 2 2 2 2 2 2 2 2 2 2 2 2 2 2 2 2
left_child=1 12 3 6 9 13 19 25 -4 10 23 -12 27 -6 16 -16 -15 -14 -13 -3 22 26 24 -5 28 -7 29 -1 -8 -11
right_child=-2 2 8 4 5 7 20 -9 -10 21 11 18 17 14 15 -17 -18 -19 -20 -21 -22 -23 -24 -25 -26 -27 -28 -29 -30 -31
leaf_value=-0.050316243434387634 -0.050206979866746188 0.00258703991042206 -0.07231323767550292 -0.050828460160804702 0.36971175671053552 -0.050419285976263641 -0.050504315697383576 0.14475593375483481 0.035224439022256984 -0.052023048123037756 0.25060665350375866 -0.051048368515134314 0.22104300260592377 0.25835947633393086 0.26532825436731167 0.13228700275635535 -0.050635280792655737 -0.050510309328259506 0.09952398860144529 0.12379245696861783 0.018558348915415118 0.023898326191747636 -0.11747927329844943 -0.056580463983426699 -0.055140499434213189 -0.054477324456398725 -0.054297850154892295 -0.054114333779293249 -0.05264897088045517 -0.050538904190773726
leaf_weight=3.8039329196326466 39.101065319031477 0.76978464238345656 2.0914742399472734 0.40545079833827946 0.23370259394869553 0.40685553289949872 1.100636227056391 0.73066310584545135 3.1743635023012757 0.19309121649712313 0.80550121655687723 0.46252201450988639 0.36267294501885761 0.16148834908380205 1.231357201933861 2.6992002567276359 0.54197520855814219 0.21791226742789149 1.1966479709371922 1.327954728156328 0.55361239006742824 0.55465572234243143 0.24923066794872273 0.3985377624630928 0.40982613898813713 0.51464346842840314 0.86679749749600887 0.12556292861700047 0.33132646465674032 0.34170795977115975
leaf_count=768 9524 27 24 47 7 66 162 32 32 9 17 52 18 16 39 27 65 27 17 31 6 5 2 4 8 16 25 2 19 47
internal_value=-0.0159891 0.0349553 0.0481345 0.0658995 0.0881027 0.129095 0.0109118 0.0346322 -0.00748715 0.036951 0.0777659 0.120644 -0.0286103 0.161156 0.150638 0.173966 0.0202981 0.11912 0.0575494 0.079315 -0.043346 -0.0312458 -0.0597356 -0.0536797 -0.0519217 -0.0526856 -0.053068 -0.0504376 -0.0510005 -0.0510748
internal_weight=65.3642 26.2631 21.753 16.4872 11.7448 6.51989 4.74237 1.65216 5.26584 5.22491 3.26866 2.46467 4.51008 4.86772 4.63402 3.93056 0.703464 0.580585 1.65917 2.09774 2.64463 1.95625 2.09102 0.803989 1.84179 0.921499 1.4016 3.9295 1.43196 0.534799
internal_count=11141 1617 802 746 491 268 255 114 56 223 137 86 815 154 147 66 81 45 69 58 197 86 191 51 189 82 81 770 181 56
is_linear=0
shrinkage=0.05


Tree=7
num_leaves=31
num_cat=1
split_feature=42 24 30 2 3 30 14 38 38 2 13 44 0 1 17 11 3 39 10 44 11 10 35 32 38 30 16 2 37 3
split_gain=42.4764 7.90281 7.33979 5.14438 4.85018 5.01532 4.40246 4.32294 6.45067 4.29687 7.31029 3.3963 5.61826 3.13134 3.17378 3.21356 2.93213 2.52819 2.42202 2.03753 1.77013 3.38369 1.63145 1.24659 0.956496 0.556783 0.468048 0.451571 0.344089 0.874889
threshold=3.5000000000000004 0 0.054342813220599549 847500.00000000012 100.47356620444025 0.00011529592621060725 63.500000000000007 10198.333333333334 6276.1609770114947 100250.00000000001 171007.18040623851 3990.0000000000005 -1.0433753792759189e-18 4.5000000000000009 3.5000000000000004 0.5159620172359457 31.360864299446561 -0.00078344519987479089 4.7514014660967439 9975.0000000000018 0.012847889013594951 1.434748700871699 -1.0000000180025095e-35 4762.5749638367879 9303.518803418805 0.00049961568024596472 5130892.0000000009 985000.00000000012 -0.99630043251469946 37.69184365682333
decision_type=2 9 2 2 2 2 2 2 2 2 2 2 2 2 2 2 2 2 2 2 2 2 2 2 2 2 2 2 2 2
left_child=1 2 3 9 5 -3 13 8 -4 10 22 -12 -13 14 15 17 27 19 20 24 21 -19 -1 -11 -7 -22 28 -9 -27 -30
right_child=-2 4 7 -5 -6 6 -8 16 -10 23 11 12 -14 -15 -16 -17 -18 18 -20 -21 25 -23 -24 -25 -26 26 -28 -29 29 -31
leaf_value=-0.051740820781277147 -0.050196847483733147 0.13971235844040006 -0.054858243428643316 -0.019271256416762802 0.14515536990620234 0.0037955413927787812 0.17047589885922004 -0.050950740075297797 0.14832204907355348 0.12059188615428354 0.21884292528477778 0.15958477850499689 -0.051043102879486629 0.14585922543194832 0.13988714304086089 0.13764548558934461 0.063254895518754559 -0.051323628272003374 -0.10666173456795942 -0.052267251485505296 0.020840743416983651 0.14318977496318502 0.073224597506872754 0.17081557425598437 0.099631378096661297 -0.074692175773610897 0.0085992509473067514 -0.12569223612943134 -0.051645691232333146 0.044769183727464724
leaf_weight=0.99030146840959621 37.201404236257076 0.48361225193366486 0.58594148699194137 0.77839744696393687 0.47007258562371212 0.45566325495019089 0.28342732507735569 1.2921612604986878 1.1720346505753694 2.5470157829113305 0.71686904178932342 0.89076424157246958 0.49117442895658281 0.25129793211817819 0.26133577618748027 0.25977667560800988 0.66254895925521839 0.56510462216101043 1.5832531978376199 0.68010055506601919 0.28692936990410078 0.36994453240185976 0.35473123611882162 2.3994253170676529 0.60742480237968266 1.4416131565812893 0.32268423889763642 0.23955455422401417 5.010482611367487 0.24688441958278406
leaf_count=116 9524 9 21 11 6 14 9 195 36 24 18 21 54 9 24 17 4 74 24 93 19 7 9 23 26 69 9 1 672 3
internal_value=-0.0156612 0.0324566 0.0449102 0.103691 -0.00728407 -0.0183065 -0.0243591 0.0221792 0.0806011 0.115098 0.0722156 0.130533 0.0847225 -0.0288332 -0.0324639 -0.0362713 -0.0246266 -0.0401762 -0.0500202 0.0153174 -0.0391417 0.025634 -0.0187832 0.144954 0.058554 -0.047429 -0.0502188 -0.06264 -0.053052 -0.0471181
internal_weight=63.9019 26.7005 13.1209 9.16868 13.5796 13.1095 12.6259 3.95224 1.75798 8.39028 3.44384 2.09881 1.38194 12.3425 12.0912 11.8299 2.19426 11.5701 9.8269 1.74319 8.24364 0.935049 1.34503 4.94644 1.06309 7.30859 7.02166 1.53172 6.69898 5.25737
internal_count=11141 1617 533 276 1084 1078 1069 257 57 265 218 93 75 1060 1051 1027 200 1010 877 133 853 81 125 47 40 772 753 196 744 675
cat_boundaries=0 8
cat_threshold=8388609 0 268436036 2048 67371016 0 210239490 66193
is_linear=0
shrinkage=0.05


Tree=8
num_leaves=31
num_cat=2
split_feature=42 24 2 42 39 3 30 14 37 10 16 27 10 24 42 16 8 31 33 11 45 13 35 37 2 3 3 20 3 11
split_gain=39.7723 9.44765 5.57116 4.40243 5.54623 4.22085 4.37368 3.38394 3.07228 3.38827 2.96327 3.36208 2.88711 4.46254 6.7409 6.65988 6.1518 1.83071 1.65807 1.14796 1.92958 0.856062 0.739341 0.307299 0.243913 0.00726844 0.00303187 0.00183277 0.00134439 0.000688365
threshold=3.5000000000000004 0 7000.2500000000009 1.5000000000000002 -1.1701475477171884e-17 100.47356620444025 0.00011529592621060725 1.0000000180025095e-35 -0.48862645956255218 13.55884894412525 70537.500000000015 -1.2984099414018457e-18 3.3194675435421561 1 1.5000000000000002 81740.000000000015 7.2788003991048384e-25 1.0000000180025095e-35 2.9459627090081511e-08 0.074098325628185815 -2.6393352451644067e-29 284814.9276647204 0.1814518239937272 -0.46143995029347423 423185.00000000006 3.9597209397091908 66.300363715869153 -1.0738860848788822e-33 15.948051901256425 0.29735310445755658
decision_type=2 9 2 2 2 2 2 2 2 2 2 2 2 9 2 2 2 2 2 2 2 2 2 2 2 2 2 2 2 2
left_child=1 2 7 10 -5 6 -3 -1 -6 23 21 -12 13 14 15 -8 18 -14 -17 -13 -21 -4 -16 -10 25 -15 -25 -27 29 -29
right_child=-2 5 3 4 8 -7 12 -9 9 -11 11 19 17 24 22 16 -18 -19 -20 20 -22 -23 -24 26 -26 27 -28 28 -30 -31
leaf_value=0.16064751095418642 -0.050187206738628122 0.12371649706917298 0.016693254130707096 0.12293660447379638 0.10581633705241984 0.1283253612500854 -0.051446156608796235 -0.050504118805876658 -0.11350826064860996 0.06218639270663328 0.22033513321800649 0.16684672502975118 -0.090800763112165603 -0.050540720148737742 -0.050860679042437698 0.026291090080737756 0.27156969657927038 -0.017125762553008093 0.14507288347744479 0.15288694869761485 0.066993273098388623 0.095839639584633041 0.061458017208009953 -0.051621461374218025 -0.095184570640497332 -0.051100002766862974 -0.057419301539303372 -0.052048488935448126 -0.056085537524963286 -0.054747651197321071
leaf_weight=0.22977330209687252 35.393695357255638 0.51786322938278395 0.642132677603511 2.0228527081198977 0.69769227621145447 0.50416887458413917 0.46290534152649421 1.0892424972262231 0.26985118840821032 0.8564442170318215 1.0673589257057754 0.94387197634205255 2.2236160077154628 3.9300335666630399 0.88961838535033144 0.5615588210057465 0.7509707377757876 1.3581911188084634 0.61614753864705563 1.1203800747171047 1.5702589242719112 0.7301136739552021 0.17540228134021163 0.68711098376661872 0.34252711385488499 0.42227991810068521 0.3356248214840889 0.46705965162254848 0.93810366839170456 0.47790985158644617
leaf_count=12 9524 9 28 32 19 6 60 179 5 8 22 15 24 717 138 30 29 34 13 17 33 12 2 68 2 47 3 35 10 8
internal_value=-0.015357 0.0304691 0.0459126 0.0950536 0.0596351 -0.00821837 -0.0189034 -0.0137214 0.0146537 -0.0149426 0.123448 0.142315 -0.0243276 -0.0105722 0.0185641 0.118865 0.159742 -0.0628638 0.0884349 0.119403 0.102759 0.0588037 -0.0323625 -0.0660469 -0.0214681 -0.0518482 -0.0535241 -0.0540771 -0.0547447 -0.0534136
internal_weight=62.2948 26.9011 12.2627 10.9437 4.86958 14.6384 14.1342 1.31902 2.84672 2.14903 6.07412 4.70187 13.6163 10.0345 3.4566 2.39158 1.92868 3.58181 1.17771 3.63451 2.69064 1.37225 1.06502 1.29259 6.57791 6.23539 1.02274 2.30535 1.88307 0.94497
internal_count=11141 1617 453 262 135 1164 1158 191 103 84 127 87 1149 1091 272 132 72 58 43 65 50 40 140 76 819 817 71 100 53 43
cat_boundaries=0 8 16
cat_threshold=8388609 0 268436036 2048 67371048 4194304 210239490 66065 262144 1082130432 32768 655360 134217728 0 256 132
is_linear=0
shrinkage=0.05


Tree=9
num_leaves=31
num_cat=1
split_feature=42 24 3 44 16 13 37 16 38 14 10 16 45 11 10 10 15 12 39 4 16 2 2 10 2 16 30 3 3 3
split_gain=37.2665 8.35097 4.72314 4.95364 5.4055 3.5542 3.48893 4.23589 5.07586 5.65703 3.77972 3.16803 2.96075 3.5802 2.53323 2.19494 1.93451 2.05376 1.80443 1.73033 1.28071 1.17062 0.937849 0.881721 0.780615 0.566932 0.246113 0.00317203 0.00286258 0.00207755
threshold=3.5000000000000004 0 0.69217460719186552 93825.000000000015 770781.50000000012 762498.14435286017 -0.47452825160044315 70537.500000000015 10001.515151515154 20.500000000000004 0.77392926091335557 75332.500000000015 2.7275733341812708e-20 0.27661399405530368 0.16268290780376596 0.29363694143403457 2.5183231894510205e-26 2.3804126749146512e-11 -2.0258066812556844e-17 0.048923904688701003 2561480.0000000005 378500.00000000006 351850.00000000006 6.258871560363569 341289.50000000006 5130892.0000000009 0.00034588777863182174 17.49470054320096 15.948051901256425 4.3232895581180344
decision_type=2 9 2 2 2 2 2 2 2 2 2 2 2 2 2 2 2 2 2 2 2 2 2 2 2 2 2 2 2 2
left_child=1 2 5 4 11 -1 24 23 14 12 -11 18 20 -14 -9 -6 -16 -18 -4 -13 22 -22 29 26 25 27 -8 -3 -28 -10
right_child=-2 6 3 -5 15 -7 7 8 9 10 -12 19 13 -15 16 -17 17 -19 -20 -21 21 -23 -24 -25 -26 -27 28 -29 -30 -31
leaf_value=-0.050462452529722715 -0.050178044904035074 -0.050872897881299464 0.10802000747016433 0.19682763726050403 0.077249899742586794 0.10055897563533232 -0.10265720202737474 -0.05260776287435677 -0.050519439535567305 -0.05028161166648322 0.15147398024649827 0.093198636847411143 -0.05106458942126766 0.14438753889907516 0.10982652627066998 -0.037026186509563623 -0.02549097811410125 0.090826774698833601 0.019695831435046687 0.16006973200002239 -0.051909689773938776 0.063030634091981355 -0.11292440880518639 0.0071700866432281851 -0.099393791784084903 0.030914540691207939 -0.050696222501103165 -0.05545581559763605 -0.054585893224720843 -0.054227762891766784
leaf_weight=1.0119502758607257 33.673517028801143 1.2632237360812757 1.0794102689251306 1.1478808228857804 0.69555362965911616 0.63346180692315091 0.25707832816988574 0.42558771325275158 1.1371044141706086 0.33350644772872307 0.76375811942853034 1.5895756050013004 0.48778499080799509 0.45085456199012697 1.9353136660065504 1.0614123358391223 0.73644408467225708 0.78292723139747977 1.2454819001723061 2.4713839581236243 0.55503009073436249 0.36865165829658508 0.9913366944529115 0.67861092719249416 0.8693369748070835 0.23126910789869715 2.1926520359702413 0.53852643584832538 0.60312012745998789 0.5655333213508128
leaf_count=163 9524 191 12 22 23 34 3 53 199 70 23 23 90 22 29 23 30 10 31 33 55 3 5 10 8 12 402 8 14 16
internal_value=-0.015052 0.0285883 0.0447967 0.0995872 0.0858794 0.00767879 -0.0062298 0.00078145 0.0184577 -0.011767 0.0901517 0.107248 -0.0363114 0.0428165 0.062495 0.00821382 0.0766747 0.0344472 0.0607033 0.133894 -0.056842 -0.00603573 -0.0742619 -0.0443811 -0.0597395 -0.042783 -0.0558403 -0.0522427 -0.0515353 -0.0517512
internal_weight=60.7773 27.1038 10.9361 9.2907 8.14282 1.64541 16.1677 13.2653 9.53383 5.65356 1.09726 6.38585 4.5563 0.93864 3.88027 1.75697 3.45468 1.51937 2.32489 4.06096 3.61766 0.923682 2.69397 3.73146 2.90236 2.03302 3.05285 1.80175 2.79577 1.70264
internal_count=11141 1617 364 167 145 197 1253 1034 605 483 93 99 390 112 122 46 69 40 43 56 278 58 220 429 219 211 419 199 416 215
cat_boundaries=0 8
cat_threshold=8388609 0 268468800 0 67108904 0 76022018 66065
is_linear=0
shrinkage=0.05


Tree=10
num_leaves=31
num_cat=1
split_feature=42 24 38 14 17 16 16 2 2 43 23 38 37 2 11 32 44 16 38 9 3 39 37 10 30 2 3 11 3 3
split_gain=35.0018 8.64847 4.07937 4.59621 5.17222 4.69039 4.0674 4.03977 4.00147 3.85531 3.36064 4.72653 3.23531 2.80233 2.82591 2.51574 1.77211 1.75359 1.56738 1.38498 1.26736 0.602887 0.580622 0.311978 0.174443 0.00351699 0.00178626 0.00138628 0.000468337 0.000116578
threshold=3.5000000000000004 0 10001.515151515154 20.500000000000004 3.5000000000000004 146086.50000000003 81740.000000000015 34400.000000000007 563000.00000000012 16.500000000000004 1.0000000180025095e-35 16251.315789473685 -0.23403409824353597 59150.000000000007 -0.032351600926275446 4762.5749638367879 2988.5000000000005 3474548.5000000005 22037.500000000004 1.6326267499882433e-18 15.057825330543606 -0.0081864918941343592 -0.73313262267056312 5.4136758460421772 0.00049961568024596472 104823.50000000001 15.948051901256425 0.24179465191799152 15.948051901256425 1.6028344235510283
decision_type=2 9 2 2 2 2 2 2 2 2 2 2 2 2 2 2 2 2 2 2 2 2 2 2 2 2 2 2 2 2
left_child=1 7 6 4 17 23 21 10 15 -8 11 -1 -7 14 -11 19 -13 20 -17 -9 25 -3 -18 -5 -23 29 -26 -27 -16 -4
right_child=-2 2 3 5 -6 12 9 8 -10 13 -12 16 -14 -15 28 18 22 -19 -20 -21 -22 24 -24 -25 26 27 -28 -29 -30 -31
leaf_value=-0.051921494636158728 -0.05016933226785425 0.01888478773330729 -0.050266988707311167 -0.05041167732783515 0.2019459058468753 0.2507888771145127 -0.054672997298530181 0.045985812457143657 0.019483244735798298 0.15054777855830959 -0.050446954979379344 0.2198173151915559 0.043969761256737183 0.0902176147157253 -0.050758973281369246 0.16191463253210625 0.14643779709837712 0.037673936676370479 0.099157118592485369 0.10682373448549698 -0.099318018181232912 -0.098940781541042327 0.050557747323653673 0.034946671229025006 -0.050788101788553322 -0.051159915739951836 -0.054696119386097933 -0.054600945281396321 -0.053669943779800167 -0.050936482989031417
leaf_weight=0.5486502035055304 32.03666269313544 0.28279476170428086 2.5494932413566844 0.76276083732955136 0.19541342183947552 0.32293977495282888 0.83815893135033537 1.7515964377671465 1.5268677924759684 0.22181646525859822 0.97337763011455525 0.35574772814288713 0.45623208186589181 2.7382420026697218 0.61176872928626869 2.3379177509341389 0.23848554375581432 0.44186082598753262 1.7319361285772172 2.0077929748222232 1.93194028083235 0.24997134506702678 0.46727443370036792 0.12452177191153169 0.51908800611272432 0.43593232892453648 0.66953812842257321 0.89078570180572569 0.17848530039191246 0.87283399305306364
leaf_count=36 9524 10 583 142 9 17 39 37 16 1 156 7 33 24 89 22 10 21 34 16 15 1 37 5 85 41 14 18 3 96
internal_value=-0.0147428 0.0269307 -0.0079374 -0.034767 -0.0518322 0.0401749 0.0176863 0.0425809 0.0935275 0.0422744 0.0228975 0.0672359 0.129689 0.0639412 -0.00715175 0.107968 0.128824 -0.0587945 0.135208 0.0784778 -0.0651747 -0.0478546 0.0829569 -0.0384324 -0.060974 -0.0512849 -0.0529894 -0.0534703 -0.0514164 -0.0504377
internal_weight=59.2709 27.2342 15.2946 8.98471 7.31826 1.66645 6.30986 11.9396 9.35611 4.58847 2.58354 1.61016 0.779172 3.75031 1.01207 7.82924 1.06151 7.12285 4.06985 3.75939 6.68099 1.72139 0.70576 0.887283 1.4386 4.74905 1.18863 1.32672 0.790254 3.42233
internal_count=11141 1617 1246 980 783 197 266 371 125 156 246 90 50 117 93 109 54 774 56 53 753 110 47 147 100 738 99 59 92 679
cat_boundaries=0 8
cat_threshold=8388609 0 268468804 0 67371048 0 76022018 66065
is_linear=0
shrinkage=0.05


Tree=11
num_leaves=31
num_cat=1
split_feature=42 24 3 37 16 44 43 2 32 13 46 2 13 44 16 16 10 35 38 46 2 44 14 2 2 35 2 2 30 11
split_gain=32.9111 8.22241 3.47455 3.20624 4.311 4.12209 4.06973 3.57837 3.33469 3.28188 3.57785 2.91469 2.90203 2.20226 2.77792 2.19244 1.49451 1.41982 1.17358 0.763863 0.756148 0.732096 0.635201 0.709738 0.413089 0.376169 0.321882 0.203466 0.159852 0.115109
threshold=3.5000000000000004 0 0.69217460719186552 -0.37150442748057538 81740.000000000015 56550.000000000007 16.500000000000004 10995.000000000002 288.67513459527265 72551.608505216209 -8.539834995389032e-35 847500.00000000012 762498.14435286017 99538.000000000015 770781.50000000012 70537.500000000015 1.0999163302004156 0.02195479171232401 4317.4242424242429 -1.9331009002751889e-23 299000.00000000006 6000.2150000000011 34.500000000000007 169052.00000000003 100250.00000000001 0.14967463401032202 341289.50000000006 1170174.0000000002 0.0004227517294388932 0.11979907974984437
decision_type=2 9 2 2 2 2 2 2 2 2 2 2 2 2 2 2 2 2 2 2 2 2 2 2 2 2 2 2 2 2
left_child=1 2 12 19 22 6 -6 -8 -9 16 29 13 -1 14 15 24 -10 -16 -12 26 -21 -17 28 -24 -4 -20 -3 -7 -5 -11
right_child=-2 3 11 4 5 27 7 8 9 10 18 -13 -14 -15 17 21 -18 -19 25 20 -22 -23 23 -25 -26 -27 -28 -29 -30 -31
leaf_value=-0.050448260508222625 -0.050161044683852088 -0.052451241887850657 0.030884129143558245 -0.093218157838564075 -0.065959424762671651 -0.051649295370370496 -0.050562058506751321 0.15766803639654703 0.16215767214129495 -0.089041097767493887 0.12410856170054151 0.013724588761361898 0.082486061330638738 0.15064378691712463 0.077537653945047705 0.13778442222208595 0.062880153751338583 -0.018081906596171062 -0.0080341300563902575 -0.051722662793828061 0.017676205313096993 0.097185538729768262 -0.051227334410426463 0.061245511835118033 0.074791137957864795 0.061910812803086329 -0.094901443326714088 -0.1021007670013907 -0.051848802071608885 -0.052462031304614611
leaf_weight=0.98279541451483854 30.479123148135841 0.76418862934224341 0.97202908224426066 0.2555315259378429 0.81594410398975004 0.99771239655092336 0.7085748012177645 0.87993688485585142 0.65519938641227804 0.36506407964043353 0.4890938466414807 1.3621289138682176 0.70509924669750035 1.3673573858104635 0.67692253924906232 2.1096458779647946 0.89954401319846511 0.9102720282971859 0.40585778281092644 1.4047770500183094 0.54469189699739207 2.3443236760795116 0.29331685020588327 0.26880368590354919 1.1933685624971984 0.36518879141658545 1.0743690133094785 0.2498941570520401 2.7091916149947792 0.52345735905691981
leaf_count=167 9524 74 30 3 45 150 165 19 21 7 5 15 35 20 22 18 23 25 38 204 11 35 39 2 11 3 5 1 390 34
internal_value=-0.0144492 0.0254297 0.0400934 -0.00863332 -0.00072726 0.0210642 0.037981 0.0540072 0.0701734 0.0493845 0.00934619 0.0821586 0.00508358 0.0918951 0.0821065 0.0963513 0.104718 0.0226989 0.063524 -0.054137 -0.0323323 0.116415 -0.0461748 0.00255671 0.0550816 0.0250937 -0.0772572 -0.0617547 -0.0554145 -0.0674912
internal_weight=57.7734 27.2943 12.6239 14.6703 10.8823 7.35547 6.10786 5.29192 4.58334 3.70341 2.14866 10.936 1.68789 9.57392 8.20656 6.61937 1.55474 1.58719 1.26014 3.78803 1.94947 4.45397 3.52684 0.562121 2.1654 0.771047 1.83856 1.24761 2.96472 0.888521
internal_count=11141 1617 378 1239 945 511 360 315 150 131 87 176 202 161 141 94 44 47 46 294 215 53 434 41 41 41 79 151 393 41
cat_boundaries=0 8
cat_threshold=8388609 0 268468804 0 67371048 0 210239746 66065
is_linear=0
shrinkage=0.05


Tree=12
num_leaves=31
num_cat=1
split_feature=42 24 38 37 14 16 16 43 36 30 40 2 2 10 11 37 37 16 32 2 44 30 39 3 4 30 2 3 3 11
split_gain=30.9852 7.97037 3.50796 4.57888 4.47692 3.57451 3.37901 3.13033 3.11971 3.80466 2.43329 2.94748 2.42684 2.27788 2.24958 1.93675 1.76431 1.50517 1.4548 0.839662 0.690662 0.804565 0.542013 0.351494 0.273072 0.114716 0.00247544 0.00136107 0.00130329 0.000913451
threshold=3.5000000000000004 0 10001.515151515154 1.5279963955889795 20.500000000000004 146086.50000000003 81740.000000000015 16.500000000000004 3.9559542848827543e-20 0.0056495003843197548 1.5000000000000002 39895.000000000007 59150.000000000007 2.2506092906419579 -0.043394919833414487 -0.84938829285993012 -0.23403409824353597 3474548.5000000005 5526.1887763684736 341289.50000000006 5804.0000000000009 0.023904688700999235 -0.0081864918941343592 15.948051901256425 0.14227517294388933 0.00049961568024596472 102217.00000000001 17.49470054320096 15.948051901256425 0.23649706469325263
decision_type=2 9 2 2 2 2 2 2 2 2 2 2 2 2 2 2 2 2 2 2 2 2 2 2 2 2 2 2 2 2
left_child=1 8 6 4 17 24 22 -8 10 -10 11 15 14 -13 -9 -1 -7 19 -12 23 -20 -22 -3 26 -6 -24 -4 -11 -27 -28
right_child=-2 2 3 -5 5 16 7 12 9 27 18 13 -14 -15 -16 -17 -18 -19 20 -21 21 -23 25 -25 -26 28 29 -29 -30 -31
leaf_value=0.095962556667450141 -0.050153162936809936 0.017782982813093273 -0.050487493925147078 0.21699059275072227 -0.050444172908197318 0.18071528055566644 -0.054201708471120449 0.12354720715091637 0.085760139365445576 -0.050506712741363993 0.1548204902879583 0.11314426149475815 0.080132330986817726 0.048738391397292247 -0.051289611394846224 -0.051672327586199523 0.03886404758146203 0.035931149613200868 0.12630632373012027 -0.086359824989192119 0.020461873843603654 0.10728806375178895 -0.090384743842112591 0.030903258226979976 0.030683317022764663 -0.050711177935268185 -0.051420669830401472 -0.055279298117362076 -0.054189120186632966 -0.054205446000884498
leaf_weight=0.31248114490881451 28.99707989487797 0.2720094562973826 3.302403660723936 0.17957568285055536 0.72824371792376019 0.40995526080951095 0.77379163401201356 0.24091859161853779 0.99403920862823669 0.84930411959066965 1.5290454407222571 2.7796820299699903 2.7998510096222162 2.7125096600502729 0.77849606797099147 0.76840839302167208 0.47110336646437645 0.42699621873907734 0.71754532051272679 2.1908157421275973 0.54618051974102833 0.52161844819784164 0.24717074632644909 0.13420845428481687 0.12095161341130733 0.47697928966954328 0.48494454473257043 0.18127194046974182 0.61883280915208161 0.7497314466163516
leaf_count=15 9524 10 690 5 138 17 40 1 20 119 18 33 24 19 95 74 33 21 7 24 32 8 1 3 10 86 39 3 15 17
internal_value=-0.0141545 0.0240553 -0.00813359 -0.0330124 -0.0379899 0.0343127 0.0156294 0.0375031 0.0394221 0.0159698 0.084095 0.0664817 0.0560827 0.0813352 -0.00997037 -0.00899163 0.104867 -0.0551528 0.119026 -0.0608205 0.0883694 0.0628764 -0.0465795 -0.0488427 -0.0388891 -0.0596155 -0.0512016 -0.0513462 -0.0526753 -0.0531117
internal_weight=56.3161 27.3191 15.407 9.19893 9.01935 1.73025 6.20805 4.59306 11.9121 2.02462 9.88747 6.57308 3.81927 5.49219 1.01941 1.08089 0.881059 7.2891 3.31439 6.8621 1.78534 1.0678 1.61499 4.67129 0.849195 1.34298 4.53708 1.03058 1.09581 1.23468
internal_count=11141 1617 1269 997 992 198 272 160 348 142 206 141 120 52 96 89 50 794 65 773 47 40 112 749 148 102 746 122 101 56
cat_boundaries=0 8
cat_threshold=8388609 0 268468804 0 201588776 0 76022018 65553
is_linear=0
shrinkage=0.05


Tree=13
num_leaves=31
num_cat=1
split_feature=42 24 38 37 14 16 43 16 36 30 2 8 32 2 44 11 13 16 37 44 44 2 39 3 4 30 2 3 3 11
split_gain=29.2229 6.60525 3.81636 3.98847 4.18666 3.38099 3.0326 3.00815 2.61877 3.30239 2.25174 2.15798 2.11761 2.29795 3.0678 2.03997 1.79691 1.42068 1.32777 1.02353 1.36144 0.71552 0.518161 0.336692 0.260527 0.0934806 0.00214 0.0011542 0.00111479 0.000779757
threshold=3.5000000000000004 0 10001.515151515154 2.1535883516933922 20.500000000000004 81740.000000000015 16.500000000000004 146086.50000000003 3.9559542848827543e-20 0.0056495003843197548 59150.000000000007 7.2788003991048384e-25 641.18409537922309 99600.000000000015 2988.5000000000005 -0.043394919833414487 271003.2417331328 3474548.5000000005 -0.23403409824353597 3990.0000000000005 30763.500000000004 341289.50000000006 -0.0081864918941343592 15.948051901256425 0.14227517294388933 0.00049961568024596472 102217.00000000001 17.49470054320096 15.948051901256425 0.23649706469325263
decision_type=2 9 2 2 2 2 2 2 2 2 2 2 2 2 2 2 2 2 2 2 2 2 2 2 2 2 2 2 2 2
left_child=1 8 5 4 17 22 -7 24 11 -10 15 12 -1 14 -14 -8 19 21 -9 -13 -21 23 -3 26 -6 -24 -4 -11 -27 -28
right_child=-2 2 3 -5 7 6 10 18 9 27 -12 16 13 -15 -16 -17 -18 -19 -20 20 -22 -23 25 -25 -26 28 29 -29 -30 -31
leaf_value=-0.0026191027662767412 -0.050145675609523779 0.016897493325297473 -0.050464468575709145 0.19096027151303926 -0.050422591073821188 -0.05396817850367757 0.11499955493022081 0.1539280759423699 0.07752896182283131 -0.050487755827021266 0.07694557856694656 0.12875367405427735 0.10643519100967772 0.094089342467344128 -0.051387993507144514 -0.051227950448235776 0.15109815277309419 0.034400989571899951 0.035185970513534566 -0.0034066389790277729 0.096446261179912618 -0.08379722907452776 -0.086894683560793537 0.029691407580610354 0.029485609293776673 -0.050677332493907171 -0.051351830710866499 -0.055000455843908114 -0.0539719643194344 -0.05398680675081409
leaf_weight=1.08150608721189 27.586891832761467 0.27195212221704412 3.2359115830622578 0.19555812515318471 0.69301587576046564 0.74356886069290329 0.24574691057205156 0.45589120266959071 1.0432388018816698 0.77723088604398061 3.0759261720813811 0.70888532511890012 0.53752993512898661 3.7601791410706937 0.72080923477187753 0.74139723135158453 1.5148698464035986 0.42377434507943679 0.48682710551656783 0.58285481901839353 0.82390033756382763 2.1460579806007445 0.2443134486675288 0.13274033507332195 0.11960671492852271 0.45401211944408693 0.46189630916342117 0.17328327242285013 0.59096053801476955 0.71598180825822055
leaf_count=25 9524 10 704 4 138 41 1 17 20 114 25 5 10 25 71 95 12 21 34 30 17 24 1 3 10 86 39 3 15 17
internal_value=-0.0138994 0.0229173 -0.00701636 -0.0323973 -0.0373207 0.0181054 0.0388692 0.0318382 0.0368658 0.0161053 0.0558591 0.0790063 0.060841 0.0745168 0.01603 -0.00984605 0.109528 -0.0543797 0.0926087 0.0797622 0.0550746 -0.0600013 -0.0458211 -0.0487691 -0.0386612 -0.0590505 -0.0511287 -0.0513104 -0.0525405 -0.0529535
internal_weight=54.7463 27.1594 15.4351 9.06726 8.8717 6.36788 4.80664 1.75534 11.7243 1.99375 4.06307 9.73053 6.10002 5.01852 1.25834 0.987144 3.63051 7.11636 0.942718 2.11564 1.40676 6.69259 1.56124 4.54653 0.812623 1.28929 4.41379 0.950514 1.04497 1.17788
internal_count=11141 1617 1285 1011 1007 274 162 199 332 137 121 195 131 106 81 96 64 808 51 52 47 787 112 763 148 102 760 117 101 56
cat_boundaries=0 8
cat_threshold=8388609 0 268468804 0 134479912 0 76022018 65553
is_linear=0
shrinkage=0.05


Tree=14
num_leaves=31
num_cat=1
split_feature=42 24 30 14 38 37 36 30 16 30 2 8 2 16 42 9 13 16 44 44 2 15 3 30 3 2 3 3 3 10
split_gain=27.5929 6.78237 2.65155 2.41338 3.1124 3.75883 2.34417 2.98127 2.22389 2.31745 2.8815 1.79849 2.01936 2.46755 2.45745 1.55998 1.43553 1.33064 0.873674 1.18227 0.616838 0.503367 0.321899 0.076229 0.00144933 0.00129676 0.000998014 0.000938283 0.000331564 0.000223265
threshold=3.5000000000000004 0 0.00011529592621060725 63.500000000000007 10001.515151515154 2.1535883516933922 3.9559542848827543e-20 0.0056495003843197548 81740.000000000015 0.069139123750960818 149300.00000000003 7.2788003991048384e-25 39895.000000000007 1287.0000000000002 1.5000000000000002 -0.0023703001955535396 271003.2417331328 3474548.5000000005 3990.0000000000005 30763.500000000004 341289.50000000006 0.013643650511298636 15.948051901256425 0.00049961568024596472 13.29564695011962 165677.50000000003 17.49470054320096 15.948051901256425 1.8782297936030519 1.2962569033565368
decision_type=2 9 2 2 2 2 2 2 2 2 2 2 2 2 2 2 2 2 2 2 2 2 2 2 2 2 2 2 2 2
left_child=1 6 -3 4 8 15 11 -8 21 10 24 12 13 -1 -14 -6 18 20 -13 -20 22 23 25 -4 -10 29 -9 -25 -15 -17
right_child=-2 2 3 -5 5 -7 7 26 9 -11 -12 16 14 28 -16 17 -18 -19 19 -21 -22 -23 -24 27 -26 -27 -28 -29 -30 -31
leaf_value=0.13022800615273797 -0.05013854862416265 0.091379762957089244 -0.083824071216463555 0.10928747914901756 0.039607188113519889 0.16380066915705357 0.07053070131874388 -0.050458377493442896 -0.050635417677686125 0.10128175462421221 0.045534791059613972 0.11883298423639917 0.093354723757021557 -0.050413223138279339 0.024944897150560405 -0.050362044287859509 0.13702606478527407 0.032915765285803027 -0.0032388371664378449 0.089410355865433805 -0.081062031878497448 0.017068270108126029 0.028504323283718571 -0.050646349234933885 -0.054055375404116313 -0.052967117155130361 -0.054737395843728803 -0.05376668879595882 -0.052546604481228526 -0.051370669455879751
leaf_weight=0.24740528245456317 26.245097476989031 0.56980533991009252 0.24069018661975572 0.35888511501252729 0.48053681082091948 0.21598634123802174 1.0881811524741345 0.7691803874913602 0.61675799498334594 0.82251935056410719 1.9114381135441361 0.72909667855128724 3.7147152833640575 0.47749082394875586 2.0302470978349447 3.3419115333817913 1.5836704780813304 0.42082866840064515 0.58241119934245922 0.84232565620914102 2.1260440312325954 0.26782163674943138 0.13139039813540865 0.42044031759724021 0.62242420949041843 0.63069032924249757 0.16560426540672779 0.56423097825609148 0.29442635644227266 0.65642505674622942
leaf_count=6 9524 9 1 9 38 4 20 119 109 15 16 5 25 76 31 796 13 21 30 18 26 9 3 85 15 27 3 15 9 64
internal_value=-0.0136562 0.0219068 -0.00845295 -0.0186789 -0.0220883 -0.0419507 0.0353412 0.014273 0.00699428 0.0265452 0.00703409 0.0730521 0.0576715 -0.00718503 0.069179 -0.0476569 0.100888 -0.0533955 0.0743173 0.0515367 -0.05867 -0.045028 -0.0486695 -0.0586 -0.0523532 -0.05086 -0.0512164 -0.0524343 -0.0512269 -0.0505276
internal_weight=53.1687 26.9236 14.3988 13.829 13.4701 8.00381 12.5248 2.02297 5.46632 3.97314 3.15062 10.5018 6.76428 1.01932 5.74496 7.78783 3.7375 7.30729 2.15383 1.42474 6.88646 1.49318 4.76042 1.22536 1.23918 4.62903 0.934785 0.984671 0.771917 3.99834
internal_count=11141 1617 1262 1253 1244 979 355 142 265 155 140 213 147 91 56 975 66 937 53 48 916 110 890 101 124 887 122 100 85 860
cat_boundaries=0 8
cat_threshold=8388609 0 268468804 0 201588776 0 210239746 65553
is_linear=0
shrinkage=0.05


Tree=15
num_leaves=31
num_cat=1
split_feature=42 24 2 38 16 43 14 43 18 33 42 39 30 14 11 16 27 11 16 10 3 15 37 38 4 16 13 30 2 2
split_gain=26.0661 6.34426 4.00261 2.69864 2.17669 2.97683 2.00505 3.00164 2.54197 1.98058 1.96876 2.08036 1.93956 1.63913 1.55069 1.53509 1.74515 1.36842 1.35152 0.795808 0.484238 0.482164 0.386102 0.273448 0.207505 0.199918 0.198286 0.0619185 0.00124132 0.000794791
threshold=3.5000000000000004 0 10995.000000000002 10001.515151515154 81740.000000000015 16.500000000000004 20.500000000000004 44.500000000000007 0.37125000000014557 3.8634977120971799e-27 1.5000000000000002 -1.1701475477171884e-17 0.023904688700999235 1.0000000180025095e-35 0.074098325628185815 70537.500000000015 -4.9462240161386932e-22 -0.018532343651461596 3474548.5000000005 1.2112315371503644 15.057825330543606 0.013643650511298636 -0.088359263780228944 12187.820512820514 0.0035741737125288245 128998.50000000001 60660.898723809361 0.00049961568024596472 104823.50000000001 135500.00000000003
decision_type=2 9 2 2 2 2 2 2 2 2 2 2 2 2 2 2 2 2 2 2 2 2 2 2 2 2 2 2 2 2
left_child=1 2 13 4 21 29 8 -8 18 19 15 -12 17 -1 -11 -4 -17 -13 20 25 28 27 -18 -9 -19 -7 -16 -3 -5 -6
right_child=-2 3 10 6 5 9 7 23 -10 14 11 12 -14 -15 26 16 22 24 -20 -21 -22 -23 -24 -25 -26 -27 -28 -29 -30 -31
leaf_value=0.073318904750079475 -0.050131773946867499 -0.081104375352391164 0.037245089344298217 -0.050400786482525564 -0.052489976085305291 0.073513437013185412 0.11710984301976662 0.041070159773785864 0.088532146730547726 0.078803851078263071 0.076372239045172291 0.04577814681811055 0.053030574221192756 -0.05044401188646478 -0.0050381689208469915 0.13450399090329243 0.059228120299863622 -0.10388429529697057 0.032255982173961063 0.10308994005337874 -0.082347420517434947 0.016219993495486335 0.091021879722456761 -0.050361761876454317 -0.051943329868894265 0.021704900129271204 -0.053904745510094748 -0.052380138763114308 -0.052475413280308358 -0.055489393144512345
leaf_weight=0.35300494590774079 24.968399436213076 0.23643019795417941 1.4141590539365987 2.7155655818060045 0.40329274861142028 0.28763530217111188 0.49861897155642487 0.092661150498315692 0.32599020795896638 0.43100171769037821 2.3290762384422123 0.35844457522034645 1.2830675290897486 1.1048712034244088 0.32297024317085743 1.9058785571251062 1.8153430339880285 0.30627400428056739 0.4141911498736589 1.2881987597793338 1.8390771383419631 0.26773910899646569 2.0146256233565514 0.69604612817056477 0.51665477710776031 0.52803184743970633 0.58108789240941405 0.90864998730830848 0.98164990567602206 0.48824680456891656
leaf_count=16 9524 1 29 656 34 7 6 5 18 9 29 5 31 217 9 15 28 7 20 9 15 9 20 146 44 37 35 93 59 8
internal_value=-0.0134045 0.02093 0.0330636 -0.00921291 0.00970367 0.0272855 -0.0357568 0.0210861 -0.0474154 0.0483931 0.0672822 0.0424894 0.0104677 -0.0204765 0.000759533 0.0839039 0.0954075 -0.0357591 -0.0548631 0.0786202 -0.0613809 -0.0441868 0.0759522 -0.0396199 -0.0712745 0.0399746 -0.0364474 -0.058311 -0.0509516 -0.0541326
internal_weight=51.6769 26.7085 13.4014 13.3071 5.74328 4.33047 7.5638 1.28733 6.27647 3.43893 11.9435 4.79352 2.46444 1.45788 1.33506 7.15001 5.73585 1.18137 5.95048 2.10387 5.53629 1.41282 3.82997 0.788707 0.822929 0.815667 0.904058 1.14508 3.69722 0.89154
internal_count=11141 1617 441 1176 251 148 925 157 768 106 208 116 87 233 53 92 63 56 750 53 730 103 48 151 51 44 44 94 715 42
cat_boundaries=0 8
cat_threshold=8388608 0 268468804 0 201588776 4194304 210239746 66065
is_linear=0
shrinkage=0.05


Tree=16
num_leaves=31
num_cat=1
split_feature=42 24 3 37 16 32 13 42 10 13 32 9 17 32 36 4 42 11 11 2 13 14 2 35 30 6 2 11 3 2
split_gain=24.638 5.19366 2.69007 2.56325 3.15718 2.6542 3.22178 2.48437 2.42218 2.31473 2.25219 1.99023 1.61446 1.60001 3.29952 1.12073 1.0076 0.701724 0.685418 0.554068 0.548612 0.541976 0.586385 0.52541 0.514148 0.450235 0.53681 0.178636 0.155665 0.142483
threshold=3.5000000000000004 0 0.58048696420432899 -0.37150442748057538 81740.000000000015 7600.7700243312001 30394.920370402553 1.5000000000000002 8.7520116488261674 113502.0069113146 7170.1450821508379 -0.0023703001955535396 2.5000000000000004 4312.1102856391144 -1.0051128298699855e-21 0.058186010760953116 1.5000000000000002 0.16587192482601701 -0.043394919833414487 149300.00000000003 384188.19509047881 34.500000000000007 169052.00000000003 0.15674023064620204 0.00049961568024596472 -3.1822805217509162e-32 299000.00000000006 0.038456240773462359 37.69184365682333 341289.50000000006
decision_type=2 9 2 2 2 2 2 2 2 2 2 2 2 2 2 2 2 2 2 2 2 2 2 2 2 2 2 2 2 2
left_child=1 2 12 25 21 7 -7 9 -9 10 27 -8 -1 14 -4 -11 19 -16 -13 -15 23 -5 -23 -18 -20 29 -27 -6 -26 -3
right_child=-2 3 13 4 5 6 11 8 -10 15 -12 18 -14 16 17 -17 20 -19 24 -21 -22 22 -24 -25 28 26 -28 -29 -30 -31
leaf_value=-0.050370641080984359 -0.050125331322132261 -0.051879664096550898 0.075313871444747466 -0.05403632167456094 0.003235208602052115 0.16689778762413776 0.090247872665837059 -0.059277521314950066 0.08635878429679851 0.12561091426093543 0.093225408270118465 0.050937438003549752 0.079955817769568921 0.081378569686173824 0.025419412752085303 0.0515967108573182 0.018864681759843203 -0.0392872632721461 0.033512143695178735 0.12169561871221411 0.089266243797875428 -0.050958821605031193 0.059879092857803989 0.073293920674354904 -0.051200394364538077 -0.051556175529328764 0.012528019464583326 -0.053920591437818743 -0.081717053607553491 -0.07951457116820615
leaf_weight=0.84737424086779245 23.753651107661426 0.86837901524268124 3.0026220895815641 2.4811902991496058 0.17433568742126071 0.21731072268448803 0.2983892448246469 0.98481800663284935 0.40205876436084509 1.2278576178941878 0.50261214911006391 0.17188908392563362 0.33023968292400241 1.7889278857037427 0.73122413665987351 0.87660605693235982 0.98068875423632584 0.98126049130223691 0.16384272649884524 1.6273877788335083 1.030595972202718 0.24003832228481758 0.23729344457387924 0.80924262246116996 1.868288668105379 0.95558656379580387 0.49660819000564516 0.63335006032139063 0.53828285797499109 1.0076888846233485
leaf_count=159 9524 118 30 399 10 9 8 98 4 24 4 7 15 33 17 31 33 27 9 9 11 39 2 8 278 162 12 51 4 6
internal_value=-0.013155 0.020014 0.0317825 -0.007124 -0.000473936 0.0157421 -0.0190915 0.0393773 -0.0170572 0.0622977 0.0101272 -0.0323836 -0.013823 0.0657063 0.0437265 0.0947806 0.0823232 -0.0116578 -0.0457271 0.100584 0.0602052 -0.0446498 0.00414145 0.0434726 -0.0521913 -0.0505435 -0.0296413 -0.0415837 -0.0580261 -0.0667232
internal_weight=50.2296 26.476 12.1296 14.3464 11.0182 8.05964 3.258 4.80164 1.38688 3.41476 1.3103 3.04069 1.17761 10.9519 4.71511 2.10446 6.23684 1.71248 2.7423 3.41632 2.82053 2.95852 0.477332 1.78993 2.57041 3.32826 1.45219 0.807686 2.40657 1.87607
internal_count=11141 1617 342 1275 977 537 315 222 102 120 65 306 174 168 74 55 94 44 298 42 52 440 41 41 291 298 174 61 282 124
cat_boundaries=0 8
cat_threshold=8388608 0 268468804 0 201588776 0 210239746 65553
is_linear=0
shrinkage=0.05


Tree=17
num_leaves=31
num_cat=1
split_feature=42 24 10 2 4 32 10 36 30 39 16 32 38 16 2 44 11 35 3 3 11 3 3 13 2 2 3 3 9 36
split_gain=23.3044 4.91297 2.3304 2.27358 3.11986 2.20951 2.85636 1.83172 2.3847 1.7426 1.53641 1.3933 1.37368 1.10926 1.1608 3.15777 1.0531 0.76908 0.648655 0.225201 0.119402 0.00121123 0.000875749 0.000658426 0.000326045 0.000186048 0.000175414 9.75507e-05 8.23123e-05 6.70707e-05
threshold=3.5000000000000004 0 0.73832557830780787 712500.00000000012 0.058186010760953116 4240.6524446770372 1.0678383321480929 3.9559542848827543e-20 0.0056495003843197548 -0.0003224999112856656 2261402.5000000005 1000.0000000002623 3500.2105263157896 1482812.0000000002 34400.000000000007 2988.5000000000005 -0.084763975651976145 -0.032241768489905308 23.603204588246179 19.569904887622982 0.11708356339394461 15.948051901256425 17.49470054320096 211693.7034303059 24968.750000000004 149300.00000000003 8.5707600118569172 1.6028344235510283 -1.5147750960089379e-12 -1.143526171457975e-17
decision_type=2 9 2 2 2 2 2 2 2 2 2 2 2 2 2 2 2 2 2 2 2 2 2 2 2 2 2 2 2 2
left_child=1 7 16 4 5 -4 -7 10 -9 -6 12 -11 -1 14 15 -14 -3 -16 23 20 -13 25 -10 28 -17 27 -22 -18 -8 -29
right_child=-2 2 3 -5 9 6 18 8 22 11 -12 19 13 -15 17 24 21 -19 -20 -21 26 -23 -24 -25 -26 -27 -28 29 -30 -31
leaf_value=0.00068458398038551908 -0.05011920075684017 0.030548358726173397 0.081461604043111979 -0.076965763481235558 0.032860474394422003 0.08705466106379435 -0.050382845869281247 0.057937958446388563 -0.050474171613053724 0.01918079324119279 0.011188928236708763 -0.0093989976485377279 0.11306863223435644 0.12117844429621932 0.089743626843623261 -0.050569944033736505 -0.050214387161272606 0.054508226786210229 0.021519276991556452 -0.073549717962248795 -0.051765195127935676 -0.05322174663618983 -0.054560036327639727 -0.053726389486974627 -0.053206580767992506 -0.05287222125148397 -0.053556879060729513 -0.051262932185519194 -0.05155025900160079 -0.050363443625648853
leaf_weight=0.68666846211999555 22.597865547053516 0.4419876376632591 1.8079897763673178 0.83908000867813903 1.0565077546052637 0.75144747039303217 0.21914802747778483 1.1380384401418262 0.73366175522096444 0.70167654403485391 1.3200988953467447 0.22548091737553511 0.52715080929919877 1.0957441281061617 3.8930587256327271 0.50501858838833869 2.7456377723719969 2.5716429958119988 0.41019650804810215 1.4234122931957243 0.27949727373197675 0.42781042354181398 0.15969028137624264 0.40035378676839173 0.15270517999306321 0.07512609940022219 0.26721621141768992 0.43340216530486941 0.48550404212437659 0.39715492911636818
leaf_count=12 9524 36 36 13 20 23 38 20 119 22 37 14 10 13 33 89 826 22 5 12 30 11 3 10 6 3 10 29 31 84
internal_value=-0.0129231 0.0191933 -0.0077549 0.00134789 0.00953273 0.040236 0.00735244 0.0300089 0.00993996 -0.022109 0.0617103 -0.0421539 0.0687813 0.0741281 0.0673885 0.0218931 -0.0427613 0.0757271 -0.032175 -0.0617553 -0.0400143 -0.0507047 -0.0512045 -0.0521072 -0.0511821 -0.0504097 -0.0526409 -0.050358 -0.0511872 -0.0508328
internal_weight=48.77 26.1721 13.3886 8.86751 8.02843 4.07464 2.26665 12.7835 2.03139 3.95379 10.7521 2.89728 9.43199 8.74532 7.64958 1.18487 4.52112 6.4647 1.5152 2.19561 0.772194 4.07913 0.893352 1.10501 0.657724 3.65132 0.546713 3.57619 0.704652 0.830557
internal_count=11141 1617 1253 264 251 143 107 364 142 108 222 88 185 173 160 105 989 55 84 66 54 953 122 79 95 942 40 939 69 113
cat_boundaries=0 8
cat_threshold=8388609 0 268468804 2048 201588776 0 76022018 65553
is_linear=0
shrinkage=0.05


Tree=18
num_leaves=31
num_cat=1
split_feature=42 24 2 27 0 37 14 42 13 3 16 16 39 10 35 4 4 35 3 35 0 2 11 42 35 30 33 10 10 30
split_gain=22.0544 3.6159 2.98186 3.1022 2.1601 2.62005 2.58109 4.83345 2.04405 2.04749 1.58035 1.29065 1.19881 1.23676 0.924922 2.4138 0.912254 0.705837 0.698764 0.682007 0.597064 0.77356 0.555703 0.455035 0.234018 0.191708 0.173136 0.152152 0.12332 0.111296
threshold=3.5000000000000004 0 10995.000000000002 3.0454708556317841e-10 1.0000000180025095e-35 -0.47452825160044315 4.5000000000000009 1.5000000000000002 59081.748050691349 47.95246120870128 220.50000000000003 75332.500000000015 -1.1701475477171884e-17 3.9167197190566316 -0.025886730420912465 0.075787855495772494 0.031053036126056883 0.076813425336531752 21.228396790882588 -0.077895562881074062 -5.858874618125542e-28 199800.00000000003 0.1788496438011232 2.5000000000000004 0.018029946263346645 1.0000000180025095e-35 -6.1757055689757355e-08 0.64808046066520542 4.7514014660967439 0.015372790161414298
decision_type=2 9 2 2 2 2 2 2 2 2 2 2 2 2 2 2 2 2 2 2 2 2 2 2 2 2 2 2 2 2
left_child=1 2 10 11 5 23 7 24 16 20 -1 12 -4 27 22 17 -8 -16 -18 -5 26 -22 -13 25 -7 -3 -10 -14 -28 -24
right_child=-2 4 3 19 -6 6 8 -9 9 -11 -12 14 13 -15 15 -17 18 -19 -20 -21 21 -23 29 -25 -26 -27 28 -29 -30 -31
leaf_value=0.074745367644822133 -0.050113374287600702 -0.10902563683375768 0.066248549047335362 0.017285446266613699 -0.053637416455314238 0.06187584793795195 0.095788364809244061 -0.059159080101882124 -0.0083317816888461398 0.051708076356728729 -0.050391859253833986 0.057804822182570492 -0.0097763717076536881 0.053840300579430067 -0.053168266551026022 0.082030865445606782 -0.050445065777643516 0.033315243035060255 0.060364447382247902 -0.063599043579912237 -0.05205236983717805 0.042389633427344253 0.090428136482979454 -0.001081695315024014 0.092407974163063455 -0.060740950993639659 -0.051607996922362169 -0.057554670654268003 -0.075899714934588053 0.1085218772296983
leaf_weight=0.3295714114792635 21.498191076330841 0.24828667938709159 1.5165473830420526 0.48654959630221128 2.456724584568291 1.1509759724140192 0.52833319199271478 0.85200646263547231 0.17902956716716145 0.67034356645308424 1.0761155043728647 1.04679705062881 0.25039997813291648 0.62180564552545547 0.50341172469779971 2.3274657835718244 0.28664914239197969 0.4440200652461499 0.28246581554412842 0.5612312015146006 0.46413912787102374 0.40690989047288895 1.7011124193668368 0.2969307203311472 1.380121942842379 1.1948994672857223 1.6518619870767 0.49808752350509167 0.76416105031967152 1.6984362895600496
leaf_count=26 9524 1 18 25 441 33 6 58 25 7 246 34 29 5 29 23 67 16 2 16 48 4 21 26 15 97 248 25 7 19
internal_value=-0.0126858 0.0184104 0.027039 0.0560366 -0.00645155 -0.00148808 0.00981291 0.0438497 -0.0121879 -0.0282825 -0.0210527 0.0641434 0.0356209 0.0017244 0.0748075 0.0546433 0.0484752 -0.0126372 0.00455243 -0.0260394 -0.0437527 -0.00793386 0.0896592 -0.0574502 0.078524 -0.0690479 -0.0557756 -0.0415709 -0.0592912 0.0994679
internal_weight=47.3736 25.8754 13.0616 11.6559 12.8138 10.3571 8.617 3.3831 5.23389 4.13645 1.40569 10.6081 2.88684 1.37029 7.72124 3.2749 1.09745 0.947432 0.569115 1.04778 3.4661 0.871049 4.44635 1.74012 2.5311 1.44319 2.59505 0.748488 2.41602 3.39955
internal_count=11141 1617 532 260 1085 644 520 106 414 339 272 219 77 59 142 68 75 45 69 41 332 52 74 124 48 98 280 54 255 40
cat_boundaries=0 8
cat_threshold=8388608 0 268468804 2048 134217768 4194304 76022018 145
is_linear=0
shrinkage=0.05


Tree=19
num_leaves=31
num_cat=1
split_feature=42 24 37 35 42 14 44 2 14 11 14 16 39 32 6 2 14 42 16 44 37 30 14 2 6 11 38 3 3 3
split_gain=20.883 3.09635 2.83411 3.19974 2.53561 3.7566 2.68934 2.41723 2.25973 2.03046 1.44169 1.08569 1.083 0.564454 0.675256 0.413738 0.883907 0.368837 0.325221 0.30663 0.229198 0.160424 0.143624 0.0714012 0.0405233 0.0395754 0.002072 0.00168416 0.00124095 0.000566755
threshold=3.5000000000000004 0 -0.47452825160044315 -0.11302185819612727 1.5000000000000002 4.5000000000000009 15013.000000000002 10995.000000000002 26.500000000000004 0.17757274604144588 1.0000000180025095e-35 75332.500000000015 -1.1701475477171884e-17 4312.1102856391144 -7.4637044779273298e-19 120750.00000000001 17.500000000000004 2.5000000000000004 5130892.0000000009 10382.500000000002 -0.31587375185074545 1.0000000180025095e-35 15.500000000000002 341289.50000000006 -2.4383052908929433e-11 -0.11041153354283319 5001.6458333333348 66.300363715869153 17.49470054320096 4.3232895581180344
decision_type=2 9 2 2 2 2 2 2 2 2 2 2 2 2 2 2 2 2 2 2 2 2 2 2 2 2 2 2 2 2
left_child=1 7 17 -4 5 19 9 10 25 -7 -1 12 -9 -13 -15 16 -16 21 -19 -5 -8 -3 -14 28 -22 -6 -26 29 -23 -27
right_child=-2 2 3 4 8 6 20 11 -10 -11 -12 13 22 14 15 -17 -18 18 -20 -21 24 23 -24 -25 26 27 -28 -29 -30 -31
leaf_value=0.073422024483406165 -0.050107833115473323 -0.10292871479589144 -0.05049203175594999 0.056104908156369308 -0.074483962157318354 -0.0086842352397998712 -0.014961735556568221 0.063631559003324553 0.054307277465800857 0.073851894758700409 -0.050393482726188987 0.04794415769821414 -0.014827869146077938 0.11268085113867986 0.003662409260434229 0.081385335499736783 0.088953017492981901 -0.051322158858314371 0.04245794851359426 0.089456035738125883 -0.070922387969703335 -0.050606857011359009 0.017965753966987127 -0.071993010612175543 -0.057274693246547929 -0.050730161154047805 -0.051148047354988638 -0.056328898305895249 -0.054345727271326895 -0.052692549223729838
leaf_weight=0.32651381334289797 20.451915718615055 0.24979759752750386 2.3349909374956033 1.2181867856998017 0.2297422802075747 1.610484494827688 0.34959562635049213 1.5060196120757612 0.62542726797983039 1.3868184713646767 0.83979412959888577 1.8606810206547377 0.65898311929777065 1.2114226995036004 0.61536158341914438 2.47660704376176 0.59991274680942297 0.21865925518795837 0.16016435204073787 1.5870384364388881 0.54949982906691697 0.72872378455940612 0.67676922515965998 0.74498087447136629 0.18871225556358706 0.70395184424705781 0.51355217769742012 0.23315959144383658 0.31911264406517148 0.7707990410272032
leaf_count=10 9524 1 599 17 2 34 26 16 13 27 189 34 23 8 39 19 10 42 5 32 14 159 17 8 3 143 66 6 6 49
internal_value=-0.0124721 0.0177184 -0.00449055 0.002192 0.0145344 0.0293726 0.00155596 0.0270922 -0.0283282 0.0295043 -0.0157307 0.0604958 0.0345621 0.0713914 0.080289 0.0696602 0.0457656 -0.0569857 -0.0116725 0.0749731 -0.0507556 -0.0653895 0.00178727 -0.0601591 -0.0607522 -0.0550009 -0.0527944 -0.0523801 -0.0517455 -0.0517558
internal_weight=45.9474 25.4955 14.7234 12.302 9.96697 7.40389 4.59866 10.7721 2.56308 2.9973 1.16631 9.60576 2.84177 6.76399 4.9033 3.69188 1.21527 2.42144 0.378824 2.80523 1.60136 2.04261 1.33575 1.79282 1.25176 1.93765 0.702264 1.70791 1.04784 1.47475
internal_count=11141 1617 1252 1031 432 219 170 365 213 61 199 166 56 110 76 68 49 221 47 49 109 174 40 173 83 200 69 198 165 192
cat_boundaries=0 8
cat_threshold=8388608 0 268468804 0 134217768 4194304 76022018 17
is_linear=0
shrinkage=0.05


Tree=20
num_leaves=31
num_cat=1
split_feature=42 24 2 33 15 42 13 30 30 3 16 17 16 27 16 23 39 38 30 42 40 27 9 35 39 2 2 10 2 3
split_gain=19.7818 3.08587 2.45915 2.36537 1.84689 1.67174 1.74874 2.51864 1.72084 1.71459 1.62076 1.79688 1.63684 1.55794 1.2785 1.07999 0.828381 0.67648 0.531202 0.499629 0.519016 0.899939 0.451298 0.380645 0.375789 0.0809573 0.0708574 0.0272687 0.00201125 0.00177246
threshold=3.5000000000000004 0 10995.000000000002 1.2465579372963061e-08 9.8205576211724148e-27 1.5000000000000002 135865.58848373641 0.0099923136049192944 0.00011529592621060725 7.0157906800517296 2261402.5000000005 1.0000000180025095e-35 75332.500000000015 -2.3945188576702291e-17 220.50000000000003 -1.2468091898265475e-18 -0.00078344519987479089 6601.166666666667 0.0034973097617217526 1.5000000000000002 1.5000000000000002 6.6988682350385592e-20 -1.0000000180025095e-35 0.1814518239937272 3.0552395509009087e-25 341289.50000000006 199800.00000000003 7.4929836876007565 270800.00000000006 23.603204588246179
decision_type=2 9 2 2 2 2 2 2 2 2 2 2 2 2 2 2 2 2 2 2 2 2 2 2 2 2 2 2 2 2
left_child=1 2 14 10 5 6 7 26 -7 13 12 -12 15 -8 -1 -4 18 -5 -6 24 21 -21 -17 27 -14 -18 -3 29 -20 -10
right_child=-2 4 3 17 16 8 9 -9 23 -11 11 -13 19 -15 -16 22 25 -19 28 20 -22 -23 -24 -25 -26 -27 -28 -29 -30 -31
leaf_value=0.058995564612437025 -0.050102568526990812 -0.051632193630777305 0.052168139907681578 0.021029763311528588 0.032128213961054024 0.091373676409332721 0.0838581407624161 0.037429155089215065 -0.051209446304633248 0.07115611748416853 0.064295572700565365 -0.048437129642102061 0.070457969787780586 -0.050893321333795517 -0.050361652979790728 -0.051463762304815468 -0.050897787105074969 -0.060651396193102058 -0.050152489626414831 -0.0027558999873284716 0.083312149884055747 0.078160424220991565 0.017330993696256399 0.015239530973412574 0.098692213731157885 -0.070147826920808717 -0.075567143080243079 -0.069099016813266231 -0.058742461782662438 -0.055018613658753449
leaf_weight=0.36233907262794574 19.456458328291774 0.57140225148759982 1.944659148110077 0.45865715760737547 0.51176210632547769 0.24777182936668429 0.30881390371359885 1.1768230518791822 1.3286434886977079 1.8599250980187205 0.67321278201416024 0.74424867960624397 2.3526752411853522 0.70231917046476178 1.0186274113366378 0.41969795245677244 1.9865009036147969 0.56665521231479943 0.14747305260971189 0.70850462769158207 1.0386010739021001 0.66722136177122593 0.55184632143936851 0.21754094748757768 2.3613674819935113 0.75328750745393325 0.67389143398031592 0.27272944711148728 0.12667746841907501 0.39653459191322316
leaf_count=30 9524 83 20 5 21 1 4 35 231 17 9 37 22 135 250 47 448 36 56 36 13 9 12 10 25 11 4 3 1 6
internal_value=-0.0122459 0.0170403 0.024197 0.0486465 -0.00699991 0.000434837 0.0162698 -0.0150196 -0.0335927 0.0426666 0.055155 0.00510443 0.062218 -0.00973838 -0.0216684 0.0306611 -0.04321 -0.0241126 0.0020416 0.0751279 0.056631 0.0364882 -0.0123877 -0.0475687 0.0846011 -0.0561905 -0.0645846 -0.0544075 -0.0541217 -0.052085
internal_weight=44.6069 25.1504 13.8683 12.4873 11.2821 7.7564 5.29317 2.42212 2.46322 2.87106 11.462 1.41746 10.0446 1.01113 1.38097 2.9162 3.5257 1.02531 0.785913 7.12837 2.41433 1.37573 0.971544 2.21545 4.71404 2.73979 1.24529 1.99791 0.274151 1.72518
internal_count=11141 1617 551 271 1066 529 278 122 251 156 230 46 184 139 280 79 537 41 78 105 58 45 59 250 47 459 87 240 57 237
cat_boundaries=0 8
cat_threshold=8388608 0 268468804 0 201326632 4194304 76022018 65681
is_linear=0
shrinkage=0.05


Tree=21
num_leaves=31
num_cat=0
split_feature=42 2 13 11 2 16 16 37 11 45 13 9 3 46 0 13 43 16 11 2 44 36 14 20 43 3 20 16 2 30
split_gain=18.7423 2.35728 2.34557 2.25022 1.96648 1.97994 2.5459 2.48311 1.75358 2.54501 1.46901 1.27585 1.13462 1.0142 1.3599 0.914388 0.853408 0.846995 0.765123 0.859024 0.511355 1.4556 0.545596 0.494674 0.438206 0.217959 0.150558 0.135378 0.0269178 0.0191138
threshold=3.5000000000000004 10995.000000000002 762498.14435286017 -0.097805633038501386 1170174.0000000002 70537.500000000015 7966.0000000000009 -0.28057013436919165 0.025039229029037855 1.5489228337074782e-30 135865.58848373641 -1.0000000180025095e-35 0.36689193262473296 1.0139467919319984e-11 -3.6304644589711192e-09 171007.18040623851 17.500000000000004 247761.50000000003 0.35574249335150571 199800.00000000003 16995.000000000004 -1.4891514546082645e-17 13.500000000000002 -5.1125276292317538e-19 22.500000000000004 4.178098718675213 2.9748389002405203e-26 220.50000000000003 341289.50000000006 0.00088393543428132214
decision_type=2 2 2 2 2 2 2 2 2 2 2 2 2 2 2 2 2 2 2 2 2 2 2 2 2 2 2 2 2 2
left_child=1 2 -1 -3 5 6 11 8 -7 10 -10 -5 -9 16 -15 -13 25 -12 19 -19 22 -22 24 -23 -18 -14 -26 -4 -11 -8
right_child=-2 3 27 4 -6 7 29 12 9 28 17 15 13 14 -16 -17 20 18 -20 -21 21 23 -24 -25 26 -27 -28 -29 -30 -31
leaf_value=-0.050301185016303686 -0.050097552679974677 -0.063722243084449126 0.075097631879840865 -0.051007337600982118 -0.039502705504580807 0.076492982404924192 -0.068009532129101463 -0.050802517570753283 -0.04182184990250401 -0.051954826860273862 0.069429646381197266 0.0068720249795826823 0.045472171566347308 0.075136182869170232 -0.053074287733342766 0.06623117460648445 0.085389550602731137 -0.052427343212303759 0.059805796136057771 0.03474331771226459 -0.016222588394105484 0.099652698364231407 0.094034484521410111 0.04862088765323952 0.023348100595903393 -6.6353498173203881e-05 0.057767550022308933 0.032851474187336881 -0.066256484263004095 -0.052356281331991154
leaf_weight=2.2842067310120941 18.509360829833895 0.73601114354096608 0.31014332151971746 0.46271519234869662 1.1112403040751804 0.90037339623086765 0.23225182108581055 0.25380473781841928 0.72190090385265682 0.79022521385923006 1.2321754404110836 1.19614865723998 0.46862450800835709 0.37246467592194676 0.46507150109391737 1.4177447574911637 0.9549537152051929 0.56971241650171556 0.6235370353097095 0.56084150681272149 0.62822160928044835 0.85937959002331243 2.4381660530343652 1.0613503208151016 0.63515468081459381 0.59813389927148819 0.6356996517861262 0.4880354234483093 0.56370423687621951 1.2165181386517359
leaf_count=770 9524 34 8 69 16 24 2 37 24 69 17 38 24 4 49 22 4 49 13 9 32 11 25 34 25 17 15 37 6 133
internal_value=-0.012028 0.0163982 -0.0245182 0.0222086 0.0252246 0.0288465 -0.000214504 0.0374233 0.0121986 0.000762789 0.0221852 0.0255206 0.053473 0.0563759 0.0039428 0.0390677 0.0616797 0.0376583 0.0153402 -0.00918401 0.0678531 0.0498448 0.0776949 0.0714537 0.0597965 0.0199386 0.0405652 0.0492668 -0.0579093 -0.0548656
internal_weight=43.2979 24.7885 3.08239 21.7061 20.9701 19.8589 4.52538 15.3335 5.96247 5.0621 3.70817 3.07661 9.37102 9.11722 0.837536 2.61389 8.27968 2.98627 1.75409 1.13055 7.21293 2.54895 4.66397 1.92073 2.22581 1.06676 1.27085 0.798179 1.35393 1.44877
internal_count=11141 1617 815 802 768 752 264 488 211 187 112 129 277 240 53 60 187 88 71 58 146 77 69 45 44 41 40 45 75 135
is_linear=0
shrinkage=0.05


Tree=22
num_leaves=31
num_cat=1
split_feature=42 24 44 30 0 42 14 38 4 4 3 10 16 4 13 37 35 37 14 44 16 35 30 44 2 3 2 2 11 2
split_gain=17.7637 2.37642 2.15562 2.00711 1.80134 2.0834 1.79126 1.66387 2.37512 1.60055 1.91778 1.54725 1.62455 1.41726 1.10012 1.19906 0.969501 0.738217 1.31134 0.546609 0.403085 0.386244 0.261672 0.345442 0.123019 0.0557873 0.0357324 0.0310777 0.0212287 0.00098899
threshold=3.5000000000000004 0 1192500.0000000002 0.054342813220599549 1.0000000180025095e-35 1.5000000000000002 26.500000000000004 5555.5681003584241 0.043927747886241354 0.012182936202920833 2.6457135424214191 0.20482401685714627 528.00000000000011 0.011760184473481939 171007.18040623851 -0.12800608036283276 -0.064101781552257223 -0.23403409824353597 4.5000000000000009 3303.5000000000005 5130892.0000000009 -0.047940300352944575 0.0067640276710222913 9975.0000000000018 1343687.1500000001 19.569904887622982 1170174.0000000002 341289.50000000006 -0.023196114473016047 99600.000000000015
decision_type=2 9 2 2 2 2 2 2 2 2 2 2 2 2 2 2 2 2 2 2 2 2 2 2 2 2 2 2 2 2
left_child=1 3 4 11 5 7 20 -3 13 28 -11 12 -1 -9 15 -13 -12 -15 -19 -10 24 -16 25 -24 27 -21 -6 29 -5 -7
right_child=-2 2 -4 9 26 6 -8 8 19 10 16 14 -14 17 21 -17 -18 18 -20 22 -22 -23 23 -25 -26 -27 -28 -29 -30 -31
leaf_value=0.098100226561901038 -0.050092784921586024 0.04913849012284327 0.14096271595877694 -0.071467860439985528 -0.050892344793820259 -0.05048346962031465 0.036554427191247171 -0.053899624396721579 0.011174460084314487 -0.050340321852114678 0.082751838631400718 -0.0018388193354285411 -0.051521415868510924 0.078666112054156356 0.06074705058397202 0.063148396326188988 0.015543008276367268 0.075403185283167307 -0.051401882253270817 -0.050643523246755133 0.011419214364858557 0.090145599461012652 0.037129857386822888 -0.051578921332669919 -0.091303701020773509 -0.071916825028210771 -0.072053131139090384 -0.065216860002036775 -0.052421902717751039 -0.052927727871471333
leaf_weight=0.25618185196071674 17.608282674103975 2.168025524937546 0.23439214332029301 0.21015375852584839 1.9845963601255801 0.82642832805868394 0.69794388662558038 0.39467852818779681 0.41219898173585567 0.62396985001396421 1.0763409610372039 1.1322758402675392 0.62165970564819872 1.0288914816919714 1.935163620393723 1.9022117985878138 1.0700025550322605 0.42811218369752135 0.38926555227953941 0.48652983200736322 0.221241139108315 2.643378171371296 0.1665979039389639 0.32158285821788013 0.26358270761556912 0.84070704877376556 0.22179337078705419 0.57309615425765503 0.48154597065877114 0.82895602320786566
leaf_count=2 9524 34 7 1 455 223 37 26 29 158 17 27 85 29 29 31 28 9 71 125 8 20 7 47 5 4 3 9 53 38
internal_value=-0.011805 0.0157785 -0.00512985 0.0228222 -0.0121104 -0.00312726 -0.034884 0.0131959 -0.00424246 0.00982856 0.0268162 0.0549987 -0.0078571 0.0321016 0.0622464 0.0388993 0.0492467 0.0504861 0.0150139 -0.040804 -0.0532601 0.07772 -0.0526059 -0.0213059 -0.0590022 -0.0641186 -0.0530195 -0.0551817 -0.0582085 -0.0517075
internal_weight=42.0498 24.4415 12.4886 11.9529 12.2542 10.0478 3.41125 6.63659 4.46856 3.46201 2.77031 8.49087 0.877842 2.24095 7.61303 3.03449 2.14634 1.84627 0.817378 2.22762 2.7133 4.57854 1.81542 0.488181 2.49206 1.32724 2.20639 2.22848 0.6917 1.65538
internal_count=11141 1617 1166 451 1159 701 320 381 347 257 203 194 87 135 107 58 45 109 80 212 283 49 183 54 275 129 458 270 54 261
cat_boundaries=0 8
cat_threshold=8388608 0 268468804 0 134479912 0 76022018 145
is_linear=0
shrinkage=0.05


Tree=23
num_leaves=31
num_cat=1
split_feature=42 24 16 42 37 14 30 4 37 2 33 14 17 13 38 13 44 35 8 14 2 16 0 0 16 35 2 35 10 2
split_gain=16.8408 2.20031 2.3317 2.93711 2.23535 2.19836 1.53902 2.20226 1.38957 1.36395 1.35335 1.3376 1.29028 1.20695 0.868054 0.637817 0.847136 0.7367 0.458723 0.441352 0.438321 0.372424 0.254422 0.502418 0.193161 0.103602 0.0348804 0.0276837 0.026596 0.0113826
threshold=3.5000000000000004 0 81740.000000000015 1.5000000000000002 -0.47452825160044315 4.5000000000000009 0.010645657186779402 0.02167563412759416 -0.18766151305384043 14700.295000000002 -1.7050939558304826e-07 26.500000000000004 2.5000000000000004 329420.62531166826 5256.4574468085111 171007.18040623851 14973.109900000001 0.084060208790242633 7.2788003991048384e-25 34.500000000000007 169052.00000000003 5130892.0000000009 -5.858874618125542e-28 -1.0000000180025095e-35 1046114.0000000001 0.22056560825790764 378500.00000000006 0.076813425336531752 3.603070358280537 423185.00000000006
decision_type=2 9 2 2 2 2 2 2 2 2 2 2 2 2 2 2 2 2 2 2 2 2 2 2 2 2 2 2 2 2
left_child=1 9 19 4 29 24 13 -8 -9 12 -10 21 -1 22 -11 16 -16 -18 -17 27 -21 25 26 -24 -6 28 -7 -3 -5 -4
right_child=-2 2 3 11 5 6 7 8 10 14 -12 -13 -14 -15 15 18 17 -19 -20 20 -22 -23 23 -25 -26 -27 -28 -29 -30 -31
leaf_value=-0.050391680586113458 -0.050088250428146623 -0.051123294107600054 -0.052042048764117547 -0.05154141340792262 0.080069284900507701 -0.05178481221119019 -0.060721829242311426 0.098411865966595291 0.071832298337919293 0.0094722563851185743 -0.052853285743702627 0.035293749703597957 0.076224360782425338 0.043879645243610488 0.068641118156852685 0.050298795355648331 -0.021060128432376816 0.049805211749040221 0.079687456672122403 -0.0507747049644863 0.057525000913378893 0.0078992044408118852 0.044205282442872751 -0.05129538113232715 0.052527658138025103 -0.088462046167336897 -0.07100261778880454 -0.063705779980153171 -0.064641626529217885 -0.064780171055132091
leaf_weight=0.65347554255276818 16.750994185917079 2.0155865860870144 0.63172175688668986 1.5712293019751102 1.2711187048116692 0.4720678565790869 0.4767779954709116 1.0404697438934818 0.46020024223253131 1.0740076489746559 0.4128830228000876 0.52227720886003215 0.29072298179380596 0.50458223104942579 1.1909925136715158 2.3158986172638834 0.78756971214897908 0.68635704973712564 3.1120642276946455 0.18375706439837802 0.19006183743476868 0.23243490839377035 0.20374806178733629 0.42495988588780342 1.275363430380821 0.25622684229165305 0.47237161919474602 0.55821944132912893 0.51423670630902041 0.24277492612600327
leaf_count=147 9524 487 89 298 27 61 32 21 5 13 61 22 9 22 16 39 34 8 34 39 2 10 8 64 29 4 3 18 13 2
internal_value=-0.0115997 0.0152144 -0.00407031 0.00360359 0.0198007 0.0291982 0.00806666 0.0354255 0.0593815 0.0230337 0.0128682 -0.0376636 -0.011406 -0.0234084 0.051708 0.0573131 0.0372803 0.0119394 0.0671485 -0.0464788 0.00428843 -0.0524662 -0.0449909 -0.0203461 0.0662755 -0.0584581 -0.0613968 -0.0538522 -0.0547717 -0.0555784
internal_weight=40.7952 24.0442 13.9331 10.9854 7.88904 7.01454 4.46806 2.39033 1.91355 10.1111 0.873083 3.0964 0.944199 2.07773 9.16689 8.09288 2.66492 1.47393 5.42796 2.94762 0.373819 2.57413 1.57315 0.628708 2.54648 2.34169 0.944439 2.57381 2.08547 0.874497
internal_count=11141 1617 1317 771 424 333 277 119 87 300 66 347 156 158 144 131 58 42 73 546 41 325 136 72 56 315 64 505 311 91
cat_boundaries=0 8
cat_threshold=8388608 0 268468804 0 134479912 0 76022018 17
is_linear=0
shrinkage=0.05


Tree=24
num_leaves=31
num_cat=1
split_feature=42 24 16 37 32 13 35 4 13 38 3 32 32 2 4 14 2 13 44 14 2 35 38 3 35 2 3 3 10 11
split_gain=15.9725 2.03267 2.02765 1.93878 1.77872 1.71625 1.53411 1.51256 1.66869 1.35472 1.28013 1.36419 2.07357 1.02525 1.00054 0.968576 0.932894 1.04581 0.635235 0.418216 0.415088 0.196342 0.0987125 0.0447286 0.0235766 0.0183578 0.000804353 0.000752604 0.000299272 0.00019723
threshold=3.5000000000000004 0 81740.000000000015 -0.67193198931106279 7600.7700243312001 30394.920370402553 -0.11187143946301024 0.091083781706379721 213542.56129426914 15872.111111111113 0.58048696420432899 4312.1102856391144 1000.0000000002623 1310.0000000000002 0.041660261337432745 5.5000000000000009 100250.00000000001 300722.09855717776 7960.0000000000009 34.500000000000007 169052.00000000003 -0.079359141546006887 23528.625782352945 37.69184365682333 0.076813425336531752 341289.50000000006 7.3619631797960032 17.49470054320096 0.69634655599610273 0.28358689944277121
decision_type=2 9 2 2 2 2 2 2 2 2 2 2 2 2 2 2 2 2 2 2 2 2 2 2 2 2 2 2 2 2
left_child=1 10 19 25 6 -6 -5 18 -9 14 13 12 15 -1 -7 -12 17 -13 -8 24 -21 -20 -23 28 26 27 -3 -4 -11 -30
right_child=-2 2 3 4 5 9 7 8 -10 23 11 16 -14 -15 -16 -17 -18 -19 21 20 -22 22 -24 -25 -26 -27 -28 -29 29 -31
leaf_value=0.057822270143563559 -0.050083941467446727 -0.050322619250552592 -0.050629223047192778 -0.050627624017425911 0.10138774342221551 0.048411668714371817 0.018204270926836581 -0.063641804820435327 0.041384436905698319 -0.05040191961733307 0.018242668288297265 -0.013841288528789986 -0.027575255226401082 -0.050390168755146229 -0.051331330832463197 0.076277771285914911 0.075180059844509886 0.062995484165551355 0.092029294142800408 -0.050737763853911079 0.057117575007113675 0.048460061938084727 0.072496319566286688 -0.069123300762059067 -0.062966771298022917 -0.064697350230330755 -0.052507355649706683 -0.053767944825870606 -0.051058168581858271 -0.052725031596237565
leaf_weight=0.33092531305737694 15.935375455301253 1.2203896116698194 0.45968671201262512 0.54819506732746948 0.27374121220782432 0.7315356138860809 0.78433702897745972 0.65310722903814145 0.89850210084114224 0.6870442770887164 1.3940966669470056 0.738006958272308 1.3168082006741313 0.64649586100131273 0.38309179770294577 1.4845000645145772 4.0364831374026835 1.1072839892003683 0.71245536371134255 0.17491918243467797 0.18204934149980545 0.83286848315037765 0.87685477861668915 0.45984152378514398 0.53706855489872385 0.4389169542118907 0.64341282937675703 0.32673313468694687 0.36642774171195924 0.34413371793925762
leaf_count=19 9524 446 104 130 9 32 31 30 26 213 21 36 31 141 54 19 33 19 10 39 2 24 19 5 18 6 37 6 43 14
internal_value=-0.0114115 0.0147123 -0.00465283 0.00231536 0.0107431 -0.0184125 0.0285772 0.0377026 -0.00282347 -0.0294466 0.0214639 0.0461793 0.0243969 -0.0137527 0.0141305 0.0481715 0.0617164 0.0322653 0.0573129 -0.0462287 0.00426707 0.0699768 0.0607874 -0.0555966 -0.0537366 -0.0565054 -0.0510768 -0.0519333 -0.051146 -0.0518655
internal_weight=39.5253 23.5899 12.5353 9.77747 8.55214 3.24582 5.30632 4.75812 1.55161 2.97207 11.0546 10.0772 4.1954 0.977421 1.11463 2.8786 5.88177 1.84529 3.20652 2.75784 0.356969 2.42218 1.70972 1.85745 2.40087 1.22534 1.8638 0.78642 1.39761 0.710561
internal_count=11141 1617 1298 756 640 370 270 140 56 361 319 159 71 160 86 40 88 55 84 542 41 53 43 275 501 116 483 110 270 57
cat_boundaries=0 8
cat_threshold=8388608 0 268468804 0 134479912 0 76022018 65553
is_linear=0
shrinkage=0.05


Tree=25
num_leaves=31
num_cat=0
split_feature=42 2 11 2 16 16 37 36 13 11 15 9 3 27 44 17 16 35 13 43 38 40 43 37 10 4 32 2 3 30
split_gain=15.1534 1.79511 1.70425 1.38352 1.63456 2.05411 1.37761 1.54273 1.17321 1.23104 2.11001 1.06197 1.00775 1.50789 1.17057 0.993572 0.820136 1.03621 0.729865 0.65331 1.04964 0.422568 0.346923 0.262141 0.529823 0.353715 0.192185 0.0134083 0.0116038 0.00950799
threshold=3.5000000000000004 7000.2500000000009 -0.097805633038501386 1170174.0000000002 70537.500000000015 7966.0000000000009 -0.28057013436919165 4.5093905981527324e-12 135865.58848373641 0.089068855076114964 2.5183231894510205e-26 -1.0000000180025095e-35 2.6457135424214191 -8.1671332308750812e-22 1767.5000000000002 2.5000000000000004 1431.5000000000002 -0.034656763462236305 762498.14435286017 14.500000000000002 13535.676470588236 1.5000000000000002 24.500000000000004 -0.17363882448584808 3.1143639638783847 0.00080707148347425068 2379.2252354379839 341289.50000000006 27.258506947037692 0.00049961568024596472
decision_type=2 2 2 2 2 2 2 2 2 2 2 2 2 2 2 2 2 2 2 2 2 2 2 2 2 2 2 2 2 2
left_child=1 15 -3 4 5 11 8 12 26 -10 19 -4 13 21 -15 -1 17 -13 -17 20 -11 -8 -9 -14 25 -25 -6 -12 -28 -7
right_child=-2 2 3 -5 6 29 7 22 9 10 27 16 23 14 -16 18 -18 -19 -20 -21 -22 -23 -24 24 -26 -27 28 -29 -30 -31
leaf_value=-0.050254356790056624 -0.050079841874106336 -0.060619122042172451 -0.050826542502959218 -0.035183923791035694 -0.0072192239854509156 -0.063878534352967739 0.029297737810940895 0.039733444625185368 0.065439296238222852 -0.052957511885513134 -0.052292746291247166 -0.056655206618052817 0.072245082070925545 0.068895137364168357 -0.050843220296061448 -0.05018700068156412 0.055814299057972229 0.046406627327469994 0.091083436368871784 0.051800151567660213 0.036916143917697937 0.092731504366767276 -0.052344897010980822 0.055227400005424893 0.065165387758266011 0.0069855126393482438 -0.050826918301023719 -0.064405924570299616 -0.065055940218810213 -0.052158913562697529
leaf_weight=1.5291936594294409 15.15940746758133 0.66065188776702299 0.44585621962323818 1.0414044155040745 0.27501577732619686 0.20335462130606163 0.50455518322997528 0.12970599532127458 1.2320075621828435 0.5087213845690719 0.52841780218295742 0.46704697806853812 2.364086975925602 0.27064731286371013 0.83030296419747174 0.14495164400432248 1.527385508874431 0.5104376971721678 0.24760417640209198 1.508067834889516 0.89896517561282963 0.54734530800487846 0.48407063004560769 0.6774251442402599 2.596203800290823 0.86532540712505579 0.28174188279081136 0.40244576474651694 0.29155443608760834 1.1617657848400993
leaf_count=589 9524 36 86 16 9 2 35 7 32 23 53 40 24 9 129 52 34 4 1 38 34 14 73 7 20 33 40 4 2 171
internal_value=-0.0112241 0.0142352 0.018427 0.0209677 0.0239646 -0.00319074 0.0316767 0.0437144 0.0128499 0.0219416 0.00801003 0.0202715 0.0491461 0.0194948 -0.0214079 -0.0320389 0.0329267 -0.00283682 0.0389192 0.0289338 0.00443686 0.0623048 -0.0328865 0.0589622 0.0513752 0.0281686 -0.04158 -0.0575297 -0.0580632 -0.0539047
internal_weight=38.2957 23.1363 21.2145 20.5539 19.5125 4.31585 15.1966 9.26967 5.92694 5.07863 3.84662 2.95073 8.65589 2.15285 1.10095 1.92175 2.50487 0.977485 0.392556 2.91575 1.40769 1.0519 0.613777 6.50304 4.13895 1.54275 0.848312 0.930864 0.573296 1.36512
internal_count=11141 1617 975 939 923 337 586 351 235 184 152 164 271 187 138 642 78 44 53 95 57 49 80 84 60 40 51 57 42 173
is_linear=0
shrinkage=0.05


Tree=26
num_leaves=31
num_cat=1
split_feature=42 24 37 16 42 10 10 40 2 13 23 3 40 37 0 30 10 14 32 16 14 2 11 4 2 2 10 30 3 3
split_gain=14.3779 1.84659 1.9204 2.1894 2.04234 2.0975 1.65012 1.58579 1.27911 2.2703 1.66044 0.944603 0.739661 1.12547 0.621507 0.815914 0.482177 1.38984 0.475294 0.43032 0.355944 0.373157 0.265555 0.0743678 0.0230981 0.0169021 0.0128046 0.00813876 0.00792812 0.0011001
threshold=3.5000000000000004 0 -0.47452825160044315 81740.000000000015 1.5000000000000002 7.4929836876007565 8.7520116488261674 1.5000000000000002 100250.00000000001 171007.18040623851 3.5129208110441879e-21 100.47356620444025 1.5000000000000002 -0.78307281168197385 1.0000000180025095e-35 0.069139123750960818 0.73832557830780787 3.5000000000000004 4312.1102856391144 3474548.5000000005 34.500000000000007 169052.00000000003 0.038456240773462359 0.005457340507302076 341289.50000000006 378500.00000000006 7.4929836876007565 0.00034588777863182174 37.69184365682333 66.300363715869153
decision_type=2 9 2 2 2 2 2 2 2 2 2 2 2 2 2 2 2 2 2 2 2 2 2 2 2 2 2 2 2 2
left_child=1 8 19 20 5 7 26 14 9 28 12 22 13 -11 16 -16 17 -5 -10 23 27 -22 -9 -3 -25 -24 29 -4 -1 -6
right_child=-2 2 3 4 6 -7 -8 11 18 10 -12 -13 -14 -15 15 -17 -18 -19 -20 -21 21 -23 25 24 -26 -27 -28 -29 -30 -31
leaf_value=-0.050872097791920035 -0.050075937114504976 -0.085922739541677201 -0.061113368122773584 0.057327601688350507 -0.051107663364740812 -0.064161056232971234 0.064083732667315582 0.039803922709542514 0.037084341028933286 0.067211824674451068 -0.050692368666861748 0.072188105951685427 0.07612223601320621 -0.019045974762899653 -0.051009144761078179 0.073069027372946016 0.066091710364256526 -0.05100138557932437 0.067509546383088537 0.021295100987469503 -0.050668865783864807 0.056442219606660453 -0.050940811799121827 -0.051389891086685263 -0.063839718879287341 -0.068099682645374957 -0.065480533601584873 -0.05110753245989335 -0.063117502795866406 -0.055268523647142409
