tree
version=v4
num_class=1
num_tree_per_iteration=1
label_index=0
max_feature_idx=46
objective=binary sigmoid:1
feature_names=amount direction_txn_count logins_last_7_days is_future_os last_phone_model_categorical anomaly_score is_fake_os amount_to_avg_30d time_since_last_txn gnn_emb_6 gnn_emb_8 amount_decimal mcc_risk_score gnn_emb_5 burstiness_login_interval gnn_emb_15 high_risk_device gnn_emb_3 gnn_emb_12 gnn_emb_14 avg_amount_30d amount_per_login_interval count_txn_1h monthly_os_changes logins_last_30_days sum_amount_24h gnn_emb_4 last_os_categorical days_since_os_release is_obsolete_os last_os_categorical_freq gnn_emb_2 anomaly_score_raw monthly_phone_model_changes is_high_risk_mcc gnn_emb_13 last_phone_model_categorical_freq direction_fan_in gnn_emb_0 gnn_emb_11 fano_factor_login_interval std_amount_7d gnn_emb_9 gnn_emb_10 gnn_emb_1 gnn_emb_7 zscore_avg_login_interval_7d
feature_infos=[-50000:5024700] [1:224] [0:180] none -1:231:224:226:230:228:215:33:221:218:172:115:222:234:219:223:154:182:209:151:233:190:109:62:70:104:212:89:107:179:4:49:229:165:184:240:141:119:155:46:146:85:116:235:217:73:177:178:123:72:156:164:69:161:88:117:79:207:27:198:106:171:174:87:232:120:158:35:201:108:145:148:122:181:23:147:121:14:210:74:131:188:211:98:103:91:51:57:58:16:86:187:24:118:189:81:241:193:216:54:173:8:100:138:144:15:55:196:168:92:220:83:133:28:76:77:82:12:34:38:60:167:205:64:101:110:11:47:139:157:0:36:78:113:175:20:61:111:132:142:149:185:206:13:26:203:50:65:166:19:170:180:200:7:84:105:124:136:143:9:10:29:59:67:90:93:130:153:162:163:176:183:204:18:22:66:125:126:127:159:195:2:52:95:112:160:237:25:30:31:99:129:137:152:208:239:21:41:48:56:97:114:128:134:140:186:192:199 [-1:1] none [-1.6470458003480111:499999999.99999994] [1:15030862] [-9.8444911485911631e-05:64.075338964274664] [-99.218016483954528:0.00031293896765931695] [0:0.99100000000180444] none [-0.0013001773031200558:199.41536420581505] [-1:0.67741760415128927] [-23.163051925014731:0.18733790226221234] [0:1] [-6.7620757503967179e-05:204.36678361400206] [-0.0029215055892375251:141.10653895436749] [-0.016185191010250954:154.39037498942108] [0:3757075] [-500005.0000500005:6999.8321666946385] [1:16] [0:6] [0:388] [0:5024700] [-16.202237227731256:0.00010485903551025222] -1:4:3:2:5:36:29:1:27:0:41:44:43:40:39:25:38:37:12:35:33:20:34:15:48:13:30:21:22:26:42:14:28:18:46:31:32:16:19:24:6:11:17:47:7 none none [0:0.18970023059185243] [-7.8286551325111001e-06:72.994641953418892] [-0.16254273157163451:0.29827411108095847] [0:5] none [-73.762629149528195:0.0039083290603846854] [0:0.075634127594158343] [1:3] [-52.056909255065193:8.1843014627788383e-07] [-0.061794048635228055:164.52075545134571] [-1:2856431.5070558186] [0:3323401.8715767735] [-0.008365204210096339:144.22823481372097] [-54.11009698800045:0.0078305312535425029] [-2.3908431075242765e-05:217.86711132891] [-1.2880166589071795e-05:188.91096033444086] [-1.6863033664441271:4.8906223730604932]
tree_sizes=3053 3412 3403 3381 3392 3480 3473 3473 3535 3508 3518 3485 3494 3506 3475 3493 3484 3492 3496 3489 3514 3500 3497 3517 3522 3530 3495 3496 3495 3505 3504 3437 3536 3438 3438 3459 3449 3518 3457 3449 3449 3465 3464 3468 3462 3479 3489 3489 3478 3475 3474 3480 3453 3486 3480 3485 3474 3482 3484 3482 3484 3481 3481 3504 3467 3507 3488 3482 3535 3484 3485 3488 3510 3500 3508 3506 3486 3516 3494 3523 3515 3507 3502 3517 3504 3520 3489 3514 3527 3515 3510 3512 3551 3533 3527 3554 3564 3554 3555 3568 3553 3550 3547 3564 3543 3547 3523 3541 3565 3547 3557 3549 3541 3545 3555 3550 3561 3548 3547 3548 3575 3575 3567 3570 3559 3563 3603 3598 3597 3591 3595 3591 3573 3593 3568 3577 3575 3573 3582 3579 3616 3557 3613 3592 3584 3617 3592 3610 3602 3601 3601 3600 3609 3614 3610 3596 3613 3618 3619 3609 3647 3622 3648 3612 3617 3633 3617 3627 3639 3628 3665 3635 3661 3630 3633 3670 3657 3657 3656 3657 3645 3664 3650 3667 3644 3642 3662 3690 3673 3664 3654 3661 3653 3666 3678 3656 3456 3663 3687 3668 3683 3680 3679 3666 3660 3469 3449 3454 3693 3701 3465 3730 3689 3702 3670 3723 3683 3730 3682 3733 3373 3739 3603 3725 3484 3710 3620 3146 3255 3264 3376 3376 3255 3136 3037 2813 3159 2804 2923 2696 2827 2677 2697 2576 2701 2474 2477 2788 2462 2340 2349 2230 2349 2250 2009 1994 2236 1991 2018 2013 2015 2002 1877 2006 1910 1769 1769 1651 1881 1881 1777 1771 1896 1666 1655 1430 1651 1548 1657 1680 1662 1429 1542 1550 1540 1425 1321 1440 1418 1431 1305 1433 1444 1433 1330 1426 1320 1293 1309 1314 1311 1440 1316 1315 1428 1318 1207 1305 1302 1446 1204 1316 1206 1304 1072 1076 1212 1084 1090 1315 1064 1083 1197 1194 1084 1070 1083 1069 965 1079 972 1080 970 1072 1083 971 959 974 1082 964 962 960 960 971 969 957 1090 973 968 966 970 853 960 965 960 962 851 859 855 967 853 960 975 964 951 970 970 855 957 845 847 964 855 837 736 846 957 851 848 738 846 844 858 842 846 849 849 741 853 842 860 837 737 842 848 849 847 741 740 860 840 845 844 733 846 731 731 735 731 739 846 850 848 725 738 851 729 733 853 729 843 854 852 734 853 745 846 733 727 724 735 733 741 729 729 733 731 729 727 730 728 732 859 741 733 737 617 736 726 732 737 738 727 854 734 617 734 731 732 730 740 624 620 741 732 742 731 739 731 613 732 738 732 731 608 730 611 615 736 732 618 733 624 617 729 612 620 618 726 625 621 622 733 614 616 727 614 737 617 615 733 734 611 623 615 732 734 729 621 615 609 615 619 731 617 744 732 614 612 618 615 625 731 625 731 614 618 724 627 613 620 734 614 733 618 617 727 627 610 620 619 619 617 615 622 618 617 618 614 621 616 617 621 618 616 631 611 615 622 621 630 617 616 615 619 614 617 618 616 620 619 621 504 615 614 621 615 616 625 619 619 614 618 620 625 625 614 616 620 615 619 620 616 616 622 619 609 624 501 619 620 614 617 617 501 626 628 623 611 621 620 624 619 613 494 619 628 614 617 625 614 626 498 613 615 617 499 613 620 617 618 506 619 619 498 622 615 509 501 499 618 622 621 619 622 614 619 625 621 612 615 500 505 617 616 612 507 621 622 612 505 496 612 619 620 501 507 505 496 616 504 506 501 504 510 501 492 626 505 503 505 497 500 619 503 619 617 499 615 497 500 508 503 499 502 507 624 508 505 496 503 504 495 499 508 500 502 496 615 508 497 504 504 505 501 503 499 502 504 503 618 499 505 500 507 503 498 504 500 621 504 503 502 503 624 507 497 502 498 506 500 618 503 498 501 503 505 500 502 495 501 499 500 508 504 503 496 495 502 507 501 505 619 498 614 502 497 503 614 506 500 504 505 502 503 502 616 501 622 502 498 499 502 613 503 500 502 503 504 495 496 503 502 501 504 504 619 498 499 497 504 501 503 502 499 503 502 498 508 504 496 505 501 501 502 502 499 617 506 494 502 497 499 498 501 501 497 505 499 499 499 498 509 502 506 503 503 501 503 506 383 501 508 511 497 499 499 503 496 501 502 505 501 497 498 503 502 500 499 500 498 506 503 503 499 499 381 505 501 499 499 503 508 509 500 498 498 506 498 505 501 502 499 498 502 506 502 504 499 501 498 500 508 499 501 501 503 503 382 498 503 500 500 499 498 383 498 506 500 506 506 496 498 382 500 504 500 498 499 504 497 506 501 501 500 501 502 383 499 497 499 506 504 504 508 504 503 497 499 502 502 501 498 504 505 502 500 509 493 497 500 501 501 503 501 506 499 382 504 498 508 501 501 502 505 497 500 509 507 501 502 498 495 383 505 504 506 498 498 383 499 382 501 501 500 498 501 504 504 501 501 506 498 501 502 496 502 503 383 503

Tree=0
num_leaves=28
num_cat=0
split_feature=7 1 15 20 1 1 0 17 14 7 42 46 10 1 40 25 2 25 13 33 2 0 0 0 0 0 0
split_gain=400.379 1677.74 755.016 278.61 132.654 69.5569 150.455 187.989 132.584 41.1404 73.7103 168.28 13.7845 18.5106 8.81308 24.8461 8.19727 3.416 5.10672 3.10401 5.74952 8.88178e-16 1.11022e-16 1.11022e-16 5.55112e-17 5.55112e-17 5.55112e-17
threshold=15.057825330543606 3.5000000000000004 -1.0000000180025095e-35 8108.3409090909099 1.5000000000000002 3.5000000000000004 100250.00000000001 -1.0000000180025095e-35 0.23159994578798579 1.4814814802743486 -1.4471994266645612e-18 -0.24161509971196302 -2.0000632781906304e-22 1.5000000000000002 762498.14435286017 14090.000000000002 49.500000000000007 1012.0000000000001 1.7517630710371777e-22 2.5000000000000004 14.500000000000002 40076.500000000007 85221.000000000015 53225.000000000007 199800.00000000003 49894.000000000007 2406.0000000000005
decision_type=2 2 2 2 2 2 2 2 2 2 2 2 2 2 2 2 2 2 2 2 2 2 2 2 2 2 2
left_child=5 2 4 -4 -2 6 9 24 -9 14 11 -11 13 -12 16 -16 17 18 -1 21 -21 -19 23 -14 -8 -13 -17
right_child=1 -3 3 -5 -6 -7 7 8 -10 10 12 25 22 -15 15 26 -18 19 -20 20 -22 -23 -24 -25 -26 -27 -28
leaf_value=-4.7842042579564259 -3.0675623490571096 -5.2359521287194122 -2.0299994974982516 0.89491183163531662 -5.2359521287194122 -5.2359521287194122 -5.2359521287194122 -4.2320679714683429 -2.0737170333785602 -3.3338558307700197 -4.3324563871934529 -5.2359521287194122 -5.2359521287194122 -5.2359521287194113 -4.3324563871934529 -5.2359521287194122 -4.7842042579564321 -5.2359521287194122 -5.2359521287194122 -4.7842042579564321 -5.2359521287194122 -5.2359521287194122 -5.2359521287194122 -5.2359521287194122 -5.2359521287194113 -5.2359521287194122 -5.2359521287194113
leaf_weight=0.11068120598792841 0.13835150748491287 2.2634306624531746 0.17155586928129141 0.15495368838310242 0.14388556778430939 50.442959628999233 0.17155586928129196 0.19922617077827443 0.1106812059879303 0.21029429137706757 0.11068120598793019 0.12728338688611973 0.50913354754447926 0.11621526628732681 0.11068120598793019 0.12728338688611984 0.11068120598793019 4.9419158473610878 0.14388556778430939 0.11068120598793019 0.19369211047887802 0.2656348943710326 0.12728338688611984 0.17708992958068848 0.11621526628732681 0.13281744718551636 0.11621526628732681
leaf_count=20 25 409 31 28 26 9115 31 36 20 38 20 23 92 21 20 23 20 893 26 20 35 48 23 32 21 24 21
internal_value=-5.18567 -4.60925 -2.27906 -0.641906 -4.17302 -5.21384 -5.08007 -4.31572 -3.46123 -5.13908 -4.905 -4.3856 -5.13984 -4.79522 -5.19583 -4.95361 -5.21043 -5.21861 -5.03954 -5.22688 -5.07168 -5.23595 -5.23595 -5.23595 -5.23595 -5.23595 -5.23595
internal_weight=61.655 2.87218 0.608747 0.32651 0.282237 58.7828 8.33983 0.597679 0.309907 7.74215 1.5108 0.470395 1.0404 0.226896 6.23135 0.35418 5.87717 5.76649 0.254567 5.51192 0.304373 5.20755 0.813507 0.686223 0.287771 0.260101 0.243499
internal_count=11141 519 110 59 51 10622 1507 108 56 1399 273 85 188 41 1126 64 1062 1042 46 996 55 941 147 124 52 47 44
is_linear=0
shrinkage=1


Tree=1
num_leaves=31
num_cat=0
split_feature=1 30 2 23 0 0 40 40 19 1 20 46 36 2 30 36 24 2 30 17 24 8 21 35 17 46 32 20 7 40
split_gain=71.1058 25.3344 57.5019 15.3942 13.748 21.6079 15.007 23.725 18.6137 32.0607 14.607 9.76844 8.83575 7.42878 21.186 8.13314 19.298 7.60876 5.91865 5.75951 3.90879 3.44681 6.32588 2.9667 2.39949 1.28167 1.16799 0.83782 0.00247646 0.000661238
threshold=3.5000000000000004 0.005457340507302076 13.500000000000002 1.0000000180025095e-35 39895.000000000007 40076.500000000007 113502.0069113146 126004.84394336323 -1.5305620471911954e-23 1.5000000000000002 6888.0959595959603 0.16759382948041809 0.023904688700999235 3.5000000000000004 0.012182936202920833 0.023904688700999235 10.500000000000002 56.500000000000007 0.094350499615680261 2.3547979916962542e-18 23.500000000000004 2144611.0000000005 0.21592111298811337 -2.8204696786205491e-25 -1.0000000180025095e-35 -0.34561813188054896 -0.032241768489905308 14024.699248120303 15.948051901256425 1114341.4238340857
decision_type=2 2 2 2 2 2 2 2 2 2 2 2 2 2 2 2 2 2 2 2 2 2 2 2 2 2 2 2 2 2
left_child=1 2 3 -1 13 -6 11 -8 9 -9 -10 19 18 14 -3 -16 -17 21 23 20 -7 28 -23 -12 25 -22 -21 -25 -15 -11
right_child=-2 4 -4 -5 5 6 7 8 10 29 12 -13 -14 17 15 16 -18 -19 -20 26 24 22 -24 27 -26 -27 -28 -29 -30 -31
leaf_value=0.41020946979352191 -0.050266088406244663 0.6909792020496508 0.97346901337845237 -0.11166535168125598 0.52894034850097471 -0.096534284869757611 0.41786406748569971 0.57795673102529466 0.20753637049233933 -0.050297957481151061 -0.13627385769764422 0.16331506176039928 0.13282908151566833 -0.050449854330630539 -0.050410471618305232 -0.050266088406244441 0.71683664651253665 0.3549636782775642 0.061371089085593439 -0.054807529503066305 0.05895299516330204 -0.050273158617639917 0.44626107373650986 0.018499740712004425 0.099610844432489548 -0.052175199588086786 -0.13531146631900967 -0.055202090474733234 -0.054869411509943601 -0.054698173506021165
leaf_weight=0.2157291248440768 50.149211190640926 0.13481985498219984 0.24393303319811821 0.40961060021072626 0.25860957056283851 0.57365297432988827 0.5831525642424803 0.47579395212232878 1.3268552608788029 0.20366977248340845 0.89155850838869621 0.80825715325772751 1.3490555649623273 5.1038526520133018 0.88016800396144368 0.22115359827876091 0.13028839137405157 0.12334054335951794 1.5477057443931701 0.90563640464097261 0.45436977967619896 0.17672068253159512 0.10069439560174942 0.70357799716294012 1.158816206268966 0.60483982600271724 0.89661943539977051 0.85319044534116983 0.33795458264648903 0.14700255077332258
leaf_count=18 9524 16 21 38 25 22 12 29 16 37 12 32 24 840 148 42 18 15 39 27 3 33 18 14 10 50 15 29 6 8
internal_value=-0.0174831 0.0578604 0.322357 0.0683705 0.0468864 0.0762217 0.0675388 0.110666 0.086775 0.310604 0.0590489 0.00302179 0.0221886 -0.00903481 0.0959193 0.0307803 0.234118 -0.033581 -0.0151634 -0.0251802 0.0198025 -0.0419603 0.129956 -0.0635446 0.049891 -0.00450447 -0.0948581 -0.0218927 -0.0507243 -0.0521425
internal_weight=71.9698 21.8206 0.869273 0.62534 20.9514 13.7424 13.4838 8.08156 7.49841 0.826466 6.67194 5.40219 5.34509 7.20899 1.36643 1.23161 0.351442 5.84256 3.99603 4.59393 2.79168 5.71922 0.277415 2.44833 2.21803 1.05921 1.80226 1.55677 5.44181 0.350672
internal_count=11141 1617 77 56 1540 404 379 220 208 74 134 159 118 1136 224 208 60 912 94 127 85 897 51 55 63 53 42 43 846 45
is_linear=0
shrinkage=0.05


Tree=2
num_leaves=31
num_cat=0
split_feature=1 0 0 30 24 26 32 40 21 40 20 18 2 24 38 8 8 8 30 46 30 33 36 14 24 8 7 0 0 7
split_gain=63.8359 15.8009 18.6369 23.4101 15.9166 20.2379 25.4469 15.2348 9.45694 9.4524 12.7159 9.19281 8.10578 7.12373 7.11735 5.63152 20.112 5.15921 4.63035 3.36652 2.59234 2.12534 0.893215 0.663631 0.588227 0.56886 0.0041358 0.0029016 0.00205759 0.00119636
threshold=3.5000000000000004 10995.000000000002 336430.50000000006 0.005457340507302076 113.50000000000001 1.0558705657545985e-25 0.071724096561705267 436508.11626042629 1.434748700871699 762498.14435286017 25813.392857142859 -1.9120844317254661e-07 7.5000000000000009 27.500000000000004 1.2286719177070467e-29 427036.00000000006 727938.50000000012 1299492.5000000002 0.044388931591083786 -0.35579031865258243 0.039392774788624137 1.5000000000000002 0.0004227517294388932 0.032719009785307861 8.5000000000000018 934037.00000000012 5.3265000627497292 76307.500000000015 99600.000000000015 19.569904887622982
decision_type=2 2 2 2 2 2 2 2 2 2 2 2 2 2 2 2 2 2 2 2 2 2 2 2 2 2 2 2 2 2
left_child=1 9 3 14 5 11 7 8 17 29 -11 13 -4 -5 -3 19 -17 28 -15 21 -18 24 -21 -24 -13 -22 -25 -27 -7 -1
right_child=-2 2 12 4 -6 6 -8 -9 -10 10 -12 15 -14 18 -16 16 20 -19 -20 22 25 -23 23 26 -26 27 -28 -29 -30 -31
leaf_value=-0.050329711301180483 -0.050253045233241249 0.20105488646070291 -0.08920169231089238 0.34579374259291223 0.37216950496221063 -0.050612751437838915 0.62209781026721034 0.32463913829249763 0.19501317222922732 -0.050688288354758873 0.524705982702387 0.043908057928712302 0.040976684934792597 0.19551810214346099 0.49121108185301382 0.2751932025290284 0.084912500568046681 0.24307394552896364 -0.053497490127244779 -0.14412885815256365 0.018801942043010143 0.11323255844236216 0.023097330836704868 -0.051194995642814094 -0.052238150299965203 -0.050533773448401875 -0.055423815847170071 -0.055186534290719361 -0.055540518161770136 -0.055047265629530065
leaf_weight=4.2670295713469413 47.715474713593721 0.39228366082534449 1.9499813332222391 0.37339920457452336 0.46797058591619212 0.89464654261246523 0.29577059764415015 0.7928102696314453 0.90020390227437008 0.21453245868906368 0.17381289601325989 0.25430494686588401 3.0917902640067041 0.39717470109462738 0.45821194350719452 0.8330662366934124 0.54072298435494337 0.16985527146607626 0.35224414756521583 0.24650287954136629 0.33438190259039391 0.59441491588950157 0.31840007426217232 0.96820232877507839 0.42484823381528258 0.52283631218597271 1.4352734880521891 0.9331289422698319 0.2775556999258697 0.13876038789749134
leaf_count=768 9524 30 24 8 30 125 13 37 33 22 23 8 32 18 16 20 21 15 24 5 5 11 18 122 38 74 38 31 6 2
internal_value=-0.017264 0.0511325 0.0723843 0.103663 0.0861588 0.0748732 0.17939 0.136247 0.0696363 -0.0296342 0.206843 0.0340558 -0.00937177 0.167373 0.357379 0.0138439 0.0643266 -0.0144619 0.078475 -0.0238121 -0.0110318 0.0441907 -0.0529883 -0.0447343 -0.0162368 -0.040009 -0.0537203 -0.0535157 -0.0517796 -0.0504783
internal_weight=70.7296 23.0141 18.22 13.1782 12.3277 11.8597 3.33084 3.03507 2.24226 4.79414 0.388345 8.5289 5.04177 1.12282 0.850496 7.40608 3.16414 1.34206 0.749419 4.24195 2.33107 1.27357 2.96838 2.72188 0.679153 1.79035 2.40348 1.45597 1.1722 4.40579
internal_count=11141 1617 802 746 700 670 229 216 179 815 45 441 56 50 46 391 151 146 42 240 131 57 183 178 46 110 160 105 131 770
is_linear=0
shrinkage=0.05


Tree=3
num_leaves=31
num_cat=0
split_feature=1 0 0 30 8 46 1 35 43 21 11 25 0 2 44 46 8 45 32 7 7 2 14 40 24 46 0 21 36 7
split_gain=58.1595 13.1505 14.5687 13.561 13.3971 18.4974 19.7503 11.0976 20.5097 10.2953 8.91601 8.85799 8.27442 7.28158 6.76183 6.51308 9.90403 9.09994 6.16377 3.43598 7.51892 3.10458 4.79384 2.85345 2.28523 1.08266 1.13263 0.935523 0.634409 0.0041595
threshold=3.5000000000000004 10995.000000000002 336430.50000000006 0.01029976940814758 70537.500000000015 -0.27812439677058237 1.5000000000000002 8.002570364077616e-21 1.53816257866258e-21 6.258871560363569 0.17680000000018484 2988.5000000000005 218995.00000000003 7.5000000000000009 -1.0000000180025095e-35 -0.44856809210673004 110033.00000000001 -3.4736357376474179e-20 0.0074354406022464356 15.057825330543606 2.7272727258559626 1.0000000180025095e-35 0.16694657201394539 428692.27198147535 101.50000000000001 -0.35579031865258243 191000.00000000003 2.9397928060006415 0.0004227517294388932 15.948051901256425
decision_type=2 2 2 2 2 2 2 2 2 2 2 2 2 2 2 2 2 2 2 2 2 2 2 2 2 2 2 2 2 2
left_child=1 10 3 14 12 15 7 11 -9 -8 21 -7 24 -4 -3 16 -6 -18 19 20 -13 22 -1 -19 25 26 -5 -17 -27 -30
right_child=-2 2 13 4 5 6 9 8 -10 -11 -12 18 -14 -15 -16 27 17 23 -20 -21 -22 -23 -24 -25 -26 28 -28 -29 29 -31
leaf_value=-0.050377385707217108 -0.050240639331721418 0.10177785074437305 -0.084050894123336994 -0.050922086630929446 0.31818518169095117 0.40996368030488056 -0.052685015232996402 0.71559249921630141 0.12992914815638484 0.28500524526739651 0.42759048923152698 -0.050501334533954868 0.2260147584455782 0.039184723781651762 0.31227998439350552 -0.053372001085181434 0.23349088962707545 -0.054329866576822643 0.023744362886653724 0.2929462180469326 0.31910491989894268 -0.050479151130877545 0.35580347933968798 0.07040179535775927 0.093232733574330276 -0.14044267831694407 0.06627153707683163 0.022447022830695041 -0.051399143806003772 -0.056083231540667577
leaf_weight=0.17757969815284269 45.399286800995469 0.63741412991657853 1.9655871223658312 0.4347365405410536 0.3991208006627861 0.42933382326737035 1.0225645159371195 0.32574294647201885 0.27627086872234941 0.28963543288409699 0.10446299659088243 0.28732559317722894 0.34628175757825364 3.0720380847342312 0.95019588898867613 1.3902072487398971 0.52429755683988366 1.0936086676083503 0.5853580068796872 0.70847010985016823 0.26405460573732853 4.2808957458473742 0.12292627152055502 0.78955800039693702 0.33574222214519966 0.23284693947061885 0.39212950738146901 0.57518517784774292 1.2168230279348788 0.77632541907951225
leaf_count=27 9524 33 24 45 7 13 96 22 31 3 13 44 3 32 37 74 26 69 13 6 8 758 17 27 20 2 3 5 147 12
internal_value=-0.0169575 0.0459844 0.0642089 0.0899939 0.0727654 0.105925 0.182602 0.255931 0.446825 0.0218517 -0.0291594 0.205406 -0.00679214 -0.00889951 0.227765 0.0386206 0.0875027 0.049259 0.157811 0.220101 0.126502 -0.039574 0.115777 -0.00203344 -0.0305827 -0.0441995 0.00465533 -0.0311831 -0.062347 -0.0532236
internal_weight=69.406 24.0067 19.3209 14.2832 12.6956 8.96073 4.18876 2.87656 0.602014 1.3122 4.68586 2.27454 3.73489 5.03763 1.58761 4.77198 2.80659 2.40746 1.84521 1.25985 0.55138 4.5814 0.300506 1.88317 3.3886 3.05286 0.826866 1.96539 2.226 1.99315
internal_count=11141 1617 802 746 676 444 236 137 53 99 815 84 232 56 70 208 129 122 71 58 52 802 44 96 229 209 48 79 161 159
is_linear=0
shrinkage=0.05


Tree=4
num_leaves=31
num_cat=0
split_feature=1 0 0 10 46 46 43 2 8 25 1 8 14 42 43 11 30 46 14 0 40 25 8 43 2 20 40 40 18 7
split_gain=53.1949 11.0042 11.5067 10.0352 11.6939 9.22195 12.875 8.41309 11.5249 12.823 11.3435 8.60886 7.51854 7.20223 6.97165 6.88762 5.496 4.68904 3.39114 3.05963 2.9436 2.8049 2.60781 5.11366 1.6294 0.55558 0.378761 0.362115 0.346306 0.00284601
threshold=3.5000000000000004 10995.000000000002 336430.50000000006 8.0645747322983512e-12 -0.27812439677058237 -0.49876477628679139 -3.759070489322184e-20 13.500000000000002 101661.00000000001 14090.000000000002 1.5000000000000002 533052.00000000012 0.23159994578798579 -6.0883571114399199e-17 -1.8185962910979689e-08 0.37125000000014557 0.005457340507302076 -0.61110433759371618 0.13294103991105818 100250.00000000001 428692.27198147535 7960.0000000000009 220.50000000000003 -8.7795074923418014e-23 34.500000000000007 4110.854166666667 155202.54764946798 85074.306598070703 2.680325350558655e-11 7.3619631797960032
decision_type=2 2 2 2 2 2 2 2 2 2 2 2 2 2 2 2 2 2 2 2 2 2 2 2 2 2 2 2 2 2
left_child=1 15 3 4 5 6 -3 10 16 -10 11 13 -4 -6 18 22 -9 20 -5 -18 -8 -13 23 -1 28 -20 -7 -15 -16 -30
right_child=-2 2 12 14 7 26 17 8 9 -11 -12 21 -14 27 24 -17 19 -19 25 -21 -22 -23 -24 -25 -26 -27 -28 -29 29 -31
leaf_value=-0.050342646764052736 -0.050228847636284935 0.24929559841593904 -0.056299734627056668 0.23767126396091492 0.17995701958140667 0.0017270712768563728 -0.053580963370534133 0.24975396401958455 0.51908868805078201 0.18320250351614539 -0.052279876677447705 0.14812738848265841 0.069615609234383508 0.012869092911259754 -0.10968693079336336 0.3274717508153398 -0.051707567894426668 0.18978696534558853 0.10909054952376668 0.14610919211216467 0.066010178091678903 0.30015143815847534 -0.050459093449928639 0.34807134336451995 0.041264926267584753 0.025015092994260409 -0.053647083191832083 -0.052661894330166652 -0.050581611818779106 -0.054745666537913809
leaf_weight=0.22621200466528535 43.195019491016865 0.97431102162227023 3.1200065696611992 0.34116870397701882 0.83036761451512608 0.38921654922887672 1.0683736535720534 0.48454472422599815 0.5198993091471491 0.6266252021305263 0.9143190225586294 0.47616137564182259 1.9121012589894233 0.35714572668075772 0.31992058642208521 0.13185394462198008 0.44101126492023468 0.40670979861170087 0.29141221195459366 0.35108389053493738 0.99258455727249373 0.83631604071706533 4.0893506743013859 0.12506529269740241 0.4728027288801967 0.60326036997139454 1.4948173826560376 0.51450623571872711 0.74824567697942235 0.90864244475960732
leaf_count=40 9524 21 38 18 15 23 72 5 13 33 87 12 18 10 8 11 48 19 2 3 30 31 752 12 7 39 78 36 104 32
internal_value=-0.0166469 0.0414503 0.0571671 0.0786606 0.101362 0.0467208 0.0953974 0.147177 0.220449 0.335512 0.101986 0.148776 -0.0084544 0.0745771 0.00672761 -0.0286547 0.117112 0.0346337 0.103546 0.0359716 0.0040157 0.244998 -0.039229 0.0915047 -0.042118 0.0524001 -0.0422075 -0.0258116 -0.062061 -0.0528652
internal_weight=68.1631 24.968 20.3956 15.3634 11.678 5.32601 3.44198 6.35198 2.42316 1.14652 3.92882 3.0145 5.03211 1.70202 3.68545 4.57248 1.27664 2.46767 1.23584 0.792095 2.06096 1.31248 4.44063 0.351277 2.44961 0.894673 1.88403 0.871652 1.97681 1.65689
internal_count=11141 1617 802 746 536 243 142 293 102 46 191 104 56 61 210 815 56 121 59 51 102 43 804 52 151 41 101 46 144 136
is_linear=0
shrinkage=0.05


Tree=5
num_leaves=31
num_cat=1
split_feature=1 4 42 0 0 40 20 36 7 15 8 21 15 41 42 35 25 14 15 7 32 14 24 0 7 40 7 21 7 7
split_gain=49.1025 10.5256 10.1795 8.28782 6.49894 7.25306 11.1923 6.17055 5.74535 6.2114 12.5727 11.0512 10.1429 5.5396 5.39588 3.5465 4.94669 3.18201 2.83322 3.37526 2.63947 2.53282 1.22592 0.751604 0.606607 0.444939 0.0053762 0.00314071 0.00197848 0.00135737
threshold=3.5000000000000004 0 5.2577530931663357e-17 351850.00000000006 34400.000000000007 171007.18040623851 16251.315789473685 0.00011529592621060725 100.47356620444025 -1.0063390757636343e-21 137835.00000000003 0.77392926091335557 -7.3538278597393444e-12 4030.4350616591014 3.4099155661594647e-21 -0.0003224999112856656 15013.000000000002 0.10918212432540016 8.0319046299107594e-30 21.228396790882588 0.05245166780614164 0.20404125901356177 16.500000000000004 1170174.0000000002 19.569904887622982 60660.898723809361 5.0863990903679221 0.60385830176118016 9.7380655702020338 17.49470054320096
decision_type=2 9 2 2 2 2 2 2 2 2 2 2 2 2 2 2 2 2 2 2 2 2 2 2 2 2 2 2 2 2
left_child=1 2 3 4 5 -1 -7 -3 9 10 -9 14 -13 22 -12 16 17 -11 19 24 26 -15 -6 28 27 -19 -20 -17 -18 -4
right_child=-2 7 29 -5 13 6 -8 8 -10 15 11 12 -14 21 -16 18 23 25 20 -21 -22 -23 -24 -25 -26 -27 -28 -29 -30 -31
leaf_value=-0.050603462564936225 -0.050217640092050278 0.18477803607682092 -0.050458139255459257 0.03337906644111821 0.096108330032616041 -0.051363083960389924 0.30046314598811419 -0.050647239199956985 0.16461923815178403 0.16142212267892203 0.16838584789061403 0.083206373719144189 0.44752061516741126 0.28981421220512465 -0.050417212823278323 -0.050320560563860743 -0.050357211438357155 0.051939771590849851 -0.051054192748737459 0.033944908503227886 -0.13108754896288727 0.18922380374414349 0.16175561913465777 -0.15945189145271926 -0.13830954227758191 -0.01722394792085645 -0.05519765782564541 -0.054389122235528137 -0.056074723818818145 -0.055339252449370671
leaf_weight=0.7280074302107058 41.097315354272723 0.40255702566356077 0.66466700891032893 1.7746941500809041 1.244466850999743 0.3770639537833631 0.56441421946510673 2.1176697709597674 0.44000637065619308 0.58614098094403855 0.44740486750379183 0.36601622682064772 0.39967130729928602 1.1460702442564072 0.76110662147402763 0.89262932492419267 0.45388222206383932 0.41421909118071198 2.0085280477069323 1.620196442119777 1.5920974938198922 1.3784996247850356 1.6595007120631633 0.21524542570114136 0.23081995546817768 0.5301402029581368 1.2829076726920901 1.0122212865389881 0.22696886211633682 0.18127450160682201
leaf_count=108 9524 9 102 19 18 33 37 331 9 20 31 24 18 23 126 160 81 11 272 16 24 18 22 1 1 29 24 42 5 3
internal_value=-0.0163097 0.0378728 0.0562957 0.130022 0.154185 0.0679124 0.159556 -0.00523155 -0.0134894 -0.0186596 0.0339761 0.124749 0.27337 0.180717 0.0305862 -0.0381227 0.0152867 0.0699114 -0.0531241 -0.0204743 -0.0782346 0.234888 0.133623 -0.0780103 -0.0617586 0.013113 -0.0526692 -0.0524826 -0.0522632 -0.0515041
internal_weight=66.8164 25.7191 9.71866 8.87272 7.09802 1.66949 0.941478 16.0004 15.5979 15.1579 4.09187 1.9742 0.765688 5.42854 1.20851 11.066 2.4266 1.5305 8.6394 3.75587 4.88353 2.52457 2.90397 0.896097 2.13567 0.944359 3.29144 1.90485 0.680851 0.845942
internal_count=11141 1617 383 278 259 178 70 1234 1225 1216 530 199 42 81 157 686 147 60 539 219 320 41 40 87 203 40 296 202 86 105
cat_boundaries=0 8
cat_threshold=8388609 0 268468800 2048 67371008 0 210239490 66065
is_linear=0
shrinkage=0.05


Tree=6
num_leaves=31
num_cat=1
split_feature=1 4 36 1 33 7 36 20 20 24 2 22 21 7 23 39 7 14 32 25 32 40 19 0 7 32 7 0 21 0
split_gain=45.5352 10.7824 9.46995 7.46846 13.5263 6.06316 6.00886 5.17689 7.47757 5.12535 5.06609 4.01316 4.40872 3.27285 2.96532 2.79157 4.2208 4.88414 3.10838 2.32045 2.16401 2.03678 3.37952 0.69754 0.490391 0.448991 0.00515084 0.00313952 0.00224556 0.00136459
threshold=3.5000000000000004 0 0.054342813220599549 1.5000000000000002 1.5000000000000002 100.47356620444025 0.00011529592621060725 10198.333333333334 6276.1609770114947 40.500000000000007 63.500000000000007 1.5000000000000002 0.25373133946837617 31.360864299446561 3.5000000000000004 -1.5881439145143316e-30 21.228396790882588 0.5159620172359457 0.05245166780614164 3990.0000000000005 -0.032241768489905308 59081.748050691349 -7.7287102274985892e-05 985000.00000000012 19.569904887622982 0.17043067389326857 13.29564695011962 110250.00000000001 0.9485170021300976 104823.50000000001
decision_type=2 9 2 2 2 2 2 2 2 2 2 2 2 2 2 2 2 2 2 2 2 2 2 2 2 2 2 2 2 2
left_child=1 2 3 11 9 6 -3 8 -4 25 14 12 19 23 15 18 17 24 21 -1 -14 22 -8 -9 27 28 29 -17 -5 -23
right_child=-2 5 7 4 -6 -7 10 13 -10 -11 -12 -13 20 -15 -16 16 -18 -19 -20 -21 -22 26 -24 -25 -26 -27 -28 -29 -30 -31
leaf_value=0.14416472358313445 -0.050206979866746188 0.1580193291305993 -0.054745804649380295 -0.050948329545992113 0.18977987740750801 0.16990957406660406 0.23439161202413114 -0.050965276134325693 0.16963149409402967 0.078449650512977046 0.17001369704923167 0.24847260595288012 0.19302447070316323 0.064896495579599575 0.12698632672183452 -0.050697955618946147 0.040537601050751632 0.19774526109781998 -0.12150632851677089 -0.051204435248279223 0.11308152033734874 -0.050760167882068254 -0.050417740920587678 -0.14600472830760122 -0.12394617329939017 -0.11908432251664587 -0.056011255541823041 -0.054060338435910286 -0.055766949551179973 -0.053862164786123101
leaf_weight=0.23476959345862081 39.101065319031477 0.44592106807977039 0.56800845637917463 0.70725185563787885 1.3769524174276737 0.42321961047127921 0.17267400864511728 1.3536721051204952 1.0722800157964227 1.0307771344669161 0.31272730045020658 0.97137795668095339 1.945424946490675 0.70741069316864003 0.28036891296506006 2.9837046307511614 2.2236681203357875 0.19902986986562599 1.6371206482872365 0.43101589777506888 1.49862492736429 2.2982355353888133 0.26248935842886245 0.22517946362495411 0.24837409239262331 0.332466835156083 0.71386149991303671 0.90475410502403963 0.36736744455993176 0.41920210327953089
leaf_count=5 9524 9 21 71 37 6 7 195 36 29 9 21 37 4 25 501 26 15 26 49 19 343 42 1 2 6 10 44 10 11
internal_value=-0.0159719 0.0348339 0.0499078 0.117377 0.0645038 -0.00940365 -0.0223729 0.0241528 0.0919328 -0.00625455 -0.0287288 0.157072 0.135469 -0.0244762 -0.033764 -0.0375001 -0.0154683 -0.0441912 -0.0637591 0.0176867 0.158239 -0.039308 0.0625954 -0.06452 -0.0558311 -0.0683056 -0.0522316 -0.0514803 -0.0525956 -0.0512387
internal_weight=65.449 26.3479 12.8226 8.89603 3.81482 13.5254 13.1021 3.92655 1.64029 2.43786 12.6562 5.08121 4.10984 2.28626 12.3435 12.0631 6.55953 4.33586 5.50358 0.665785 3.44405 3.86646 0.435163 1.57885 4.13683 1.40709 3.4313 3.88846 1.07462 2.71744
internal_count=11141 1617 541 284 153 1076 1070 257 57 116 1061 131 110 200 1052 1027 588 562 439 54 56 413 49 196 547 87 364 545 81 354
cat_boundaries=0 8
cat_threshold=8388609 0 268468804 2048 67371016 0 210239490 66193
is_linear=0
shrinkage=0.05


Tree=7
num_leaves=31
num_cat=1
split_feature=1 4 7 36 7 0 40 25 44 8 8 30 32 20 7 36 14 35 25 21 14 21 8 8 35 7 31 0 36 7
split_gain=42.4891 10.2087 4.87738 4.84001 4.76605 5.48453 4.70736 4.38478 4.38241 7.96757 7.62782 7.36071 4.08242 5.2575 3.92449 3.85401 3.66692 3.57189 4.17138 2.19918 2.19262 1.57339 1.41975 1.14309 0.565023 1.15968 0.529261 0.445228 0.261814 0.00467626
threshold=3.5000000000000004 0 100.47356620444025 0.00011529592621060725 0.69217460719186552 563000.00000000012 762498.14435286017 99538.000000000015 -1.2105601113230633e-23 137835.00000000003 150576.00000000003 0.14227517294388933 -0.032241768489905308 6276.1609770114947 15.948051901256425 0.0012682551883166798 -0.064870071838179041 -0.0003224999112856656 15013.000000000002 4.7514014660967439 0.10918212432540016 5.4136758460421772 75332.500000000015 3474548.5000000005 1.0000000180025095e-35 23.603204588246179 4.5494254235917191e-27 1170174.0000000002 0.0017294388931591085 3.9597209397091908
decision_type=2 9 2 2 2 2 2 2 2 2 2 2 2 2 2 2 2 2 2 2 2 2 2 2 2 2 2 2 2 2
left_child=1 4 3 -3 6 7 -1 12 9 -5 -11 15 13 -6 21 -12 -17 18 20 23 -10 -14 -15 24 26 -26 29 -20 -22 -19
right_child=-2 2 -4 8 5 -7 -8 -9 17 10 11 -13 14 22 -16 16 -18 19 27 -21 28 -23 -24 -25 25 -27 -28 -29 -30 -31
leaf_value=-0.050413158530914021 -0.050196847483733147 0.13843236948119395 0.14775868603347539 -0.050672472462884137 0.019606111069565096 0.022901524696043965 0.13188841929673836 0.21686297247333478 0.13275101036021356 0.35038300808876993 0.23293418762754309 0.28236743213845034 -0.051832347117447081 0.13251432764568408 0.1070750480795416 0.17831100101748737 -0.05122494822637761 -0.050810759156938529 -0.052201571337978571 -0.11014673395008448 0.039471077056217781 0.065791883156018791 0.20810705865222406 0.019798634430818012 -0.051335701780530124 0.043252581348534908 -0.10281375268173545 -0.13264271920414844 -0.014701026907030137 -0.054474884352761523
leaf_weight=1.0334106183145184 37.201404236257076 0.48251568805426437 0.46123662544414479 1.9750263688620169 0.6327473446726789 1.6568752615712572 0.53869898081757117 1.0732772708870468 0.64905307488515729 0.24680341593921218 0.17338197631761421 0.29725304944440711 0.68560661771334686 0.98939577676355872 2.6143745565786958 0.20428398461081076 1.1735708590131251 1.7012753321323555 0.64284656895324577 1.5224822452291844 0.43934059794992208 0.48571775201708078 1.6688425592146812 0.64576835162006307 1.1851901365444062 0.44597725570201863 0.62029503053054202 0.23485930263996124 0.45302803604863584 1.7837118993047623
leaf_count=174 9524 9 6 325 24 16 35 20 20 13 7 27 42 23 17 4 148 257 87 15 5 6 33 29 171 4 12 1 35 52
internal_value=-0.01565 0.0324543 -0.00748842 -0.0173354 0.0494326 0.105831 0.0120543 0.12269 -0.022557 0.021381 0.0892987 0.0544397 0.108408 0.149139 0.0729995 0.0107634 -0.0171934 -0.0398801 0.0132832 -0.0561501 0.0628275 -0.00305664 0.179971 -0.0432691 -0.0503688 -0.0254743 -0.0602603 -0.0737263 0.0119696 -0.0526862
internal_weight=63.9183 26.7168 15.3379 14.8767 11.3789 9.80684 1.57211 8.14996 14.3941 4.07032 2.09529 1.84849 7.07668 3.29099 3.7857 1.55124 1.37785 10.3238 2.41913 7.9047 1.54142 1.17132 2.65824 6.38222 5.73645 1.63117 4.10528 0.877706 0.892369 3.48499
internal_count=11141 1617 1227 1221 390 181 209 165 1212 524 199 186 145 80 65 159 152 688 148 540 60 48 56 525 496 175 321 88 40 309
cat_boundaries=0 8
cat_threshold=8388609 0 268468804 2048 67371016 0 210239490 66065
is_linear=0
shrinkage=0.05


Tree=8
num_leaves=31
num_cat=2
split_feature=1 4 0 1 35 7 36 8 45 2 36 0 4 7 15 23 14 14 46 32 0 40 46 36 7 0 0 35 7 17
split_gain=39.6878 9.29206 5.29013 4.92363 4.99343 4.27923 4.30979 4.18333 5.40775 3.74707 3.1664 3.08152 3.62562 4.68559 4.22662 3.16663 1.91969 1.48773 1.46123 0.886427 1.06758 0.662034 0.348431 0.105141 0.00651694 0.00225381 0.00183168 0.0003711 0.000153211 0.000150006
threshold=3.5000000000000004 0 7000.2500000000009 1.5000000000000002 -1.1701475477171884e-17 100.47356620444025 0.00011529592621060725 70537.500000000015 -4.9462240161386932e-22 1.0000000180025095e-35 0.023904688700999235 985000.00000000012 1 2.094926571745297 -1.4484186343943819e-29 3.5000000000000004 -0.018532343651461596 0.12099850302569055 -0.19503436019084688 0.19690313520421635 341289.50000000006 284814.9276647204 -0.44430866103942385 0.00034588777863182174 9.7380655702020338 154901.50000000003 104823.50000000001 -1.1701475477171884e-17 1.5570356907153045 5.7630883205223854e-20
decision_type=2 9 2 2 2 2 2 2 2 2 2 2 9 2 2 2 2 2 2 2 2 2 2 2 2 2 2 2 2 2
left_child=1 2 9 7 -5 6 -3 21 -9 -1 16 12 13 -8 -15 19 -6 -16 -10 20 23 -4 -18 -14 26 -24 28 -26 -25 -30
right_child=-2 5 3 4 10 -7 11 8 18 -11 -12 -13 15 14 17 -17 22 -19 -20 -21 -22 -23 25 24 27 -27 -28 -29 29 -31
leaf_value=0.17807714134411748 -0.050187206738628122 0.123354384471557 0.013185615546189021 0.11443643988494479 0.056487539750824545 0.1309458768258184 -0.050332746110959226 0.23899464122617303 0.071211725255195771 -0.050500148188819732 0.06688940398099473 -0.12373690505983366 -0.074782692801752912 0.1707597808514931 0.091133161494573053 0.10065537432360779 -0.1158323962230383 0.011558501708425073 0.13902798276284969 0.019077352983430981 -0.10626412302978144 0.080514816013375956 -0.050807019837500855 -0.050300802673384631 -0.055557599002219626 -0.056267180685184305 -0.053450154611623849 -0.053980785527180233 -0.050440894333207531 -0.05153864875812441
leaf_weight=0.21432106848806043 35.393695357255638 0.5135439080186196 0.6742279389873127 2.1338286944665001 0.39624866913072665 0.49351877626031715 0.95001750625669945 1.1774606166873125 1.2303252140991388 1.0970458004157988 1.422536826925352 0.73554270109161812 0.54127302905543917 0.86361835477873716 0.9572528465650979 0.32853104732930738 0.32118834438733634 1.5201345994137225 2.2413416153285657 0.36016060248948623 1.1238596728071568 0.79631357849575579 0.35632614931092033 2.8421277257148176 0.63686473667621613 0.40244960598647594 0.60549592459574331 0.90108020952902712 0.65114598488435127 0.59607798000797629
leaf_count=12 9524 9 28 35 6 6 192 26 26 183 39 6 24 19 16 25 12 35 35 9 11 12 36 598 8 10 27 36 100 36
internal_value=-0.0153271 0.0302288 0.0454143 0.0930221 0.0563868 -0.00818262 -0.0188354 0.12315 0.146399 -0.013143 0.0136553 -0.0241994 -0.018514 0.014307 0.07551 -0.0238278 -0.0376433 0.0423058 0.114995 -0.0576341 -0.0611323 0.0496451 -0.0721807 -0.0536446 -0.0518089 -0.0537031 -0.0508836 -0.0546337 -0.0505035 -0.0509655
internal_weight=62.4776 27.0839 12.4636 11.1522 5.03258 14.6202 14.1267 6.11967 4.64913 1.31137 2.89875 13.6132 12.8776 4.29102 3.34101 8.58662 1.47621 2.47739 3.47167 8.25809 7.89793 1.47054 1.07996 6.77407 6.23279 0.758776 4.69485 1.53794 4.08935 1.24722
internal_count=11141 1617 460 265 138 1157 1151 127 87 195 103 1142 1136 262 70 874 64 51 61 849 840 40 58 829 805 46 761 44 734 136
cat_boundaries=0 8 16
cat_threshold=8388609 0 268468804 2048 67371016 4194304 210239490 66065 262144 1082130432 0 131328 32 256 256 132
is_linear=0
shrinkage=0.05


Tree=9
num_leaves=31
num_cat=1
split_feature=1 4 0 1 35 7 36 8 45 2 36 0 35 23 30 14 25 25 7 14 46 43 21 21 46 0 14 7 0 0
split_gain=37.1914 11.2818 4.83993 4.7235 4.23524 4.05188 4.14315 3.72347 3.15635 3.08653 2.90711 2.31436 2.76004 2.62332 2.06579 2.46088 2.05429 1.94663 1.84381 1.79164 1.56336 0.723043 0.702664 0.589894 0.296101 0.193804 0.109801 0.00413249 0.00175783 0.00149816
threshold=3.5000000000000004 0 7000.2500000000009 1.5000000000000002 -1.1701475477171884e-17 100.47356620444025 0.00011529592621060725 70537.500000000015 -4.9462240161386932e-22 1.0000000180025095e-35 0.023904688700999235 985000.00000000012 -0.0003224999112856656 3.5000000000000004 0.048923904688701003 -0.04992431081974389 15013.000000000002 9004.0000000000018 7.7849001815602952 -0.018532343651461596 -0.19503436019084688 -1.110321574081687e-13 3.603070358280537 2.2506092906419579 -0.44430866103942385 423185.00000000006 0.093230423131969511 13.29564695011962 154901.50000000003 169052.00000000003
decision_type=2 9 2 2 2 2 2 2 2 2 2 2 2 2 2 2 2 2 2 2 2 2 2 2 2 2 2 2 2 2
left_child=1 2 9 7 -5 6 -3 21 -9 -1 19 12 16 14 15 -14 17 26 29 -6 -10 -4 23 25 -21 27 -8 -16 -26 -17
right_child=-2 5 3 4 10 -7 11 8 20 -11 -12 -13 13 -15 22 18 -18 -19 -20 24 -22 -23 -24 -25 28 -27 -28 -29 -30 -31
leaf_value=0.14591405534112431 -0.050178044904035074 0.11130576156822417 0.087942753309299307 0.10459572682499861 0.054938392021160791 0.11764926446810137 0.025408429645794678 0.19555578921911856 0.065720798251872103 -0.050475936437837654 0.063313785426761138 -0.11535746066345948 0.092023394895349775 0.10563570412089335 -0.050795761163680335 -0.050594294153424514 -0.051946014853336789 0.11158928359414089 0.027212487705489674 -0.11100964931486557 0.13387500923072698 0.017264333470024283 -0.090427655295897677 0.014431102974872163 -0.050767602037417758 -0.091888337653418417 -0.01371810565100807 -0.054673467480236007 -0.055639819688312379 -0.054647398549742099
leaf_weight=0.24749153945594926 33.673517028801143 0.53993967315182168 0.61610897816717625 2.2156192539259778 0.38728147163055737 0.52105912519618947 0.27945558866485709 1.5612769694998858 1.2655110941268501 1.0440301748458294 1.4275989974848924 0.74913701554760415 0.48950702673755575 0.31755153229460198 2.7792707018088554 2.2531269683968249 0.60650877025909711 0.79210749315097928 1.0772245512343941 0.31845593685284135 2.5108353118412201 0.87682708934880593 1.4035943108610807 0.33086951635777939 0.33920445595868298 0.32748276740312565 0.50035660481080413 0.91270295227877785 0.40754782035946846 0.25366144534200419
leaf_count=12 9524 9 8 35 6 6 14 27 26 183 39 6 11 22 461 401 90 20 32 12 36 32 17 13 36 2 28 17 12 4
internal_value=-0.0149991 0.0283114 0.0450309 0.0890559 0.0526246 -0.011236 -0.0244237 0.116234 0.135758 -0.0128421 0.0126438 -0.0300298 -0.0248427 -0.0358077 -0.0403781 -0.0131329 0.0262215 0.0563816 -0.0274953 -0.037158 0.111035 0.0464321 -0.0596666 -0.0497418 -0.0706417 -0.0550243 0.000303384 -0.0517544 -0.0534267 -0.0510044
internal_weight=61.0249 27.3513 13.2178 11.9263 5.09571 14.1336 13.6125 6.83056 5.33762 1.29152 2.88009 13.0726 12.3234 10.145 9.82744 4.07352 2.17843 1.57192 3.58401 1.45249 3.77635 1.49294 5.75392 4.35033 1.06521 4.01946 0.779812 3.69197 0.746752 2.50679
internal_count=11141 1617 464 269 140 1153 1147 129 89 195 105 1138 1132 980 958 448 152 62 437 66 62 40 510 493 60 480 42 478 48 405
cat_boundaries=0 8
cat_threshold=8388609 0 268468804 2048 67371048 4194304 210239746 66065
is_linear=0
shrinkage=0.05


Tree=10
num_leaves=31
num_cat=1
split_feature=1 4 0 46 46 0 7 36 2 14 41 45 20 23 36 32 39 0 43 7 0 10 24 7 0 7 7 14 0 42
split_gain=34.9325 9.94615 4.44257 4.07711 5.82086 3.6831 3.56605 3.67725 3.05562 3.11726 3.05287 2.95335 2.03916 5.45957 4.33199 4.7169 1.79236 2.93774 1.33753 0.91873 0.806767 0.444696 0.327624 0.00227348 0.00203767 0.00151279 0.00055949 0.000392767 0.000304614 8.75492e-05
threshold=3.5000000000000004 0 34400.000000000007 -0.25110262603062622 -0.27812439677058237 563000.00000000012 100.47356620444025 0.00011529592621060725 2.5000000000000004 0.23886310241469993 4030.4350616591014 6.6988682350385592e-20 15723.872518286313 3.5000000000000004 0.043428132205995396 -0.077895562881074062 -1.5881439145143316e-30 199800.00000000003 -8.7795074923418014e-23 15.057825330543606 199800.00000000003 -2.1920093485868681e-05 48.500000000000007 15.948051901256425 104823.50000000001 9.7380655702020338 1.8782297936030519 0.24616851882890098 152250.00000000003 -6.5973620125013129e-32
decision_type=2 9 2 2 2 2 2 2 2 2 2 2 2 2 2 2 2 2 2 2 2 2 2 2 2 2 2 2 2 2
left_child=1 2 3 4 8 10 7 -3 9 -1 18 -12 14 19 16 22 20 23 -4 24 21 -9 -16 28 -14 -23 -10 -26 29 -18
right_child=-2 6 5 -5 -6 -7 -8 12 26 -11 11 -13 13 -15 15 -17 17 -19 -20 -21 -22 25 -24 -25 27 -27 -28 -29 -30 -31
leaf_value=-0.050376159908351648 -0.05016933226785425 0.10139488294875183 0.097223516674811911 -0.050653047649812245 0.26473080161219803 0.018694682542316189 0.10680004323060997 0.028640327154142744 -0.050434261148338835 0.13797424512815804 0.157736807012128 0.076381435425553645 -0.050408948297581996 0.21069429440808715 0.15574986190542317 -0.053409956009895412 -0.05174943613738358 0.042880094509053383 0.038853727657190307 -0.10259380817981728 -0.099786371325393683 -0.050745298274536811 0.099260163668735385 -0.054514318549772317 -0.051741715060781263 -0.054429687851648402 -0.053278953552758107 -0.053831115743945973 -0.053096111645672017 -0.050343365571125148
leaf_weight=0.31026705563999735 32.03666269313544 0.56245630700141269 2.0188727993518119 1.2134693008847532 0.30954340077005271 1.5830458202399302 0.54463612940162498 0.19808050850406278 0.38041220908053208 0.75235457811504602 3.0741057295817882 1.7508973786607382 3.3231397953350097 0.19092271244153369 0.44505782704800345 0.59062759042717505 0.12914533866569367 1.4918523970991371 1.9099458199925701 1.0806491770781574 1.0125884190201757 0.53765937150456033 0.60638032318092883 0.73045369680039574 0.36415697145275761 0.57823058404028416 0.3167830822058022 0.58826115354895592 0.13428850728087127 0.77544528315774974
leaf_count=53 9524 9 19 178 11 16 6 12 60 20 39 26 674 15 15 30 10 12 34 10 5 95 25 16 35 13 8 14 4 153
internal_value=-0.0146838 0.0266501 0.0419697 0.0221125 0.0647821 0.0888781 -0.0108162 -0.0237269 0.0296121 0.0829792 0.10157 0.128215 -0.0292349 -0.0520389 -0.0117383 0.0596576 -0.0327194 -0.00880089 0.0688478 -0.061404 -0.0662463 -0.0403993 0.123171 -0.0523769 -0.0509933 -0.0526545 -0.0517268 -0.0530322 -0.050874 -0.0505441
internal_weight=59.5404 27.5037 13.6197 3.28283 2.06936 10.3369 13.884 13.3394 1.75982 1.06262 8.75382 4.825 12.7769 5.54713 7.22981 1.64207 5.58774 3.26119 3.92882 5.35621 2.32656 1.31397 1.05144 1.76933 4.27556 1.11589 0.697195 0.952418 1.03888 0.904591
internal_count=11141 1617 464 330 152 134 1153 1147 141 73 118 65 1138 748 390 70 320 195 53 733 125 120 40 183 723 108 68 49 167 163
cat_boundaries=0 8
cat_threshold=8388609 0 268468804 2048 67371048 4194304 210239746 66065
is_linear=0
shrinkage=0.05


Tree=11
num_leaves=31
num_cat=1
split_feature=1 4 20 2 23 8 8 24 13 0 20 8 21 0 14 46 0 8 46 21 17 7 9 35 36 0 7 7 14 36
split_gain=32.8317 7.18176 4.28133 4.27073 4.77134 3.82049 3.67738 3.56892 3.20336 6.72276 3.85357 3.3643 3.21994 2.50507 2.34295 2.02005 1.95955 1.85109 1.56487 2.87693 1.88752 1.07905 0.559193 0.460318 0.101903 0.00288496 0.00195343 0.0015559 0.00114293 0.000581662
threshold=3.5000000000000004 0 10001.515151515154 20.500000000000004 3.5000000000000004 81740.000000000015 146086.50000000003 16.500000000000004 3.5129208110441879e-21 299000.00000000006 4960.6191026827028 1881344.0000000002 0.0010230619721558331 59150.000000000007 -0.032351600926275446 -0.23403409824353597 191000.00000000003 3474548.5000000005 -0.73313262267056312 0.20482401685714627 -3.8401771153506649e-23 15.057825330543606 -7.29177365805575e-05 -0.0081864918941343592 0.00049961568024596472 104823.50000000001 17.49470054320096 15.948051901256425 0.24179465191799152 0.011260568793235974
decision_type=2 9 2 2 2 2 2 2 2 2 2 2 2 2 2 2 2 2 2 2 2 2 2 2 2 2 2 2 2 2
left_child=1 8 5 4 17 23 22 29 10 26 -1 16 -13 14 -9 -8 18 21 -12 20 -20 25 -5 -3 -25 -4 -10 -26 -27 -7
right_child=-2 2 3 6 -6 7 15 13 9 -11 11 12 -14 -15 -16 -17 -18 -19 19 -21 -22 -23 -24 24 27 28 -28 -29 -30 -31
leaf_value=-0.054871158725057489 -0.050161044683852088 0.013251549443461963 -0.050463842660610693 0.057514225063799045 0.18264063921531365 -0.052846658625807452 0.19458026805004519 0.12870635261291072 -0.051011704789421679 0.11293375879310717 0.16615581274454128 0.10840692890217428 -0.049292258685484501 0.083326071393912918 -0.051412284744460149 0.040286705159610831 0.070004125273238405 0.040141296431588598 0.11447172282886267 0.12690279899771381 -0.0518603863453879 -0.09566164105750119 -0.050511506594738124 -0.088423343384087166 -0.050483338344873674 -0.051175527045586436 -0.056467300349904881 -0.054336041281625364 -0.054357778656037317 -0.055531547734148479
leaf_weight=0.46962681459262867 30.479123148135841 0.261196226812899 3.4449445814825577 0.14192437171004713 0.21320464368909586 0.41591734858229745 0.39035947364754975 0.23756356537342027 1.2054085447452956 1.1147260309662668 1.4716625080909556 0.56598141556605674 0.75612060143612325 3.0602720605675131 0.75223538419231806 0.46462046355009079 2.7021093429066241 0.45486214943230141 0.2845599101856332 2.9392711031250656 0.42574590863660244 1.9247629048768429 0.76838929974473991 0.24571478366852062 0.4428864764049647 0.42945532291196264 0.18993271142244328 0.64181084139272571 0.8226513247936964 0.3917056773789227
leaf_count=15 9524 10 691 2 10 27 17 1 155 16 17 15 29 25 92 34 20 21 6 37 43 15 145 1 85 41 2 14 18 13
internal_value=-0.0143776 0.0250963 -0.00689174 -0.0335105 -0.0504079 0.0197964 0.0362684 0.0418245 0.0392844 0.021384 0.0848144 0.0919874 0.0182175 0.0609624 -0.00818166 0.110733 0.104454 -0.0574291 0.122631 0.10508 0.0147749 -0.0641314 -0.0336695 -0.0474347 -0.0593491 -0.0512109 -0.0517543 -0.052763 -0.0532663 -0.0541489
internal_weight=58.1087 27.6296 15.5045 9.05517 7.28988 6.4493 1.76529 4.85769 12.1251 2.51007 9.61508 9.14545 1.3221 4.05007 0.989799 0.85498 7.82335 7.07668 5.12124 3.64958 0.710306 6.62181 0.910314 1.59161 1.33041 4.69705 1.39534 1.0847 1.25211 0.807623
internal_count=11141 1617 1262 994 796 268 198 158 355 173 182 167 44 118 93 51 123 786 103 86 49 765 147 110 100 750 157 99 59 40
cat_boundaries=0 8
cat_threshold=8388609 0 268468804 0 262184 0 76022018 66065
is_linear=0
shrinkage=0.05


Tree=12
num_leaves=31
num_cat=1
split_feature=1 4 46 8 41 40 35 2 20 7 41 39 40 21 1 41 42 2 25 7 35 39 0 35 2 46 7 0 36 7
split_gain=30.9305 6.58871 3.67951 4.58708 3.94781 4.18239 4.54407 3.042 3.78173 2.87919 3.64972 3.64701 2.92607 2.25973 2.14041 1.61191 1.28751 1.24252 0.941848 0.893745 0.706459 0.695683 0.698244 0.581986 0.459175 0.419243 0.366526 0.285031 0.0965498 0.00243618
threshold=3.5000000000000004 0 -0.37150442748057538 73431.500000000015 2309.4010767584973 113502.0069113146 2.731778219028014e-27 20.500000000000004 8702.3626126126146 0.69217460719186552 4312.1102856391144 -2.4713622002069664e-21 762498.14435286017 0.77392926091335557 1.5000000000000002 1773.8242708170358 -2.2144358882006178e-08 3.5000000000000004 7362.5000000000009 15.948051901256425 -1.0231009285557687e-23 -1.9331009002751889e-23 299000.00000000006 -3.4623598179543748e-18 27.500000000000004 -0.35579031865258243 19.569904887622982 341289.50000000006 0.0004227517294388932 9.7380655702020338
decision_type=2 9 2 2 2 2 2 2 2 2 2 2 2 2 2 2 2 2 2 2 2 2 2 2 2 2 2 2 2 2
left_child=1 9 21 25 5 24 15 8 16 12 11 -11 -1 -9 -12 17 -6 -7 19 -10 -13 27 -23 -16 -5 -4 -20 -3 -27 -30
right_child=-2 2 3 4 7 6 -8 13 18 10 14 20 -14 -15 23 -17 -18 -19 26 -21 -22 22 -24 -25 -26 28 -28 -29 29 -31
leaf_value=-0.050525760084959306 -0.050153162936809936 -0.052394632277183495 0.010630337735634298 -0.053099682492645517 0.11611924935498973 0.080780341586526513 0.20389331717484283 -0.050461316926642921 -0.051480988755180736 0.084614014914477106 0.13327241808176932 -0.037180058667700931 0.085495926728494931 0.1010662857355575 0.097379458879834721 0.10351774279638391 0.0077513431276454939 -0.05299077609490678 -0.05132115877822413 0.063847005015171446 0.023769330022482431 -0.051643450448045615 0.013437355594650825 0.051931240990452543 0.031603259156262407 -0.084130113540057824 -0.091716281113968512 -0.092669656368577269 -0.050455673961877584 -0.053644878570888767
leaf_weight=0.93046910455450305 28.99707989487797 0.75435399031266603 0.27101934445090625 0.58487235545180594 0.49754320876672864 0.28541030245833121 0.74405793473124493 0.3271476808004079 0.36410571471788022 2.4486723244190216 3.0978257716633379 0.98137291008606531 0.68751237913966179 0.99247269565239549 1.3198395310901108 0.75969030847772956 0.61027549928985514 0.44306027237325907 1.6965166893787684 0.31188860535621643 0.9221944173332286 1.4529415827710175 0.57533410540781904 1.5106139390263704 0.22025460097938776 0.24986289325170519 0.83938349131494749 1.0518436059355734 1.6769446176476779 0.9313816891517489
leaf_count=149 9524 74 12 57 4 9 22 62 46 26 35 18 32 25 11 6 37 37 239 2 24 209 12 38 12 3 7 5 374 30
internal_value=-0.0141121 0.0238373 -0.0065431 0.00309461 0.0218113 0.0677669 0.103004 -0.00294036 -0.0232374 0.0376382 0.0790284 0.0442587 0.00727255 0.063501 0.104554 0.0525608 0.0564215 -0.000580073 -0.0507127 0.00172876 -0.00765277 -0.0532803 -0.0331828 0.0731237 -0.0299279 -0.0488031 -0.064692 -0.0758489 -0.0544387 -0.0515945
internal_weight=56.5359 27.5389 15.6404 11.8059 8.67668 3.03735 2.23222 5.63933 4.31971 11.8985 10.2805 4.35224 1.61798 1.31962 5.92828 1.48816 1.10782 0.728471 3.21189 0.675994 1.90357 3.83447 2.02828 2.83045 0.805127 3.12921 2.5359 1.8062 2.85819 2.60833
internal_count=11141 1617 1284 984 565 143 74 422 335 333 152 68 181 87 84 52 41 46 294 48 42 300 221 49 69 419 246 79 407 404
cat_boundaries=0 8
cat_threshold=8388609 0 268468804 0 262184 0 210239746 65553
is_linear=0
shrinkage=0.05


Tree=13
num_leaves=31
num_cat=1
split_feature=1 4 46 8 41 24 32 40 19 0 41 39 25 26 41 1 10 14 2 36 39 0 7 0 24 36 7 7 7 31
split_gain=29.1602 5.84298 3.42641 4.27248 3.94765 3.58817 3.68292 3.18526 2.89443 2.6011 3.73229 2.85501 2.56365 2.8601 2.17094 1.45377 0.947585 0.879082 0.662114 0.661775 0.634147 0.672938 0.259885 0.22996 0.102165 0.0796743 0.0022136 0.00130459 0.00130037 0.000749492
threshold=3.5000000000000004 0 -0.37150442748057538 81740.000000000015 7600.7700243312001 16.500000000000004 -0.11187143946301024 30394.920370402553 -0.0023703001955535396 34400.000000000007 4312.1102856391144 -2.4713622002069664e-21 2988.5000000000005 1.159178743798621e-16 1.0000000180025095e-35 1.5000000000000002 1.0000000180025095e-35 -0.043394919833414487 34.500000000000007 0.00049961568024596472 -1.9331009002751889e-23 299000.00000000006 37.69184365682333 341289.50000000006 82.500000000000014 0.0004227517294388932 7.3619631797960032 17.49470054320096 17.49470054320096 -2.8241079559820661e-10
decision_type=2 9 2 2 2 2 2 2 2 2 2 2 2 2 2 2 2 2 2 2 2 2 2 2 2 2 2 2 2 2
left_child=1 9 20 18 5 -5 -7 -6 -9 12 11 -11 -1 29 -8 -12 -16 -10 25 -19 23 28 -21 27 -20 -4 -27 -3 -22 -14
right_child=-2 2 3 4 7 6 14 8 17 10 15 -13 13 -15 16 -17 -18 19 24 22 21 -23 -24 -25 -26 26 -28 -29 -30 -31
leaf_value=0.11338186434120133 -0.050145675609523779 -0.051010574267569997 -0.081436669705483314 -0.067784259813410713 0.1651142990817672 -0.050686918293781982 0.14193217381546006 0.13094253589210411 0.05314700301778727 0.078924028967300303 0.12775647941521726 -0.0059043030921596502 -0.054285827228612187 0.073625570248459865 0.084292855944801265 0.076566145999756571 0.022385535796700346 0.03677994685225993 0.035926259723811214 -0.051256666094644493 -0.050685055656406297 0.012756706549754497 -0.089549502553303739 -0.089057009354460814 -0.0098839421424817761 -0.050461029854179301 -0.053461341335296425 -0.0558464475828803 -0.054228075006139256 -0.050625656184927648
leaf_weight=0.57141317590139751 27.586891832761467 0.52974754129536483 0.24533446785062896 0.56100510177202334 0.21983212837949428 0.57862061704508949 1.1523234287742528 0.25214364309795101 0.20949337678030033 2.1437006853520875 2.8754067067056894 1.8460858138278107 0.15958876814693157 0.71408723504282523 1.5330681111663582 2.6793132987804711 1.0357139201369134 0.19043001066893639 0.19320963392965484 1.9737019415479156 1.0391000022646029 0.57572013023309399 0.57134964689612378 1.0400761701166628 0.32887135073542595 1.586139982333407 1.0038282142486421 0.18930036993697286 0.34494963847100724 1.1315737827681012
leaf_count=24 9524 71 3 27 9 109 22 8 7 16 24 35 6 30 27 37 36 9 9 278 203 12 4 5 32 367 37 3 6 161
internal_value=-0.0138331 0.0226273 -0.00633084 0.00289961 0.0221958 0.0511461 0.0666635 -0.018987 -0.0316457 0.0353598 0.0765662 0.0396737 0.0199533 -0.00666999 0.0849112 0.103065 0.0593323 -0.0455663 -0.0446755 -0.0531261 -0.052233 -0.0326714 -0.0598532 -0.0740258 0.00706931 -0.0542036 -0.0516239 -0.0522837 -0.0515681 -0.0510781
internal_weight=55.062 27.4751 15.354 11.6351 8.27768 4.86073 4.29973 3.41695 3.19712 12.1212 9.54451 3.98979 2.57666 2.00525 3.72111 5.55472 2.56878 2.94497 3.35738 2.73548 3.71889 1.95977 2.54505 1.75912 0.522081 2.8353 2.58997 0.719048 1.38405 1.29116
internal_count=11141 1617 1284 984 536 221 194 315 306 333 112 51 221 197 85 61 63 298 448 291 300 221 282 79 41 407 404 74 209 167
cat_boundaries=0 8
cat_threshold=8388609 0 268468804 0 262184 0 210239746 65553
is_linear=0
shrinkage=0.05


Tree=14
num_leaves=31
num_cat=1
split_feature=1 4 8 24 24 41 0 41 20 2 0 7 20 20 39 13 0 40 0 20 21 21 32 14 18 7 32 0 7 7
split_gain=27.521 5.5607 2.88207 3.58171 5.2295 2.80441 2.75669 3.66347 2.64906 3.70147 2.60948 2.09733 2.09671 4.01214 1.99567 1.4212 2.39869 0.941571 1.50875 0.923622 0.421618 0.526333 0.432376 0.367841 0.354533 0.207014 0.111656 0.085579 0.00159912 0.00158519
threshold=3.5000000000000004 0 73431.500000000015 22.500000000000004 27.500000000000004 1.0000000180025095e-35 34400.000000000007 4312.1102856391144 14518.813750000001 63.500000000000007 39895.000000000007 47.95246120870128 16251.315789473685 27679.769230769234 -2.4713622002069664e-21 -1.8334773660326479e-18 1310.0000000000002 80848.032738391543 299000.00000000006 22037.500000000004 3.603070358280537 2.2506092906419579 0.1814518239937272 0.032719009785307861 0.013643650511298636 37.69184365682333 0.076813425336531752 423185.00000000006 5.3265000627497292 15.057825330543606
decision_type=2 9 2 2 2 2 2 2 2 2 2 2 2 2 2 2 2 2 2 2 2 2 2 2 2 2 2 2 2 2
left_child=1 6 24 11 5 -5 12 14 10 23 -6 20 -1 15 -8 -14 -17 -7 -19 -9 21 22 27 -10 26 28 29 -4 -25 -3
right_child=-2 2 3 4 8 17 7 19 9 -11 -12 -13 13 -15 -16 16 -18 18 -20 -21 -22 -23 -24 25 -26 -27 -28 -29 -30 -31
leaf_value=-0.05149964601671591 -0.05013854862416265 -0.050497524174477115 -0.051695768735664532 0.18358490403013381 -0.050928931688758762 0.10576033534179513 0.072033948862785635 0.11756646369815756 0.014781218671931148 0.15713634089339096 0.063568607646561151 0.060888149751409985 0.14762567301828908 -0.050687809092108564 0.0045559959278309364 0.16783961194501254 -0.05043363374929212 -0.05159725165000182 0.083939299103111639 0.076523880667473093 -0.079467407399815865 0.030452996661672168 0.011495433175408449 -0.050779992848708336 -0.0019403279374350154 -0.08621612313908722 -0.073305325753378753 -0.083460775929671979 -0.054341969280132796 -0.053524812559508909
leaf_weight=0.81878860830329303 26.245097476989031 1.8312144947703966 1.8093637085985395 0.58639559126459051 0.67844229307957027 0.50999188888818003 2.1753932638093829 3.065111621748656 0.17755243903957385 0.22444643639028061 1.867133126594126 0.47799209947697807 0.67657838249579072 0.70249161054380227 2.2077711143065226 0.21134998020715989 0.31119750835932791 0.39253520872443914 0.43052279949188232 2.4797625564970076 0.93720704619772721 0.23855014657601703 0.27365297055803228 1.4057806746568533 0.32908004103228439 0.56614187802188087 0.75106796040199686 0.24018239974975575 0.40612053335644294 0.56611140188761044
leaf_count=88 9524 434 235 10 115 3 16 25 16 2 25 8 8 93 38 3 51 42 2 36 12 3 12 262 29 5 18 1 10 15
internal_value=-0.0135634 0.0215368 -0.00687355 0.000774853 0.0217032 0.0924613 0.0335016 0.0722072 -0.0037993 -0.0375434 0.0330529 -0.0373516 0.015396 0.0441996 0.0380457 0.099788 0.0378493 0.0523769 0.0192988 0.0992115 -0.0507721 -0.040274 -0.0475364 -0.0546413 -0.0513213 -0.0598246 -0.0564828 -0.0554182 -0.0515784 -0.0512124
internal_weight=53.593 27.3479 14.6995 11.222 7.24506 1.91945 12.6484 9.92804 5.32562 2.78004 2.54558 3.97695 2.72041 1.90162 4.38316 1.19913 0.522547 1.33305 0.823058 5.54487 3.49896 2.56175 2.3232 2.5556 3.47747 2.37804 3.14839 2.04955 1.8119 2.39733
internal_count=11141 1617 1259 763 492 57 358 115 435 295 140 271 243 155 54 62 54 47 44 61 263 251 248 293 496 277 467 236 272 449
cat_boundaries=0 8
cat_threshold=8388609 0 268468804 2048 67371048 0 76022018 65553
is_linear=0
shrinkage=0.05


Tree=15
num_leaves=31
num_cat=1
split_feature=1 4 8 24 24 20 2 0 41 0 41 7 20 20 39 13 0 21 14 8 32 14 18 0 7 32 14 7 7 7
split_gain=26.0036 4.96824 2.72229 3.30257 4.63637 2.43889 3.2449 2.39407 3.23663 2.35421 2.10842 1.9493 1.92408 3.52601 1.75969 1.14608 2.0256 0.852669 1.47547 0.812058 0.407248 0.387884 0.35039 0.216004 0.17239 0.0961765 0.0193211 0.00137931 0.00135847 0.000858424
threshold=3.5000000000000004 0 73431.500000000015 22.500000000000004 27.500000000000004 14518.813750000001 63.500000000000007 34400.000000000007 4312.1102856391144 39895.000000000007 1.0000000180025095e-35 47.95246120870128 16251.315789473685 27679.769230769234 -2.4713622002069664e-21 -1.8334773660326479e-18 1310.0000000000002 2.7734543480751399 -0.0059852110349288496 84849.000000000015 0.11542442203550164 0.029519624473701451 0.013643650511298636 341289.50000000006 37.69184365682333 0.076813425336531752 0.17757274604144588 5.3265000627497292 15.057825330543606 17.49470054320096
decision_type=2 9 2 2 2 2 2 2 2 2 2 2 2 2 2 2 2 2 2 2 2 2 2 2 2 2 2 2 2 2
left_child=1 7 22 11 10 9 21 12 14 -6 -5 20 -1 15 -9 -14 -17 18 -12 -10 23 -7 25 29 27 28 -22 -23 -3 -4
right_child=-2 2 3 4 5 6 -8 8 19 -11 17 -13 13 -15 -16 16 -18 -19 -20 -21 26 24 -24 -25 -26 -27 -28 -29 -30 -31
leaf_value=-0.051429338306631926 -0.050131773946867499 -0.050474080290020928 -0.050844065882755862 0.16187469680614525 -0.050885281080228606 0.021512103563134495 0.13744226627709122 0.067452578324066939 0.06679418971593358 0.059701151924187283 0.10420387930442575 0.058321935194755772 0.1332304812325302 -0.050654530620419282 0.0043247343261857687 0.14806869184537172 -0.050412416815306615 0.089969856544455704 -0.051491699720614861 0.1068446934686873 -0.03117547654379952 -0.050742741508657166 -0.0018441482307835445 -0.084356584024251446 -0.083471366216934101 -0.072038461146474067 -0.017659421932644172 -0.054124053917433572 -0.053343694673018027 -0.053772020100683354
leaf_weight=0.77989371982403044 24.968399436213076 1.7426937951240726 1.2935458340216421 0.63052298151887942 0.64589392510242793 0.15906578232534307 0.24323809146881092 2.2061538668349385 1.9279571096412835 1.8881228237878529 0.24959310889244068 0.47417184407822777 0.7112175147049129 0.66865862812846888 2.2094933798070979 0.22713872161693849 0.29614167241379619 0.67104882001876831 0.38982763770036388 3.6842043367214501 0.51361455651931442 1.3564765243791046 0.32893468439578999 0.72121207416057576 0.55578165780752886 0.72668251418508578 0.54493517288938165 0.38782988395541895 0.54028398636728514 0.31039944430813182
leaf_count=88 9524 434 214 10 115 14 2 16 23 25 1 8 8 93 38 3 51 3 43 38 27 264 29 3 5 18 13 10 15 6
internal_value=-0.0133248 0.0206062 -0.00665245 0.000687919 0.0207416 -0.00372478 -0.0367678 0.0317143 0.0678892 0.0315138 0.0867471 -0.0366211 0.0147141 0.041819 0.0358648 0.0919068 0.0357417 0.0506001 0.00928291 0.0930861 -0.0499258 -0.0539992 -0.0508409 -0.0616298 -0.0592213 -0.0561959 -0.0242175 -0.0514945 -0.0511532 -0.0514107
internal_weight=52.0531 27.0847 14.3739 11.0353 7.1774 5.23641 2.70239 12.7109 10.0278 2.53402 1.94099 3.85788 2.68305 1.90316 4.41565 1.2345 0.52328 1.31047 0.639421 5.61216 3.38371 2.45915 3.33859 2.32516 2.30009 3.00966 1.05855 1.74431 2.28298 1.60395
internal_count=11141 1617 1259 763 492 435 295 358 115 140 57 271 243 155 54 62 54 47 44 61 263 293 496 223 279 467 40 274 449 220
cat_boundaries=0 8
cat_threshold=8388609 0 268468804 2048 67371048 0 76022018 65553
is_linear=0
shrinkage=0.05


Tree=16
num_leaves=31
num_cat=1
split_feature=1 4 33 20 2 8 8 46 0 41 1 14 2 8 21 41 18 7 45 8 7 8 9 18 7 36 0 7 7 32
split_gain=24.587 4.61849 3.26588 2.74887 3.79063 2.17138 2.1683 2.11415 2.08713 1.87461 1.8804 1.8683 1.97304 1.47413 1.30033 1.27376 1.23567 1.23414 0.974486 0.876191 0.611342 1.95268 0.440328 0.416316 0.403609 0.0397809 0.00183688 0.000729886 0.000587958 0.000533727
threshold=3.5000000000000004 0 3.5000000000000004 10001.515151515154 20.500000000000004 81740.000000000015 146086.50000000003 -0.47452825160044315 34400.000000000007 4312.1102856391144 1.5000000000000002 0.21026106548192597 14.500000000000002 3474548.5000000005 0.16268290780376596 6710.9455256074089 2.5183231894510205e-26 1.4814814802743486 6.6988682350385592e-20 176136.00000000003 2.7272727258559626 150576.00000000003 -7.29177365805575e-05 0.013643650511298636 15.057825330543606 0.00049961568024596472 104823.50000000001 15.948051901256425 19.569904887622982 0.14255329202678738
decision_type=2 9 2 2 2 2 2 2 2 2 2 2 2 2 2 2 2 2 2 2 2 2 2 2 2 2 2 2 2 2
left_child=1 8 3 5 13 23 22 -7 11 10 -10 -1 15 24 28 -13 -16 -17 19 -11 21 -8 -6 25 26 -3 -5 -27 -9 -28
right_child=-2 2 -4 4 6 7 20 14 9 18 -12 12 -14 -15 16 17 -18 -19 -20 -21 -22 -23 -24 -25 -26 27 29 -29 -30 -31
leaf_value=-0.051052444936836298 -0.050125331322132261 -0.075773102756840724 0.18274989331363073 -0.050383523114232637 0.055075651732417408 -0.053383467553184495 0.14938408721028881 -0.050203815212177455 0.062159492985905555 0.066327302251140016 -0.002547103144009244 0.10870049350422673 -0.050763030745174333 0.037911921011992838 0.085208103561493692 -0.050791897229040796 0.021927631810119683 0.092159500774808945 0.048230128245920587 0.11219350242221637 0.12007584055392213 -0.050652793195900297 -0.050480684463047133 0.015285184752955398 -0.079667387411575155 -0.05040039991030365 -0.051991365518876342 -0.053355090551151368 -0.054574840180358186 -0.054321989718250141
leaf_weight=0.81140642962418441 23.753651107661426 0.22444324195384957 0.21022634231485504 2.6745374337770049 0.11736654723063111 0.64323702780529801 0.22444993909448385 0.16743751871399659 3.0521175744943303 1.7922617299482224 1.7761736677493898 0.82943062088452257 0.45822940976358939 0.40805854625068594 1.6286878690589222 0.33559588133357465 1.4656561377923933 0.27446131547912955 1.7007543058134613 2.4848834499716759 0.47772176563739777 0.26726727327331901 0.6244665451813487 0.24359607463702548 1.8450227084103969 0.35264148167334497 0.67143612937070407 0.51316938921809196 0.14233382046222687 0.38737114332616329
leaf_count=124 9524 1 14 669 2 39 2 48 25 18 32 22 69 21 24 38 39 5 29 25 2 44 140 9 16 85 49 14 2 10
internal_value=-0.0130858 0.019738 -0.00727986 -0.0159005 -0.035066 0.0115154 0.030559 0.0297488 0.0297086 0.0615282 0.038356 0.0124479 0.0395987 -0.0538255 0.0454573 0.0683633 0.0552349 0.0135211 0.0802441 0.0929741 0.0797928 0.0406563 -0.0337805 -0.0438106 -0.0605361 -0.0570144 -0.0510813 -0.0521517 -0.0522122 -0.052844
internal_weight=50.5581 26.8044 13.2891 13.0789 7.6977 5.3812 1.71127 4.04735 13.5153 10.8062 4.82829 2.70912 1.89772 5.98643 3.40412 1.43949 3.09434 0.610057 5.9779 4.27715 0.969439 0.491717 0.741833 1.33385 5.57837 1.09025 3.73334 0.865811 0.309771 1.05881
internal_count=11141 1617 1230 1216 955 261 190 152 387 129 57 258 134 765 113 65 63 43 72 43 48 46 142 109 744 100 728 99 50 59
cat_boundaries=0 8
cat_threshold=8388609 0 268468804 2048 67371048 0 76022018 66065
is_linear=0
shrinkage=0.05


Tree=17
num_leaves=31
num_cat=1
split_feature=1 4 33 21 36 41 21 24 30 42 1 33 24 0 26 24 41 25 20 8 0 7 0 42 14 7 7 7 0 40
split_gain=23.2557 3.62543 2.5937 2.75351 2.55225 2.26885 3.43108 2.43224 2.03438 2.65027 2.02395 4.26278 3.12516 1.43773 2.13017 1.21137 1.2456 1.03821 1.2091 0.914027 0.822138 0.27134 0.213948 0.191945 0.0553705 0.00167448 0.00136723 0.00127031 0.000845981 0.000785944
threshold=3.5000000000000004 0 3.5000000000000004 0.73832557830780787 0.054342813220599549 4240.6524446770372 1.0678383321480929 18.500000000000004 0.012182936202920833 1.0973184202689787e-20 1.5000000000000002 1.5000000000000002 40.500000000000007 39895.000000000007 1.159178743798621e-16 28.500000000000004 1625.6064677247532 6000.2150000000011 10198.333333333334 686629.50000000012 985000.00000000012 19.569904887622982 378500.00000000006 -0.0009821164055132611 -0.023196114473016047 15.948051901256425 14.128960156946892 4.5079465231705411 79944.500000000015 259053.86096881606
decision_type=2 9 2 2 2 2 2 2 2 2 2 2 2 2 2 2 2 2 2 2 2 2 2 2 2 2 2 2 2 2
left_child=1 4 3 25 10 7 -7 -5 24 17 13 12 22 14 -1 -9 -17 -10 -19 21 -20 23 27 -8 -6 -3 -11 -12 -26 -25
right_child=-2 2 -4 5 8 6 19 15 9 26 11 -13 -14 -15 -16 16 -18 18 20 -21 -22 -23 -24 29 28 -27 -28 -29 -30 -31
leaf_value=-0.05131833355846549 -0.05011920075684017 -0.050404193628017527 0.14907227660174668 -0.043920023705220336 -0.081949560794516721 0.064892757053391981 -0.0018888701307482533 0.087997834411664602 -0.022602099695094333 -0.050744070608112812 -0.050842860535944057 0.08468352952411895 0.057931561873516162 0.087256378637054904 0.089596778530837307 -0.028943387704508945 0.06368420877202205 0.097614349199064809 -0.050397083618088645 -0.0043271508245734912 0.060379772220841316 -0.073897730813997198 -0.097635250860004047 -0.051199551252155306 -0.050450092907064439 -0.053499623716974601 -0.05556278032224319 -0.054483158579325855 -0.05453338904987437 -0.054474422757446676
leaf_weight=0.50308114197104969 22.597865547053516 3.2974455248331664 0.24382384074851948 0.84602905809879159 0.23787106573581696 0.89661636599339534 0.2412113011814655 1.3040807510260495 0.36392331868410188 0.56540433457121242 0.49778073513880394 1.9660740408580748 0.84918407094664861 5.2049945825710893 0.57438825257122517 0.66326426318846621 0.801561662228778 1.3048658557236197 0.27909295912832011 1.0305442642420528 0.41884860396385193 1.4928205588366834 0.36351408949121833 0.63902359432540889 0.21088203578256015 0.50362370628863562 0.19902014266699553 0.46214235248044133 0.31831412483006716 0.25684434245340526
leaf_count=65 9524 858 14 17 1 36 14 11 19 86 49 32 26 35 8 29 14 15 76 28 3 18 7 65 47 11 4 14 6 9
internal_value=-0.0128432 0.0189005 -0.00680155 -0.0156565 0.0268369 0.00069654 -0.0227682 0.0302767 0.0110647 0.0289426 0.0584891 0.0313406 -0.0169311 0.0763737 0.0238021 0.0529472 0.021743 0.0550856 0.0692019 -0.0442406 0.0160823 -0.0598809 -0.0649667 -0.0414789 -0.0619127 -0.0508143 -0.0519986 -0.0525954 -0.0529062 -0.0521385
internal_weight=49.1341 26.5363 12.2169 11.9731 14.3194 8.172 4.55706 3.61494 3.89822 3.13116 10.4212 4.1387 2.17262 6.28246 1.07747 2.76891 1.46483 2.36673 2.00281 3.66044 0.697942 2.6299 1.32344 1.13708 0.767067 3.80107 0.764424 0.959923 0.529196 0.895868
internal_count=11141 1617 1124 1110 493 241 170 71 257 203 236 128 96 108 73 54 43 113 94 134 79 106 70 88 54 869 90 63 53 74
cat_boundaries=0 8
cat_threshold=8388609 0 268468804 2048 262184 0 76022018 65681
is_linear=0
shrinkage=0.05


Tree=18
num_leaves=31
num_cat=1
split_feature=1 4 20 2 46 8 42 36 46 8 26 41 0 25 8 40 21 42 36 25 7 8 9 18 0 7 36 21 7 0
split_gain=22.0124 4.40091 2.35217 2.72043 2.66989 2.02879 1.99968 2.41656 1.93821 1.88619 1.60231 1.99206 2.26836 2.36626 1.2902 1.26979 1.29436 0.913212 0.861727 0.739396 0.516372 1.61935 0.422013 0.411413 0.329615 0.324373 0.0274451 0.00146164 0.00142572 0.00125281
threshold=3.5000000000000004 0 10001.515151515154 20.500000000000004 2.1535883516933922 81740.000000000015 3.9559542848827543e-20 0.0056495003843197548 -0.47452825160044315 146086.50000000003 7.2788003991048384e-25 641.18409537922309 99600.000000000015 2988.5000000000005 3474548.5000000005 171007.18040623851 7.4929836876007565 4.4010323809804621e-21 0.0018831667947732515 7960.0000000000009 2.7272727258559626 150576.00000000003 -7.29177365805575e-05 0.013643650511298636 341289.50000000006 15.948051901256425 0.00049961568024596472 5.4136758460421772 14.128960156946892 104823.50000000001
decision_type=2 9 2 2 2 2 2 2 2 2 2 2 2 2 2 2 2 2 2 2 2 2 2 2 2 2 2 2 2 2
left_child=1 6 5 4 14 23 10 -8 -7 22 11 -1 13 -13 24 16 -12 19 -19 -10 21 -11 -5 26 25 29 -3 -20 -9 -4
right_child=-2 2 3 9 -6 8 7 28 17 20 15 12 -14 -15 -16 -17 -18 18 27 -21 -22 -23 -24 -25 -26 -27 -28 -29 -30 -31
leaf_value=-0.011045934351351164 -0.050113374287600702 -0.072190411198599008 -0.050495667693290391 0.054579961788236597 0.11530094219697923 -0.052938393348481751 0.056423271216556596 -0.050654617273019703 0.024267813299772241 0.12960013379398935 -0.0064446535217048545 0.079324890979672338 0.07777722509767368 -0.051491340569826717 0.036457084182081594 0.10707380379337926 0.093702562843064177 0.05852546711259822 -0.050508957490635359 0.076110490926593388 0.10828839265945951 -0.050591587513426545 -0.050499575783146816 0.016091673029918648 -0.073643855951618514 0.031383055600391063 -0.052037636755954256 -0.056427496079315624 -0.05498290698477435 -0.052591536820920083
leaf_weight=1.2635185858234743 21.498191076330841 0.21290034055710083 2.7384175227489314 0.112944888882339 0.25139340432360757 0.60861029615625728 1.1169638456776732 0.69517936790361989 1.1241362981963909 0.2397546386346221 0.61596398125402652 0.60168419452384092 4.0267066732048988 0.81247163005173206 0.39532343065366138 2.491081788437441 0.67752280831336975 0.29254062334075559 0.21523889224044979 1.7717745560221372 0.48585821688175201 0.25978357787244022 0.62039217585697748 0.24324435438029457 1.9496240071021018 0.12334026512689877 0.8181963381357491 0.20241923443973064 0.26194847514852881 0.96402171766385425
leaf_count=27 9524 1 695 2 4 41 20 112 37 2 37 11 26 83 21 23 4 3 43 32 2 46 146 9 24 3 101 3 5 54
internal_value=-0.0126182 0.0181565 -0.00716049 -0.0294698 -0.0444225 0.0128815 0.0285766 0.00646356 0.0295962 0.0264015 0.0601936 0.0455109 0.058645 0.00416735 -0.0509295 0.0862042 0.046012 0.0435257 -0.00728307 0.0559862 0.0715876 0.0358919 -0.0343158 -0.0424001 -0.0569111 -0.0483841 -0.0561988 -0.0533774 -0.0518392 -0.0510414
internal_weight=47.6911 26.193 13.6299 8.14085 6.42212 5.48906 12.563 2.07409 4.21472 1.71873 10.4889 6.70438 5.44086 1.41416 6.17073 3.78457 1.29349 3.60611 0.710199 2.89591 0.985396 0.499538 0.733337 1.27434 5.7754 3.82578 1.0311 0.417658 0.957128 3.70244
internal_count=11141 1617 1269 999 801 270 348 137 159 198 211 147 120 94 797 64 41 118 49 69 50 48 148 111 776 752 102 46 117 749
cat_boundaries=0 8
cat_threshold=8388609 0 268468804 2048 134479912 0 76022018 65553
is_linear=0
shrinkage=0.05


Tree=19
num_leaves=31
num_cat=1
split_feature=1 4 21 0 46 8 30 40 14 8 14 40 8 8 14 40 18 35 14 14 41 15 20 0 46 2 36 8 7 20
split_gain=20.8503 3.95288 2.26598 2.03355 2.2877 2.36663 1.821 2.51558 1.87431 2.5046 1.81071 1.27692 1.20596 1.0395 1.02085 0.964085 0.769244 0.761221 0.727572 0.96344 0.653233 0.615097 0.5955 0.843822 0.494192 0.131024 0.0178661 0.00749654 0.00120298 0.000468835
threshold=3.5000000000000004 0 0.73832557830780787 712500.00000000012 -0.67193198931106279 73431.500000000015 0.058186010760953116 513305.16151681211 0.17969093570839698 2561480.0000000005 0.066784184745874359 121014.45422897991 602282.00000000012 669951.00000000012 -0.084763975651976145 51055.968868554832 5.9907548784634236e-25 -1.5027156239393674e-07 0.22091927151403887 0.32564637566306304 1944.3239685049718 3.2118870120291708e-35 8108.3409090909099 248167.00000000003 -0.33288991537182161 13.500000000000002 0.0016525749423520371 1594.0000000000002 15.948051901256425 8883.0844386527679
decision_type=2 9 2 2 2 2 2 2 2 2 2 2 2 2 2 2 2 2 2 2 2 2 2 2 2 2 2 2 2 2
left_child=1 6 14 4 -4 24 7 8 9 27 -7 15 16 20 -3 -8 -12 -18 -10 -20 -13 -22 -23 -24 -6 -17 -26 -1 -16 -28
right_child=-2 2 3 -5 5 10 11 -9 18 -11 12 13 -14 -15 28 25 17 -19 19 -21 21 22 23 -25 26 -27 29 -29 -30 -31
leaf_value=-0.060935209446978202 -0.050107833115473323 0.031150951429231161 -0.062168808736407136 -0.073472674862812448 0.029434907509667287 -0.033118306754328343 0.066818087431118917 -0.032183438126034532 0.081464835727411838 0.072723180126420456 0.080516384030785926 0.019573954560766476 0.0083532255615185007 0.11896502893267427 -0.050374847344788434 -0.055284416691288564 0.074185887960655075 0.00038376111097834927 -0.019099989554678055 0.063630645999976004 0.093121766556930372 0.10440942781081586 -0.050760422365613636 0.07121012651360846 -0.067243649000440178 -0.0037704298378122545 -0.053499082100441631 -0.051396157669758594 -0.053218989877792292 -0.05107775616907563
leaf_weight=0.31824660860001841 20.451915718615055 0.42365571996197005 0.98343134042806823 0.81353778811171729 0.20310994633473445 0.89550766884349275 0.52296301675960399 1.2570808017626403 2.4120826884172857 0.6725041454192251 2.0245401985011999 0.6085191369056705 1.6143157889600841 1.3140950743108986 3.3704586409730877 0.25717840739525855 0.61896477057598409 0.8022376352455477 0.50562703888863314 1.157553741475567 1.8345030322670939 0.25617575715295959 0.27304819389246404 0.29500654339790344 0.24993871827609548 0.23735843715257943 0.32704477361403406 0.5837686974555254 0.41788434283807863 0.51431151176802814
leaf_count=4 9524 36 28 13 5 21 9 32 23 16 27 23 39 17 954 13 8 38 28 24 23 3 48 2 8 30 9 53 11 72
internal_value=-0.0124138 0.0175077 -0.0069338 0.00194052 0.00939205 0.019099 0.0272087 0.0317875 0.0460211 -0.000310731 0.0324171 0.0701572 0.0440152 0.0814104 -0.0424569 0.0194894 0.0607228 0.0325262 0.0639218 0.0384795 0.0663058 0.0770016 0.0411227 0.0125823 -0.0421775 -0.0305597 -0.0555059 -0.0547617 -0.0506886 -0.052019
internal_weight=46.2166 25.7647 13.2589 9.04694 8.2334 7.24997 12.5057 6.90686 5.64978 1.57452 5.95557 5.59885 5.06006 4.58135 4.212 1.0175 3.44574 1.4212 4.07526 1.66318 3.26725 2.65873 0.82423 0.568055 1.2944 0.494537 1.0913 0.902015 3.78834 0.841356
internal_count=11141 1617 1269 268 255 227 348 180 148 73 133 168 112 116 1001 52 73 46 75 52 99 76 53 50 94 43 89 57 965 81
cat_boundaries=0 8
cat_threshold=8388609 0 268468804 2048 134479912 0 76022018 65553
is_linear=0
shrinkage=0.05


Tree=20
num_leaves=31
num_cat=1
split_feature=1 4 21 30 46 25 40 41 21 7 14 46 8 8 31 8 41 40 0 8 35 7 7 7 20 40 7 7 36 10
split_gain=19.7538 3.29136 2.80876 2.58302 2.68972 2.25609 2.10817 2.0746 2.77557 2.03719 1.69984 1.10859 1.22221 1.03455 1.3691 0.812251 0.579434 0.564709 0.40864 0.37095 0.214215 0.0695657 0.00123879 0.000979357 0.000583506 0.000580732 9.79177e-05 3.16569e-05 3.13466e-05 1.88657e-05
threshold=3.5000000000000004 0 0.73832557830780787 0.058186010760953116 -0.26323478390435501 10382.500000000002 413254.63838304084 4240.6524446770372 1.0678383321480929 0.69217460719186552 0.14870250548492267 -0.25110262603062622 70537.500000000015 78196.000000000015 4.669688348345864e-26 686629.50000000012 1625.6064677247532 198851.75807320312 321000.00000000006 180113.00000000003 -0.00078344519987479089 19.569904887622982 15.948051901256425 8.2310799931245402 8108.3409090909099 256206.11579716668 1.5570356907153045 4.178098718675213 0.0094542659492697929 -2.7827435408754719e-17
decision_type=2 9 2 2 2 2 2 2 2 2 2 2 2 2 2 2 2 2 2 2 2 2 2 2 2 2 2 2 2 2
left_child=1 3 22 4 5 -1 23 10 -9 -6 -4 -11 -13 14 -5 20 -12 18 -15 -14 -10 25 26 27 -16 -22 -3 -7 29 -28
right_child=-2 2 7 13 9 6 -8 8 15 11 16 12 19 17 24 -17 -18 -19 -20 -21 21 -23 -24 -25 -26 -27 28 -29 -30 -31
leaf_value=-0.060330304716181317 -0.050102568526990812 -0.050210381281235443 -0.018773539342393963 0.062632310079379735 -0.05045169632103394 -0.050366304213249294 0.059043828738816667 0.05607344963157801 -0.020310022849471185 0.093850260354834195 0.027754591493751569 -0.013828461934358802 0.081113394074945902 0.030476534392463134 -0.055064436951369013 -0.0037491781254433542 0.075142909260072707 0.094495890943574593 0.082919501924104022 0.040535004336545666 -0.051008237144449922 -0.070862230075816796 -0.053171876643287978 -0.054749452472476645 -0.050543136111999731 -0.053845987400700013 -0.051041749997117795 -0.051343083440857785 -0.051236884360434359 -0.050376783517224716
leaf_weight=1.3366543510928743 19.456458328291774 2.2526251657400316 1.2296307585202142 0.90333493053913005 0.47540487186051805 0.25725793093442906 1.3454026083927599 0.91849942738190282 0.33119977812748436 1.4790856970939783 1.2287208207417282 0.76016172603704069 1.0549349973443898 0.75799860246479489 0.096785347443073988 0.98688057088293124 1.3579875242430715 2.7221634557936341 0.72841008892282844 1.2082681084284557 0.51610796828754324 1.2737135945353655 0.45645973610226054 0.24237429676577449 0.27165144169703126 0.27707802457734942 0.15998637839220464 0.12242399528622627 0.32067317864857614 0.32002227811608452
leaf_count=35 9524 761 32 22 109 53 28 36 20 8 28 34 16 36 4 28 13 36 6 28 59 17 11 5 55 9 13 8 34 73
internal_value=-0.012194 0.0168534 -0.00718735 0.0245514 0.0247703 -0.0102041 0.0238506 0.00278757 -0.0210125 0.047985 0.0296256 0.0583787 0.0410254 0.0690198 0.0295009 -0.0419294 0.0526328 0.0809619 0.0561761 0.0594496 -0.0576415 -0.0636235 -0.0507424 -0.0522664 -0.0517308 -0.0519995 -0.0503792 -0.0506813 -0.0508541 -0.0505984
internal_weight=44.8484 25.3919 11.6296 13.7623 8.28197 3.30411 1.96746 8.11982 4.30348 4.97786 3.81634 4.50245 3.02336 5.48034 1.27177 3.38498 2.58671 4.20857 1.48641 2.2632 2.3981 2.0669 3.50977 0.622056 0.368437 0.793186 3.05331 0.379682 0.800682 0.480009
internal_count=11141 1617 1134 483 324 129 94 242 169 195 73 86 78 159 81 133 41 78 42 44 105 85 892 66 59 68 881 61 120 86
cat_boundaries=0 8
cat_threshold=8388609 0 268468804 0 134479912 0 76022018 65681
is_linear=0
shrinkage=0.05


Tree=21
num_leaves=31
num_cat=1
split_feature=1 4 20 2 8 24 30 18 46 21 8 40 0 0 14 40 21 43 46 2 15 15 18 46 41 7 36 0 14 7
split_gain=18.7214 3.17202 2.75577 2.96804 1.77972 1.80932 1.62643 2.11006 1.59382 1.49356 1.25532 1.16305 1.99556 1.08866 1.26276 1.05633 0.737469 0.711664 2.1885 0.814094 0.435445 1.38864 0.36773 0.285263 0.552391 0.186814 0.0159826 0.00110313 0.00105539 0.000678126
threshold=3.5000000000000004 0 10001.515151515154 20.500000000000004 81740.000000000015 16.500000000000004 0.058186010760953116 1.4601128494030996e-23 -0.41977793384241913 0.77392926091335557 3474548.5000000005 198851.75807320312 248167.00000000003 59150.000000000007 -0.032351600926275446 277795.37315440987 1.0678383321480929 -3.2308374604673724e-18 0.049733331890611611 3.5000000000000004 3.2118870120291708e-35 4.3077965954219839e-15 0.013643650511298636 -0.24939062717014074 4312.1102856391144 15.057825330543606 0.00049961568024596472 104823.50000000001 -0.073666727811640381 14.128960156946892
decision_type=2 9 2 2 2 2 2 2 2 2 2 2 2 2 2 2 2 2 2 2 2 2 2 2 2 2 2 2 2 2
left_child=1 6 4 10 22 -6 7 8 -1 -5 25 12 28 14 -7 -13 -11 18 19 -10 -17 -22 26 -19 -25 27 -3 -4 -8 -9
right_child=-2 2 3 9 5 13 11 29 17 16 -12 15 -14 -15 -16 20 -18 23 -20 -21 21 -23 -24 24 -26 -27 -28 -29 -30 -31
leaf_value=-0.0082726615103209961 -0.050097552679974677 -0.067981867163737858 -0.050344395154984622 -0.0501968835145431 -0.052960141380081732 0.085441902901943284 -0.056117942005639576 -0.051091012838231968 0.028861981307271103 0.099534966528917593 0.036041249002333624 0.12736519884530861 0.065202319309332277 0.055645139726732143 -0.050987486807077445 0.078738205935882627 0.019061288076953106 0.081138386725367745 0.081998031955131348 -0.055891641485985882 -0.050750439042299235 0.08636705120238336 0.014961152195364723 0.011722847056754651 0.076239577735255235 -0.071589032885373258 -0.05182934016862939 -0.052379553664988636 -0.050848934959395797 -0.054337947983440618
leaf_weight=1.4776860000565646 18.509360829833895 0.1945443749427811 2.3177463130559777 0.45144855463877309 0.58310996205545951 0.24274216592311859 0.12704806122928847 0.48941886704415072 0.50757736852392532 0.54158635530620791 0.38361060433089722 0.92912624520249698 1.2844781549647448 2.9717483825515956 0.56293929135426912 1.7989422262180599 0.60019204975105822 1.5794924044748766 1.0270209480077026 0.64132744655944407 0.29853311192709941 0.48402486275881529 0.23414203291758895 0.55936319311149307 0.81542575010098517 1.6490315480623392 0.71969744807574898 0.93422222579829384 0.37719814653974026 0.239496776368469
leaf_count=34 9524 1 695 151 40 1 3 58 12 9 21 7 11 25 92 23 38 12 7 29 55 3 9 20 24 16 99 59 58 5
internal_value=-0.0119728 0.016228 -0.00659609 -0.0330279 0.0144303 0.0290146 0.0244625 0.0285762 0.0374819 0.0267921 -0.0510627 0.0649283 0.0321129 0.0416688 -0.00988295 0.0816484 0.0572328 0.0506609 0.0289617 -0.0184481 0.0651941 0.034059 -0.0409479 0.0666431 0.0499895 -0.0578805 -0.0552665 -0.0509291 -0.0521765 -0.0521578
internal_weight=43.5323 25.0229 12.3868 6.87784 5.50892 4.36054 12.6362 7.33681 6.60789 1.59323 5.28461 5.29935 1.78872 3.77743 0.805681 3.51063 1.14178 5.13021 2.17593 1.1489 2.5815 0.782558 1.14838 2.95428 1.37479 4.901 0.914242 3.25197 0.504246 0.728916
internal_count=11141 1617 1256 989 267 158 361 201 138 198 791 160 72 118 93 88 47 104 48 41 81 58 109 56 44 770 100 754 61 63
cat_boundaries=0 8
cat_threshold=8388609 0 268468804 0 134479912 0 76022018 66065
is_linear=0
shrinkage=0.05


Tree=22
num_leaves=31
num_cat=1
split_feature=1 4 21 30 46 25 40 20 2 7 8 46 8 40 24 40 8 25 7 0 2 7 41 7 7 46 14 7 26 7
split_gain=17.7505 2.8368 2.30186 2.06351 2.42314 2.02306 2.01266 1.86847 3.35808 1.79348 1.19766 0.985458 0.992769 0.886384 1.51873 0.903816 0.668896 0.646259 0.447488 1.29909 0.390666 0.0698075 0.00484517 0.00091389 0.000735553 0.000369643 0.000125139 6.94898e-05 3.16649e-05 2.68454e-05
threshold=3.5000000000000004 0 0.73832557830780787 0.058186010760953116 -0.26323478390435501 10382.500000000002 413254.63838304084 4110.854166666667 20.500000000000004 0.69217460719186552 686629.50000000012 -0.25110262603062622 70537.500000000015 198851.75807320312 40.500000000000007 277795.37315440987 146086.50000000003 6740.0000000000009 2.094926571745297 1410.0000000000002 4.5000000000000009 19.569904887622982 20998.571331376475 15.948051901256425 8.2310799931245402 0.64896975475291063 0.23649706469325263 1.5570356907153045 1.7778683908457569e-19 4.178098718675213
decision_type=2 9 2 2 2 2 2 2 2 2 2 2 2 2 2 2 2 2 2 2 2 2 2 2 2 2 2 2 2 2
left_child=1 3 23 4 5 -1 24 -4 10 -6 21 -11 -13 14 -5 -15 -10 -12 19 -17 -14 25 -16 27 29 26 -9 -3 -21 -7
right_child=-2 2 7 13 9 6 -8 8 16 11 17 12 20 15 22 18 -18 -19 -20 28 -22 -23 -24 -25 -26 -27 -28 -29 -30 -31
leaf_value=-0.058930935945922781 -0.050092784921586024 -0.050191960249905736 0.043527624696084739 -0.035159596947858633 -0.050436957080495441 -0.050341668264205434 0.056023001967361631 -0.050625610930573189 0.0021141140480673234 0.086867502974905336 0.03638819259118839 -0.013667597222963816 0.073696241449784816 0.11859880350131247 0.064741346120403512 0.10436720242206449 0.073691411077216787 -0.029737350394276899 0.072262389884201181 -0.051365966696053672 0.035266914334757961 -0.069653228453858643 0.059029052035704202 -0.052857873302973937 -0.054114983426088795 -0.053643907549654327 -0.051948049824887647 -0.050772388243315307 -0.050256592352715318 -0.051220758602258047
leaf_weight=1.3239402630133548 17.608282674103975 2.0164599977433708 1.8820382531266657 0.55480217735748683 0.46520355378743161 0.24336585332639504 1.3298402538057414 0.3799257995560773 0.48908707103691973 1.45025487546809 0.57902096351608623 0.73807223245967213 1.1591710946522655 0.9473973931744698 0.71571764862164833 0.25194429396651719 0.98124549351632595 1.0210874566109849 2.0325435705017298 0.095728701446205378 1.5398508236976338 1.3352567453403024 0.77122291806153953 0.41582602250855405 0.25866100611165166 0.20757296402007341 0.33806547266431153 0.69283753132913251 0.19605820521246642 0.13502987404353917
leaf_count=38 9524 749 21 34 115 54 28 62 36 8 9 36 16 7 23 2 17 35 23 7 35 14 18 11 6 11 24 116 53 9
internal_value=-0.0117847 0.0156946 -0.0075391 0.0222478 0.0226157 -0.0111475 0.0210161 0.000697782 -0.014422 0.0433739 -0.0389105 0.0523033 0.0377193 0.0616514 0.0354376 0.0768406 0.0498822 -0.00580892 0.0614844 0.0211949 0.0517715 -0.0623383 0.0617786 -0.0506754 -0.0520601 -0.0517855 -0.0512483 -0.0503404 -0.0506206 -0.0506554
internal_weight=42.1555 24.5472 10.3384 14.2088 8.64339 3.29084 1.9669 7.2133 5.33126 5.35255 3.86093 4.88735 3.43709 5.56541 2.04174 3.52367 1.47033 1.60011 2.57627 0.543731 2.69902 2.26082 1.48694 3.12512 0.637057 0.925564 0.717991 2.7093 0.291787 0.378396
internal_count=11141 1617 1105 512 345 135 97 229 208 210 155 95 87 167 75 92 53 44 85 62 51 111 41 876 69 97 86 865 60 63
cat_boundaries=0 8
cat_threshold=8388609 0 268468804 0 134479912 0 76022018 66193
is_linear=0
shrinkage=0.05


Tree=23
num_leaves=31
num_cat=1
split_feature=1 4 21 46 41 40 14 40 42 36 8 2 8 21 46 14 8 21 40 20 25 7 7 7 46 40 7 8 7 46
split_gain=16.8307 2.26166 2.21697 1.65085 1.81892 2.02155 1.44078 1.41833 1.39449 1.72303 1.3881 1.01171 0.937502 0.885112 1.8461 0.826275 0.755304 0.605555 0.445163 0.310112 0.124488 0.0223944 0.000705686 0.000649878 0.000286836 0.000246811 6.37738e-05 5.31678e-05 3.3445e-05 1.97884e-05
threshold=3.5000000000000004 0 0.73832557830780787 -0.47452825160044315 4240.6524446770372 113502.0069113146 0.18090857895019652 67734.406214479139 3.9559542848827543e-20 0.0056495003843197548 2261402.5000000005 24.500000000000004 686629.50000000012 0.20482401685714627 -0.78307281168197385 -0.084763975651976145 669951.00000000012 1.1792122611565434 171007.18040623851 8108.3409090909099 9975.0000000000018 19.569904887622982 14.128960156946892 15.948051901256425 -0.55413873768968203 288210.55379269022 1.5570356907153045 602282.00000000012 1.3805831868192096 -0.24161509971196302
decision_type=2 9 2 2 2 2 2 2 2 2 2 2 2 2 2 2 2 2 2 2 2 2 2 2 2 2 2 2 2 2
left_child=1 8 15 -4 5 11 7 17 10 -10 13 -5 -9 14 -1 -3 18 -6 -15 -19 -8 25 27 26 -16 -22 -17 -11 -26 -28
right_child=-2 2 3 4 6 -7 20 12 9 22 -12 -13 -14 16 24 23 -18 19 -20 -21 21 -23 -24 -25 28 -27 29 -29 -30 -31
leaf_value=0.078159964847949834 -0.050088250428146623 0.02581329741297135 -0.048791801617066803 -0.045237040460088973 0.088961390697186934 0.067584595063151245 -0.024453698653130247 -0.064060457409095994 0.043401636490940899 -0.050366203000493673 0.00076289875599878107 0.039616082312931754 0.019905792483723875 0.033356248395435585 -0.053288989150947465 -0.0501770981360464 0.090181126015858593 0.06078118303904461 0.064178799511116227 -0.0051799976765208589 -0.051241273228077193 -0.066690584966474828 -0.053912655075017982 -0.052607918605502457 -0.050358240091402773 -0.053137896725191341 -0.050852120708516593 -0.051468610926102346 -0.051333408161664089 -0.050214511608000723
leaf_weight=0.56712038069963455 16.750994185917079 0.39825764263514374 1.261733826017007 0.80708511965349161 0.55450945743359648 2.273661510553211 0.38447781745344389 0.69658654567319878 1.1313486993312825 0.46027162251994003 1.2608778052963305 0.62202049093320966 0.63590466044843197 1.7833248106762765 0.14873690367676318 2.1122383631300226 1.9373877476900814 0.28906958550214767 3.4141781651414931 0.46454614924732596 0.41339459840673931 0.41242377832531929 0.22429140424355865 0.34720883390400548 0.2484943293966333 0.29318045731633902 0.5795139983529225 0.14346120553091168 0.13607138278894126 0.15402967750560481
leaf_count=11 9524 37 35 36 8 26 20 29 20 100 35 9 13 34 5 841 16 2 31 39 42 3 5 11 54 11 80 12 7 45
internal_value=-0.0115748 0.015133 -0.00493757 0.00429195 0.0128275 0.0382947 -0.00992749 0.0123184 0.0222612 0.00328899 0.049618 -0.00830458 -0.0239893 0.057098 0.0153589 -0.0420956 0.0635355 0.0493023 0.0536032 0.0201212 -0.0489988 -0.0574323 -0.0515178 -0.0505657 -0.0514244 -0.0520282 -0.0503166 -0.0506282 -0.0507033 -0.0507182
internal_weight=40.9064 24.1554 12.6998 9.10859 7.84686 3.70277 4.14409 2.64062 11.4556 1.95937 9.49619 1.42911 1.33249 8.23531 1.10042 3.59125 7.13489 1.30813 5.1975 0.753616 1.50348 1.119 0.828024 3.19299 0.533303 0.706575 2.84578 0.603733 0.384566 0.733544
internal_count=11141 1617 1287 273 238 71 167 91 330 137 193 45 42 158 77 1014 81 49 65 41 76 56 117 977 66 53 966 112 61 125
cat_boundaries=0 8
cat_threshold=8388609 0 268468800 0 134479912 0 76022018 65553
is_linear=0
shrinkage=0.05


Tree=24
num_leaves=31
num_cat=1
split_feature=1 4 20 2 8 24 42 32 8 21 8 20 10 24 8 25 7 0 21 2 25 35 7 36 0 44 7 20 14 30
split_gain=15.9636 2.35094 2.25743 2.50955 1.5031 1.58213 1.30003 1.54291 1.19152 1.14815 1.12401 0.974854 0.865233 1.51333 0.634362 0.612141 1.00643 0.935885 0.511863 0.379028 0.27734 0.130278 0.116619 0.00896687 0.000720489 0.000644807 0.000440745 0.000403179 0.000223811 0.000200702
threshold=3.5000000000000004 0 10001.515151515154 20.500000000000004 81740.000000000015 16.500000000000004 3.9559542848827543e-20 0.018029946263346645 3474548.5000000005 0.77392926091335557 2261402.5000000005 4960.6191026827028 3.8634977120971799e-27 25.500000000000004 1482812.0000000002 3990.0000000000005 1.7900867290967604 120750.00000000001 1.0678383321480929 34.500000000000007 7004.0000000000009 -0.0061582457095704516 15.057825330543606 0.0004227517294388932 104823.50000000001 4.4190310573203697e-29 15.948051901256425 3500.2105263157896 0.24616851882890098 0.043927747886241354
decision_type=2 9 2 2 2 2 2 2 2 2 2 2 2 2 2 2 2 2 2 2 2 2 2 2 2 2 2 2 2 2
left_child=1 6 4 8 19 27 10 29 22 -5 11 -1 20 -14 15 -13 17 -17 -11 23 -7 -15 24 -3 -4 -23 -25 -6 -26 -8
right_child=-2 2 3 9 5 12 7 -9 -10 18 -12 14 13 21 -16 16 -18 -19 -20 -21 -22 25 -24 26 28 -27 -28 -29 -30 -31
leaf_value=-0.0064899875728695478 -0.050083941467446727 -0.064658761591038255 -0.050305231677178611 -0.050171653020892805 -0.054415502407491427 0.035731321781082237 -0.052020080300967608 0.033536127531130666 0.035966113423129498 0.083151309392231129 0.0047927149077634764 0.075101402992546556 0.066425429956404047 -0.009217487253524748 0.09334162663710209 -0.050645290449891148 0.052497003886408503 0.073786029938369954 0.016584699872065897 0.020637031360644393 0.072067272732451948 -0.051354963200089837 -0.067974604260852903 -0.05029832597651928 -0.051020202872898296 -0.054894937490229792 -0.052941785907367173 -0.051672874759087752 -0.052708230937532602 -0.050420510481272933
leaf_weight=0.62187256058677842 15.935375455301253 0.17531238496303714 2.0180379884550352 0.39078809949569393 0.24356921459548164 0.85327819548547346 0.35683638055343125 1.6762477890588341 0.37610934302210797 0.56232557049952425 1.3608670602552582 2.0979350619018078 0.60990903596393742 0.24725595221389074 1.122351204510778 0.49025605234783132 3.8870993265882134 0.2184457927942276 0.59368147107306868 0.20826944964937866 1.3655916793504728 0.23356072499882441 1.5182362776249645 0.24820426316000521 0.31987101538106788 0.28635209100320935 0.43234887113794684 0.29787733312696218 0.5085662396159023 0.43536074692383409
leaf_count=16 9524 1 695 151 8 32 23 33 21 9 36 19 7 9 12 89 36 1 38 10 26 38 16 84 42 6 14 32 17 96
internal_value=-0.0113676 0.0146025 -0.00600086 -0.0313823 0.0131436 0.0267748 0.0213703 0.00636072 -0.0494256 0.0239189 0.0469604 0.0537611 0.0387725 0.00763981 0.0585549 0.0527221 0.0425062 -0.0122914 0.0489652 -0.0398549 0.0580941 -0.0390955 -0.0567838 -0.0545752 -0.0508149 -0.0533047 -0.0519777 -0.0529066 -0.0520565 -0.051141
internal_weight=39.6918 23.7564 11.4891 6.28762 5.20153 4.13739 12.2673 2.46844 4.74082 1.5468 9.79883 8.43796 3.59595 1.37708 7.81609 6.69374 4.5958 0.708702 1.15601 1.06413 2.21887 0.767169 4.36471 0.855866 2.84648 0.519913 0.680553 0.541447 0.828437 0.792197
internal_count=11141 1617 1256 989 267 158 361 152 791 198 209 173 118 60 157 145 126 90 47 109 58 53 770 99 754 44 98 40 59 119
cat_boundaries=0 8
cat_threshold=8388609 0 268468804 0 134479912 0 76022018 66065
is_linear=0
shrinkage=0.05


Tree=25
num_leaves=31
num_cat=1
split_feature=1 4 21 43 30 46 25 40 7 20 30 35 46 8 8 31 21 1 45 41 25 35 7 7 7 20 7 20 40 15
split_gain=15.1448 2.00472 2.27192 1.73967 1.71143 2.00711 1.80585 1.58755 1.46612 1.37551 2.4998 0.923513 0.804886 0.887613 0.634183 1.02839 0.568723 0.375464 0.417007 0.362885 0.35635 0.0145344 0.0106641 0.0130168 0.000774386 0.000663972 0.000614069 0.000321029 0.000197194 0.000146949
threshold=3.5000000000000004 0 0.73832557830780787 2.4317446782805586e-35 0.058186010760953116 -0.26323478390435501 10382.500000000002 413254.63838304084 0.69217460719186552 4110.854166666667 0.044388931591083786 -0.0061582457095704516 -0.25110262603062622 70537.500000000015 78196.000000000015 4.669688348345864e-26 1.0678383321480929 1.5000000000000002 6.6988682350385592e-20 4312.1102856391144 7362.5000000000009 -0.0003224999112856656 23.603204588246179 17.49470054320096 8.2310799931245402 8108.3409090909099 15.948051901256425 3500.2105263157896 216152.54899454137 -2.2780673242097372e-25
decision_type=2 9 2 2 2 2 2 2 2 2 2 2 2 2 2 2 2 2 2 2 2 2 2 2 2 2 2 2 2 2
left_child=1 4 26 9 5 6 -1 24 -7 -4 16 -12 -10 -14 15 -6 -11 -16 -19 -15 -13 -5 23 28 -8 -17 -3 -23 -22 -29
right_child=-2 2 3 21 14 8 7 -9 12 10 11 20 13 19 17 25 -18 18 -20 -21 22 27 -24 -25 -26 -27 -28 29 -30 -31
leaf_value=-0.058529804606652351 -0.050079841874106336 -0.050305953320628705 0.05317544593982973 -0.066518555812194999 0.053474296279047262 -0.050426006251082511 -0.050611669065718116 0.050162627283110266 0.079959181650425107 0.079775892861933762 0.017362187702106274 -0.016557534301438744 -0.014563579324980942 0.02530763715593326 0.078681269601709222 -0.055426949400602693 0.023004971804743868 0.024490956313931774 0.074229741641684402 0.066037273827807205 -0.050718508088964921 -0.053489669442279057 -0.066718764942156297 -0.064335908255222493 -0.054465155373759289 -0.050504226027621613 -0.052495175430968155 -0.050624873391421445 -0.052876400457185016 -0.052039946879457635
leaf_weight=1.2327471657190474 15.15940746758133 2.4186122736427955 1.5696185233537105 0.19876023195683956 0.82368654315359868 0.40895390580408086 0.31613294396083791 1.2797500370070336 1.3920772941783068 0.67645942093804468 0.72992273292038534 0.62763768970035139 0.71716367581393603 0.92895343527197871 2.4043796807527542 0.099072713637724519 1.2682223840383811 0.89410016022156902 0.79706091969273984 1.3296289833961052 0.19406865385826655 0.19062507175840415 0.60658315662294626 0.41427744645625353 0.22187523636966944 0.22195956646464765 0.36921310704201449 0.45491710293572396 0.23295213363599032 0.30745866824872792
leaf_count=35 9524 881 14 3 22 109 61 28 8 10 18 12 34 21 36 4 37 32 10 23 29 5 5 4 5 55 11 76 11 18
internal_value=-0.0111722 0.0141127 -0.00611559 0.00229602 0.0196425 0.0198685 -0.0118149 0.0198658 0.0401019 0.0125959 -0.000813124 -0.0310122 0.0485779 0.0338975 0.0567887 0.0238878 0.0427528 0.0659846 0.0479333 0.0492852 -0.0480246 -0.0542196 -0.0616652 -0.0580216 -0.0522009 -0.0520234 -0.0505959 -0.0516544 -0.0518957 -0.0511956
internal_weight=38.4863 23.3269 10.2593 7.4715 13.0675 7.82728 3.05051 1.81776 4.77678 6.31974 4.75012 2.80544 4.36782 2.97575 5.24026 1.14472 1.94468 4.09554 1.69116 2.25858 2.07552 1.15176 1.44788 0.841298 0.538008 0.321032 2.78783 0.953001 0.427021 0.762376
internal_count=11141 1617 1134 242 483 324 129 94 195 140 126 79 86 78 159 81 47 78 42 44 61 102 49 44 66 59 892 99 40 94
cat_boundaries=0 8
cat_threshold=8388609 0 268468804 0 134479912 0 76022018 65681
is_linear=0
shrinkage=0.05


Tree=26
num_leaves=31
num_cat=1
split_feature=1 4 20 2 8 24 30 40 20 39 8 16 20 0 14 40 0 8 40 2 25 20 7 32 20 25 33 7 36 14
split_gain=14.3704 1.92572 2.00874 2.27525 1.32596 1.41883 1.15103 1.74559 1.36063 1.60549 1.07961 1.00907 0.995531 0.799407 0.963583 0.780712 1.64733 0.645595 0.521059 0.360008 0.311559 0.305744 0.295604 0.692237 0.170904 0.692791 0.158178 0.0849778 0.00628303 0.000889738
threshold=3.5000000000000004 0 10001.515151515154 20.500000000000004 81740.000000000015 16.500000000000004 0.058186010760953116 513305.16151681211 4960.6191026827028 1.9423523418538395e-23 3474548.5000000005 1.0000000180025095e-35 72387.018535353549 59150.000000000007 -0.032351600926275446 198851.75807320312 248167.00000000003 146086.50000000003 277795.37315440987 34.500000000000007 10382.500000000002 11239.169642857143 15.057825330543606 -0.029350993196300992 7594.2563025210093 189900.00000000003 1.5000000000000002 15.057825330543606 0.0004227517294388932 -0.073666727811640381
decision_type=2 9 2 2 2 2 2 2 2 2 2 2 2 2 2 2 2 2 2 2 2 2 2 2 2 2 2 2 2 2
left_child=1 6 4 10 19 -6 7 8 -1 22 27 17 -11 14 -7 16 29 21 -17 28 -20 -5 23 26 -22 -26 -10 -4 -3 -8
right_child=-2 2 3 11 5 13 15 -9 9 12 -12 -13 -14 -15 -16 18 -18 -19 20 -21 24 -23 -24 -25 25 -27 -28 -29 -30 -31
leaf_value=-0.056550470559934229 -0.050075937114504976 -0.062884738091256068 -0.050759509918919213 0.056236309812803836 -0.052801265780540334 0.075113043068380778 -0.05572908791292918 -0.031285131854065305 0.046120770188727983 -0.051790438485609304 0.034307144750602508 -0.050422742031198425 0.051864748424222389 0.04891367066267284 -0.050814122301364666 0.098743276344573278 0.057856644105273941 0.068193932779552352 0.066633523922504531 0.020513850399824517 0.062653967709295211 -0.050493161435213069 0.071860155260498895 0.0041181409780473429 -0.051100051482033386 0.071707407408425877 0.073751555254110923 -0.06593464790149671 -0.051873481047852478 -0.050786781985228548
leaf_weight=0.38519236724823525 14.42116988589987 0.16291278600692916 2.6126225413754582 0.098597072064876334 0.50539270904846523 0.22255566716194208 0.12199623603373755 1.2347647934220729 1.0665770079940553 0.66545035806484498 0.35946657392196346 0.36119314446113993 0.35532709420658648 2.7745148239191622 0.47857650555670239 0.96948156645521555 1.1707237754017112 0.83761860337108374 1.7281557583482938 0.20270313858054578 0.22294603008776892 0.21005624369718134 1.5078091621398924 0.77365987957455296 0.23348377563524991 0.22599797300063074 1.0069896848872304 1.4260886958800254 0.63258502504322678 0.35914267727639526
